%YAML:1.0
---
opencv_ml_svm:
   format: 3
   svmType: C_SVC
   kernel:
      type: LINEAR
   C: 2.
   term_criteria: { iterations:100 }
   var_count: 100
   class_count: 2
   class_labels: !!opencv-matrix
      rows: 2
      cols: 1
      dt: i
      data: [ 0, 1 ]
   sv_total: 1
   support_vectors:
      - [ 1.34401476e+00, -1.19215858e+00, 7.41409600e-01,
          2.42313051e+00, -1.65539670e+00, 6.67167664e-01,
          2.59867430e-01, -2.96466082e-01, -4.00808930e-01,
          -2.65716970e-01, -1.32226694e+00, -6.68174773e-02,
          -8.80924642e-01, 6.18862063e-02, 1.93592548e-01,
          -2.22923741e-01, -1.69860553e-02, 5.27881920e-01,
          2.43320957e-01, -6.32621944e-02, -2.07953796e-01,
          -1.58606824e-02, 5.08559383e-02, -3.77777778e-02,
          9.66584384e-02, 7.22327754e-02, -9.43396240e-03,
          -9.18203443e-02, 4.56449809e-03, 1.90820564e-02,
          -8.88888910e-03, 3.57142873e-02, 0., 0., -1.45701319e-02,
          5.55004068e-02, 0., 0., 0., -3.15667391e-02, 0., 0., 0., 0.,
          -6.19195029e-03, 0., 0., 1.09130908e-02, 0., 0., 0., 0., 0.,
          0., 0., 0., 0., 0., 0., 0., 0., 0., 0., 0., 0., 0., 0., 0., 0.,
          0., 0., 0., 0., 0., 0., 0., 0., 0., 0., 0., 0., 0., 0., 0., 0.,
          0., 0., 0., 0., 0., 0., 0., 0., 0., 0., 0., 0., 0., 0., 0. ]
   uncompressed_sv_total: 30
   uncompressed_support_vectors:
      - [ 1.12727277e-01, 5.09090908e-02, 1.52727276e-01, 1.96363643e-01,
          4.36363630e-02, 6.54545426e-02, 4.72727269e-02, 5.09090908e-02,
          1.09090907e-02, 1.09090907e-02, 2.54545454e-02, 2.18181815e-02,
          3.27272713e-02, 1.45454546e-02, 6.18181825e-02, 7.27272732e-03,
          0., 1.81818176e-02, 2.90909093e-02, 0., 1.45454546e-02,
          3.63636366e-03, 3.63636366e-03, 0., 3.63636366e-03,
          1.09090907e-02, 0., 0., 0., 3.63636366e-03, 0., 0., 0., 0.,
          3.63636366e-03, 3.63636366e-03, 0., 0., 0., 0., 0., 0., 0., 0.,
          0., 0., 0., 0., 0., 0., 0., 0., 0., 0., 0., 0., 0., 0., 0., 0.,
          0., 0., 0., 0., 0., 0., 0., 0., 0., 0., 0., 0., 0., 0., 0., 0.,
          0., 0., 0., 0., 0., 0., 0., 0., 0., 0., 0., 0., 0., 0., 0., 0.,
          0., 0., 0., 0., 0., 0., 0., 0. ]
      - [ 1.25000000e-01, 1.25000000e-01, 8.92857164e-02, 1.07142866e-01,
          1.78571437e-02, 5.35714328e-02, 5.35714328e-02, 3.57142873e-02,
          0., 5.35714328e-02, 3.57142873e-02, 1.78571437e-02,
          1.78571437e-02, 0., 1.07142866e-01, 0., 0., 3.57142873e-02,
          8.92857164e-02, 0., 0., 0., 0., 0., 1.78571437e-02, 0., 0., 0.,
          0., 0., 0., 1.78571437e-02, 0., 0., 0., 0., 0., 0., 0., 0., 0.,
          0., 0., 0., 0., 0., 0., 0., 0., 0., 0., 0., 0., 0., 0., 0., 0.,
          0., 0., 0., 0., 0., 0., 0., 0., 0., 0., 0., 0., 0., 0., 0., 0.,
          0., 0., 0., 0., 0., 0., 0., 0., 0., 0., 0., 0., 0., 0., 0., 0.,
          0., 0., 0., 0., 0., 0., 0., 0., 0., 0., 0. ]
      - [ 1.53846160e-01, 3.36538479e-02, 7.69230798e-02, 1.77884623e-01,
          6.25000000e-02, 6.73076957e-02, 2.40384620e-02, 3.36538479e-02,
          4.80769239e-02, 9.13461596e-02, 4.80769239e-02, 2.88461559e-02,
          1.44230779e-02, 0., 5.28846160e-02, 0., 0., 1.44230779e-02,
          1.44230779e-02, 4.80769249e-03, 1.92307699e-02, 4.80769249e-03,
          4.80769249e-03, 0., 0., 9.61538497e-03, 0., 9.61538497e-03, 0.,
          4.80769249e-03, 0., 0., 0., 0., 0., 0., 0., 0., 0., 0., 0., 0.,
          0., 0., 0., 0., 0., 0., 0., 0., 0., 0., 0., 0., 0., 0., 0., 0.,
          0., 0., 0., 0., 0., 0., 0., 0., 0., 0., 0., 0., 0., 0., 0., 0.,
          0., 0., 0., 0., 0., 0., 0., 0., 0., 0., 0., 0., 0., 0., 0., 0.,
          0., 0., 0., 0., 0., 0., 0., 0., 0., 0. ]
      - [ 2.22222224e-01, 2.61437912e-02, 1.04575165e-01, 2.02614382e-01,
          1.96078438e-02, 4.57516350e-02, 3.92156877e-02, 2.61437912e-02,
          2.61437912e-02, 7.18954280e-02, 1.30718956e-02, 6.53594779e-03,
          1.96078438e-02, 2.61437912e-02, 5.22875823e-02, 6.53594779e-03,
          0., 2.61437912e-02, 1.30718956e-02, 0., 3.92156877e-02, 0., 0.,
          0., 0., 6.53594779e-03, 0., 6.53594779e-03, 0., 0., 0., 0., 0.,
          0., 0., 0., 0., 0., 0., 0., 0., 0., 0., 0., 0., 0., 0., 0., 0.,
          0., 0., 0., 0., 0., 0., 0., 0., 0., 0., 0., 0., 0., 0., 0., 0.,
          0., 0., 0., 0., 0., 0., 0., 0., 0., 0., 0., 0., 0., 0., 0., 0.,
          0., 0., 0., 0., 0., 0., 0., 0., 0., 0., 0., 0., 0., 0., 0., 0.,
          0., 0., 0. ]
      - [ 6.86274543e-02, 0., 4.90196086e-02, 1.76470593e-01,
          5.88235334e-02, 1.07843138e-01, 1.96078438e-02, 5.88235334e-02,
          3.92156877e-02, 7.84313753e-02, 2.94117667e-02, 2.94117667e-02,
          1.96078438e-02, 0., 1.47058830e-01, 1.96078438e-02, 0.,
          9.80392192e-03, 0., 2.94117667e-02, 9.80392192e-03, 0.,
          2.94117667e-02, 0., 9.80392192e-03, 9.80392192e-03, 0., 0., 0.,
          0., 0., 0., 0., 0., 0., 0., 0., 0., 0., 0., 0., 0., 0., 0., 0.,
          0., 0., 0., 0., 0., 0., 0., 0., 0., 0., 0., 0., 0., 0., 0., 0.,
          0., 0., 0., 0., 0., 0., 0., 0., 0., 0., 0., 0., 0., 0., 0., 0.,
          0., 0., 0., 0., 0., 0., 0., 0., 0., 0., 0., 0., 0., 0., 0., 0.,
          0., 0., 0., 0., 0., 0., 0. ]
      - [ 1.28712863e-01, 1.18811876e-01, 1.08910888e-01, 2.47524753e-01,
          6.93069324e-02, 1.98019799e-02, 2.97029689e-02, 2.97029689e-02,
          4.95049506e-02, 1.98019799e-02, 0., 9.90098994e-03,
          3.96039598e-02, 0., 9.90098994e-03, 0., 0., 4.95049506e-02,
          1.98019799e-02, 0., 3.96039598e-02, 0., 0., 0., 0., 0., 0., 0.,
          0., 0., 0., 0., 0., 0., 0., 0., 0., 0., 0., 0., 0., 0., 0., 0.,
          0., 0., 0., 9.90098994e-03, 0., 0., 0., 0., 0., 0., 0., 0., 0.,
          0., 0., 0., 0., 0., 0., 0., 0., 0., 0., 0., 0., 0., 0., 0., 0.,
          0., 0., 0., 0., 0., 0., 0., 0., 0., 0., 0., 0., 0., 0., 0., 0.,
          0., 0., 0., 0., 0., 0., 0., 0., 0., 0., 0. ]
      - [ 8.92857164e-02, 8.03571492e-02, 5.35714328e-02, 1.42857149e-01,
          5.35714328e-02, 5.35714328e-02, 8.92857183e-03, 1.78571437e-02,
          8.03571492e-02, 1.16071433e-01, 1.78571437e-02, 0.,
          4.46428582e-02, 8.92857183e-03, 6.25000000e-02, 0., 0.,
          3.57142873e-02, 6.25000000e-02, 0., 2.67857164e-02, 0., 0., 0.,
          8.92857183e-03, 0., 0., 0., 8.92857183e-03, 0., 0., 0., 0., 0.,
          8.92857183e-03, 1.78571437e-02, 0., 0., 0., 0., 0., 0., 0., 0.,
          0., 0., 0., 0., 0., 0., 0., 0., 0., 0., 0., 0., 0., 0., 0., 0.,
          0., 0., 0., 0., 0., 0., 0., 0., 0., 0., 0., 0., 0., 0., 0., 0.,
          0., 0., 0., 0., 0., 0., 0., 0., 0., 0., 0., 0., 0., 0., 0., 0.,
          0., 0., 0., 0., 0., 0., 0., 0. ]
      - [ 1.06060609e-01, 2.27272734e-02, 5.30303046e-02, 1.51515156e-01,
          6.06060624e-02, 2.87878811e-01, 1.51515156e-02, 1.51515156e-02,
          2.27272734e-02, 6.06060624e-02, 1.51515156e-02, 1.51515156e-02,
          7.57575780e-03, 7.57575780e-03, 6.81818202e-02, 0., 0.,
          7.57575780e-03, 2.27272734e-02, 7.57575780e-03, 2.27272734e-02,
          7.57575780e-03, 7.57575780e-03, 0., 7.57575780e-03, 0., 0., 0.,
          7.57575780e-03, 0., 0., 0., 0., 0., 0., 0., 0., 0., 0., 0., 0.,
          0., 0., 0., 0., 0., 0., 0., 0., 0., 0., 0., 0., 0., 0., 0., 0.,
          0., 0., 0., 0., 0., 0., 0., 0., 0., 0., 0., 0., 0., 0., 0., 0.,
          0., 0., 0., 0., 0., 0., 0., 0., 0., 0., 0., 0., 0., 0., 0., 0.,
          0., 0., 0., 0., 0., 0., 0., 0., 0., 0., 0. ]
      - [ 2.45398767e-02, 1.16564415e-01, 1.10429443e-01, 1.34969324e-01,
          4.90797535e-02, 7.97545984e-02, 4.90797535e-02, 1.84049085e-02,
          8.58895704e-02, 4.90797535e-02, 2.45398767e-02, 1.22699384e-02,
          2.45398767e-02, 1.84049085e-02, 5.52147217e-02, 0., 0.,
          7.97545984e-02, 3.06748450e-02, 6.13496918e-03, 1.84049085e-02,
          0., 6.13496918e-03, 0., 0., 6.13496918e-03, 0., 0., 0., 0., 0.,
          0., 0., 0., 0., 0., 0., 0., 0., 0., 0., 0., 0., 0., 0., 0., 0.,
          0., 0., 0., 0., 0., 0., 0., 0., 0., 0., 0., 0., 0., 0., 0., 0.,
          0., 0., 0., 0., 0., 0., 0., 0., 0., 0., 0., 0., 0., 0., 0., 0.,
          0., 0., 0., 0., 0., 0., 0., 0., 0., 0., 0., 0., 0., 0., 0., 0.,
          0., 0., 0., 0., 0. ]
      - [ 2.41935477e-02, 4.83870953e-02, 9.67741907e-02, 1.69354826e-01,
          2.41935477e-02, 8.87096748e-02, 8.87096748e-02, 1.61290318e-02,
          3.22580636e-02, 1.12903222e-01, 2.41935477e-02, 8.06451589e-03,
          0., 0., 8.87096748e-02, 0., 0., 4.83870953e-02, 4.83870953e-02,
          0., 8.06451589e-03, 8.06451589e-03, 1.61290318e-02, 0.,
          1.61290318e-02, 2.41935477e-02, 0., 8.06451589e-03, 0., 0., 0.,
          0., 0., 0., 0., 0., 0., 0., 0., 0., 0., 0., 0., 0., 0., 0., 0.,
          0., 0., 0., 0., 0., 0., 0., 0., 0., 0., 0., 0., 0., 0., 0., 0.,
          0., 0., 0., 0., 0., 0., 0., 0., 0., 0., 0., 0., 0., 0., 0., 0.,
          0., 0., 0., 0., 0., 0., 0., 0., 0., 0., 0., 0., 0., 0., 0., 0.,
          0., 0., 0., 0., 0. ]
      - [ 7.96812773e-02, 7.56972134e-02, 1.07569724e-01, 2.03187257e-01,
          6.37450218e-02, 6.37450218e-02, 2.78884470e-02, 5.17928302e-02,
          3.98406386e-02, 4.78087664e-02, 2.39043832e-02, 0.,
          4.38247025e-02, 1.59362555e-02, 2.39043832e-02, 7.96812773e-03,
          0., 1.19521916e-02, 4.78087664e-02, 1.19521916e-02,
          1.19521916e-02, 1.19521916e-02, 1.59362555e-02, 0., 0.,
          3.98406386e-03, 0., 0., 0., 0., 0., 0., 0., 0., 0.,
          7.96812773e-03, 0., 0., 0., 0., 0., 0., 0., 0., 0., 0., 0., 0.,
          0., 0., 0., 0., 0., 0., 0., 0., 0., 0., 0., 0., 0., 0., 0., 0.,
          0., 0., 0., 0., 0., 0., 0., 0., 0., 0., 0., 0., 0., 0., 0., 0.,
          0., 0., 0., 0., 0., 0., 0., 0., 0., 0., 0., 0., 0., 0., 0., 0.,
          0., 0., 0., 0. ]
      - [ 1.62790701e-01, 4.65116277e-02, 4.06976752e-02, 5.81395328e-02,
          2.32558139e-02, 1.51162788e-01, 1.74418613e-02, 4.06976752e-02,
          2.90697664e-02, 1.10465117e-01, 2.90697664e-02, 3.48837227e-02,
          1.16279069e-02, 0., 1.33720934e-01, 5.81395347e-03, 0.,
          2.32558139e-02, 5.81395347e-03, 5.81395347e-03, 5.81395347e-03,
          0., 2.32558139e-02, 0., 2.32558139e-02, 5.81395347e-03, 0., 0.,
          5.81395347e-03, 5.81395347e-03, 0., 0., 0., 0., 0., 0., 0., 0.,
          0., 0., 0., 0., 0., 0., 0., 0., 0., 0., 0., 0., 0., 0., 0., 0.,
          0., 0., 0., 0., 0., 0., 0., 0., 0., 0., 0., 0., 0., 0., 0., 0.,
          0., 0., 0., 0., 0., 0., 0., 0., 0., 0., 0., 0., 0., 0., 0., 0.,
          0., 0., 0., 0., 0., 0., 0., 0., 0., 0., 0., 0., 0., 0. ]
      - [ 1.98198199e-01, 1.44144148e-01, 1.17117122e-01, 1.71171173e-01,
          1.80180185e-02, 2.70270277e-02, 2.70270277e-02, 0.,
          1.80180185e-02, 2.70270277e-02, 0., 9.00900923e-03,
          2.70270277e-02, 9.00900923e-03, 3.60360369e-02, 0., 0.,
          1.26126125e-01, 1.80180185e-02, 0., 9.00900923e-03, 0., 0., 0.,
          1.80180185e-02, 0., 0., 0., 0., 0., 0., 0., 0., 0., 0., 0., 0.,
          0., 0., 0., 0., 0., 0., 0., 0., 0., 0., 0., 0., 0., 0., 0., 0.,
          0., 0., 0., 0., 0., 0., 0., 0., 0., 0., 0., 0., 0., 0., 0., 0.,
          0., 0., 0., 0., 0., 0., 0., 0., 0., 0., 0., 0., 0., 0., 0., 0.,
          0., 0., 0., 0., 0., 0., 0., 0., 0., 0., 0., 0., 0., 0., 0. ]
      - [ 1.93236709e-01, 1.06280193e-01, 5.79710156e-02, 1.25603870e-01,
          6.28019348e-02, 3.86473425e-02, 3.38164233e-02, 6.28019348e-02,
          3.38164233e-02, 5.31400964e-02, 1.44927539e-02, 9.66183562e-03,
          2.89855078e-02, 4.83091781e-03, 6.28019348e-02, 4.83091781e-03,
          0., 2.89855078e-02, 1.93236712e-02, 0., 9.66183562e-03,
          4.83091781e-03, 1.44927539e-02, 0., 9.66183562e-03,
          4.83091781e-03, 0., 4.83091781e-03, 4.83091781e-03, 0., 0., 0.,
          0., 0., 0., 4.83091781e-03, 0., 0., 0., 0., 0., 0., 0., 0., 0.,
          0., 0., 0., 0., 0., 0., 0., 0., 0., 0., 0., 0., 0., 0., 0., 0.,
          0., 0., 0., 0., 0., 0., 0., 0., 0., 0., 0., 0., 0., 0., 0., 0.,
          0., 0., 0., 0., 0., 0., 0., 0., 0., 0., 0., 0., 0., 0., 0., 0.,
          0., 0., 0., 0., 0., 0., 0. ]
      - [ 2.04301074e-01, 1.93548381e-01, 1.18279569e-01, 8.60215053e-02,
          2.15053763e-02, 6.45161271e-02, 3.22580636e-02, 0.,
          3.22580636e-02, 2.15053763e-02, 1.07526882e-02, 0.,
          1.07526882e-02, 1.07526882e-02, 7.52688199e-02, 0., 0.,
          6.45161271e-02, 3.22580636e-02, 0., 2.15053763e-02, 0., 0., 0.,
          0., 0., 0., 0., 0., 0., 0., 0., 0., 0., 0., 0., 0., 0., 0., 0.,
          0., 0., 0., 0., 0., 0., 0., 0., 0., 0., 0., 0., 0., 0., 0., 0.,
          0., 0., 0., 0., 0., 0., 0., 0., 0., 0., 0., 0., 0., 0., 0., 0.,
          0., 0., 0., 0., 0., 0., 0., 0., 0., 0., 0., 0., 0., 0., 0., 0.,
          0., 0., 0., 0., 0., 0., 0., 0., 0., 0., 0., 0. ]
      - [ 5.49450554e-02, 1.31868139e-01, 6.95970729e-02, 2.56410260e-02,
          1.39194146e-01, 4.76190485e-02, 1.09890113e-02, 5.49450554e-02,
          7.32600763e-02, 6.22710623e-02, 6.59340695e-02, 2.93040294e-02,
          5.86080588e-02, 7.32600736e-03, 5.49450554e-02, 7.32600736e-03,
          0., 1.83150191e-02, 3.29670347e-02, 1.09890113e-02,
          1.46520147e-02, 3.66300368e-03, 3.66300368e-03, 0.,
          7.32600736e-03, 3.66300368e-03, 0., 3.66300368e-03,
          3.66300368e-03, 0., 0., 0., 0., 0., 3.66300368e-03, 0., 0., 0.,
          0., 0., 0., 0., 0., 0., 0., 0., 0., 0., 0., 0., 0., 0., 0., 0.,
          0., 0., 0., 0., 0., 0., 0., 0., 0., 0., 0., 0., 0., 0., 0., 0.,
          0., 0., 0., 0., 0., 0., 0., 0., 0., 0., 0., 0., 0., 0., 0., 0.,
          0., 0., 0., 0., 0., 0., 0., 0., 0., 0., 0., 0., 0., 0. ]
      - [ 6.66666701e-02, 1.51111111e-01, 7.55555555e-02, 1.15555555e-01,
          1.20000005e-01, 1.77777782e-02, 2.22222228e-02, 4.88888919e-02,
          3.99999991e-02, 4.44444455e-02, 4.88888919e-02, 1.33333337e-02,
          6.22222237e-02, 4.44444455e-03, 4.44444455e-02, 8.88888910e-03,
          4.44444455e-03, 1.33333337e-02, 2.22222228e-02, 4.44444455e-03,
          3.11111119e-02, 4.44444455e-03, 0., 8.88888910e-03,
          4.44444455e-03, 4.44444455e-03, 0., 8.88888910e-03, 0., 0.,
          4.44444455e-03, 0., 0., 0., 0., 0., 0., 0., 0., 0., 0., 0., 0.,
          0., 0., 0., 0., 4.44444455e-03, 0., 0., 0., 0., 0., 0., 0., 0.,
          0., 0., 0., 0., 0., 0., 0., 0., 0., 0., 0., 0., 0., 0., 0., 0.,
          0., 0., 0., 0., 0., 0., 0., 0., 0., 0., 0., 0., 0., 0., 0., 0.,
          0., 0., 0., 0., 0., 0., 0., 0., 0., 0., 0., 0. ]
      - [ 9.05349776e-02, 2.42798343e-01, 6.99588433e-02, 6.17283918e-02,
          4.93827164e-02, 1.64609049e-02, 0., 7.81892985e-02,
          5.34979403e-02, 2.88065840e-02, 7.40740746e-02, 1.64609049e-02,
          7.81892985e-02, 8.23045243e-03, 2.46913582e-02, 4.11522621e-03,
          0., 3.29218097e-02, 1.23456791e-02, 8.23045243e-03,
          2.46913582e-02, 0., 4.11522621e-03, 0., 0., 8.23045243e-03, 0.,
          4.11522621e-03, 0., 0., 0., 0., 0., 0., 4.11522621e-03, 0., 0.,
          0., 0., 4.11522621e-03, 0., 0., 0., 0., 0., 0., 0., 0., 0., 0.,
          0., 0., 0., 0., 0., 0., 0., 0., 0., 0., 0., 0., 0., 0., 0., 0.,
          0., 0., 0., 0., 0., 0., 0., 0., 0., 0., 0., 0., 0., 0., 0., 0.,
          0., 0., 0., 0., 0., 0., 0., 0., 0., 0., 0., 0., 0., 0., 0., 0.,
          0., 0. ]
      - [ 1.23505980e-01, 1.99203193e-01, 4.78087664e-02, 9.56175327e-02,
          7.56972134e-02, 1.19521916e-02, 2.39043832e-02, 1.99203193e-02,
          3.18725109e-02, 8.36653411e-02, 6.37450218e-02, 1.59362555e-02,
          6.37450218e-02, 3.98406386e-03, 2.78884470e-02, 7.96812773e-03,
          0., 4.78087664e-02, 2.39043832e-02, 3.98406386e-03,
          2.39043832e-02, 3.98406386e-03, 0., 0., 0., 0., 0., 0., 0., 0.,
          0., 0., 0., 0., 0., 0., 0., 0., 0., 0., 0., 0., 0., 0., 0., 0.,
          0., 0., 0., 0., 0., 0., 0., 0., 0., 0., 0., 0., 0., 0., 0., 0.,
          0., 0., 0., 0., 0., 0., 0., 0., 0., 0., 0., 0., 0., 0., 0., 0.,
          0., 0., 0., 0., 0., 0., 0., 0., 0., 0., 0., 0., 0., 0., 0., 0.,
          0., 0., 0., 0., 0., 0. ]
      - [ 9.27152336e-02, 1.62251651e-01, 4.63576168e-02, 4.96688746e-02,
          8.94039720e-02, 9.93377529e-03, 2.64900662e-02, 4.96688746e-02,
          5.62913902e-02, 9.93377492e-02, 5.29801324e-02, 1.98675506e-02,
          5.62913902e-02, 0., 6.62251636e-02, 9.93377529e-03, 0.,
          1.65562909e-02, 1.98675506e-02, 1.32450331e-02, 4.30463590e-02,
          9.93377529e-03, 3.31125828e-03, 0., 0., 0., 0., 3.31125828e-03,
          0., 0., 0., 0., 0., 0., 0., 0., 0., 0., 0., 3.31125828e-03, 0.,
          0., 0., 0., 0., 0., 0., 0., 0., 0., 0., 0., 0., 0., 0., 0., 0.,
          0., 0., 0., 0., 0., 0., 0., 0., 0., 0., 0., 0., 0., 0., 0., 0.,
          0., 0., 0., 0., 0., 0., 0., 0., 0., 0., 0., 0., 0., 0., 0., 0.,
          0., 0., 0., 0., 0., 0., 0., 0., 0., 0., 0. ]
      - [ 4.48877811e-02, 3.74064855e-02, 9.22693312e-02, 6.98254406e-02,
          1.09725691e-01, 9.72568616e-02, 4.48877811e-02, 4.23940159e-02,
          6.98254406e-02, 6.73316717e-02, 6.73316717e-02, 7.48129701e-03,
          6.48379102e-02, 4.98753134e-03, 6.48379102e-02, 7.48129701e-03,
          0., 7.48129701e-03, 3.99002507e-02, 9.97506268e-03,
          9.97506268e-03, 7.48129701e-03, 1.24688279e-02, 0.,
          4.98753134e-03, 2.49376567e-03, 0., 9.97506268e-03, 0., 0., 0.,
          0., 0., 0., 0., 2.49376567e-03, 0., 0., 0., 0., 0., 0., 0., 0.,
          0., 0., 0., 0., 0., 0., 0., 0., 0., 0., 0., 0., 0., 0., 0., 0.,
          0., 0., 0., 0., 0., 0., 0., 0., 0., 0., 0., 0., 0., 0., 0., 0.,
          0., 0., 0., 0., 0., 0., 0., 0., 0., 0., 0., 0., 0., 0., 0., 0.,
          0., 0., 0., 0., 0., 0., 0., 0. ]
      - [ 1.46341458e-01, 1.62601620e-01, 5.69105670e-02, 1.09756097e-01,
          8.53658468e-02, 4.06504050e-03, 4.06504050e-03, 6.91056848e-02,
          5.69105670e-02, 6.09756075e-02, 5.69105670e-02, 8.13008100e-03,
          4.47154455e-02, 4.06504050e-03, 2.03252025e-02, 0., 0.,
          8.13008100e-03, 1.62601620e-02, 1.21951215e-02, 4.47154455e-02,
          0., 4.06504050e-03, 0., 0., 0., 0., 8.13008100e-03,
          1.21951215e-02, 0., 0., 0., 0., 0., 0., 0., 0., 0., 0.,
          4.06504050e-03, 0., 0., 0., 0., 0., 0., 0., 0., 0., 0., 0., 0.,
          0., 0., 0., 0., 0., 0., 0., 0., 0., 0., 0., 0., 0., 0., 0., 0.,
          0., 0., 0., 0., 0., 0., 0., 0., 0., 0., 0., 0., 0., 0., 0., 0.,
          0., 0., 0., 0., 0., 0., 0., 0., 0., 0., 0., 0., 0., 0., 0., 0. ]
      - [ 9.01287571e-02, 1.88841194e-01, 3.86266112e-02, 7.72532225e-02,
          5.57939932e-02, 8.58369097e-03, 2.57510729e-02, 4.72102985e-02,
          2.57510729e-02, 6.00858368e-02, 1.07296139e-01, 8.58369097e-03,
          7.29613751e-02, 1.28755365e-02, 6.00858368e-02, 1.28755365e-02,
          0., 4.29184549e-02, 1.28755365e-02, 8.58369097e-03,
          1.28755365e-02, 0., 4.29184549e-03, 0., 4.29184549e-03,
          4.29184549e-03, 0., 4.29184549e-03, 4.29184549e-03, 0., 0., 0.,
          0., 0., 4.29184549e-03, 0., 0., 0., 0., 4.29184549e-03, 0., 0.,
          0., 0., 0., 0., 0., 0., 0., 0., 0., 0., 0., 0., 0., 0., 0., 0.,
          0., 0., 0., 0., 0., 0., 0., 0., 0., 0., 0., 0., 0., 0., 0., 0.,
          0., 0., 0., 0., 0., 0., 0., 0., 0., 0., 0., 0., 0., 0., 0., 0.,
          0., 0., 0., 0., 0., 0., 0., 0., 0., 0. ]
      - [ 3.17919068e-02, 2.60115601e-02, 9.53757167e-02, 7.51445070e-02,
          1.35838151e-01, 1.06936410e-01, 5.49132936e-02, 4.33526002e-02,
          3.75722535e-02, 8.09248537e-02, 6.06936403e-02, 1.73410401e-02,
          3.46820801e-02, 8.67052004e-03, 8.09248537e-02, 2.02312134e-02,
          0., 1.15606934e-02, 2.60115601e-02, 2.89017335e-03,
          1.15606934e-02, 0., 5.78034669e-03, 0., 1.15606934e-02,
          2.89017335e-03, 0., 1.73410401e-02, 0., 0., 0., 0., 0., 0., 0.,
          0., 0., 0., 0., 0., 0., 0., 0., 0., 0., 0., 0., 0., 0., 0., 0.,
          0., 0., 0., 0., 0., 0., 0., 0., 0., 0., 0., 0., 0., 0., 0., 0.,
          0., 0., 0., 0., 0., 0., 0., 0., 0., 0., 0., 0., 0., 0., 0., 0.,
          0., 0., 0., 0., 0., 0., 0., 0., 0., 0., 0., 0., 0., 0., 0., 0.,
          0. ]
      - [ 8.49056616e-02, 1.74528301e-01, 4.24528308e-02, 7.07547218e-02,
          8.01886767e-02, 3.77358496e-02, 1.88679248e-02, 2.83018872e-02,
          4.24528308e-02, 8.01886767e-02, 7.54716992e-02, 4.71698120e-03,
          7.07547218e-02, 4.71698120e-03, 7.54716992e-02, 9.43396240e-03,
          0., 3.30188684e-02, 3.30188684e-02, 4.71698120e-03,
          4.71698120e-03, 0., 9.43396240e-03, 0., 0., 0., 4.71698120e-03,
          0., 4.71698120e-03, 4.71698120e-03, 0., 0., 0., 0., 0., 0., 0.,
          0., 0., 0., 0., 0., 0., 0., 0., 0., 0., 0., 0., 0., 0., 0., 0.,
          0., 0., 0., 0., 0., 0., 0., 0., 0., 0., 0., 0., 0., 0., 0., 0.,
          0., 0., 0., 0., 0., 0., 0., 0., 0., 0., 0., 0., 0., 0., 0., 0.,
          0., 0., 0., 0., 0., 0., 0., 0., 0., 0., 0., 0., 0., 0., 0. ]
      - [ 1.10481583e-01, 5.09915017e-02, 5.38243614e-02, 1.01983003e-01,
          6.79886639e-02, 1.13314450e-01, 2.83286124e-02, 3.96600552e-02,
          6.51558042e-02, 5.09915017e-02, 4.53257784e-02, 1.69971660e-02,
          5.94900846e-02, 8.49858299e-03, 8.21529701e-02, 1.98300276e-02,
          0., 2.83286124e-02, 2.83286124e-02, 2.83286115e-03,
          1.13314446e-02, 0., 0., 0., 5.66572230e-03, 8.49858299e-03, 0.,
          0., 0., 0., 0., 0., 0., 0., 0., 0., 0., 0., 0., 0., 0., 0., 0.,
          0., 0., 0., 0., 0., 0., 0., 0., 0., 0., 0., 0., 0., 0., 0., 0.,
          0., 0., 0., 0., 0., 0., 0., 0., 0., 0., 0., 0., 0., 0., 0., 0.,
          0., 0., 0., 0., 0., 0., 0., 0., 0., 0., 0., 0., 0., 0., 0., 0.,
          0., 0., 0., 0., 0., 0., 0., 0., 0. ]
      - [ 1.99999996e-02, 1.49999997e-02, 5.49999997e-02, 5.99999987e-02,
          1.34999990e-01, 1.34999990e-01, 2.99999993e-02, 2.99999993e-02,
          9.49999988e-02, 1.09999999e-01, 7.49999955e-02, 1.99999996e-02,
          2.99999993e-02, 0., 8.99999961e-02, 1.99999996e-02, 0.,
          9.99999978e-03, 1.49999997e-02, 4.99999989e-03, 3.50000001e-02,
          0., 0., 9.99999978e-03, 0., 0., 0., 4.99999989e-03, 0., 0., 0.,
          0., 0., 0., 0., 0., 0., 0., 0., 0., 0., 0., 0., 0., 0., 0., 0.,
          0., 0., 0., 0., 0., 0., 0., 0., 0., 0., 0., 0., 0., 0., 0., 0.,
          0., 0., 0., 0., 0., 0., 0., 0., 0., 0., 0., 0., 0., 0., 0., 0.,
          0., 0., 0., 0., 0., 0., 0., 0., 0., 0., 0., 0., 0., 0., 0., 0.,
          0., 0., 0., 0., 0. ]
      - [ 8.90688300e-02, 1.57894745e-01, 7.28744939e-02, 7.69230798e-02,
          9.31174085e-02, 1.61943324e-02, 1.21457493e-02, 2.83400826e-02,
          2.02429146e-02, 5.26315793e-02, 6.07287474e-02, 4.04858310e-03,
          5.26315793e-02, 8.09716620e-03, 5.66801652e-02, 0.,
          4.04858310e-03, 3.64372469e-02, 2.02429146e-02, 4.04858310e-03,
          7.28744939e-02, 8.09716620e-03, 2.02429146e-02, 0.,
          1.21457493e-02, 8.09716620e-03, 0., 4.04858310e-03, 0., 0., 0.,
          0., 0., 0., 4.04858310e-03, 4.04858310e-03, 0., 0., 0., 0., 0.,
          0., 0., 0., 0., 0., 0., 0., 0., 0., 0., 0., 0., 0., 0., 0., 0.,
          0., 0., 0., 0., 0., 0., 0., 0., 0., 0., 0., 0., 0., 0., 0., 0.,
          0., 0., 0., 0., 0., 0., 0., 0., 0., 0., 0., 0., 0., 0., 0., 0.,
          0., 0., 0., 0., 0., 0., 0., 0., 0., 0., 0. ]
      - [ 1.26934975e-01, 6.19195029e-02, 7.12074265e-02, 1.08359128e-01,
          1.23839006e-01, 8.66873041e-02, 5.88235259e-02, 1.85758509e-02,
          4.33436520e-02, 5.26315793e-02, 7.73993805e-02, 2.47678012e-02,
          1.54798757e-02, 9.28792544e-03, 4.64396253e-02, 9.28792544e-03,
          0., 9.28792544e-03, 6.19195029e-03, 6.19195029e-03,
          1.23839006e-02, 0., 6.19195029e-03, 0., 1.23839006e-02,
          3.09597515e-03, 0., 6.19195029e-03, 0., 0., 0., 0., 0., 0., 0.,
          0., 0., 0., 0., 0., 0., 0., 0., 0., 3.09597515e-03, 0., 0., 0.,
          0., 0., 0., 0., 0., 0., 0., 0., 0., 0., 0., 0., 0., 0., 0., 0.,
          0., 0., 0., 0., 0., 0., 0., 0., 0., 0., 0., 0., 0., 0., 0., 0.,
          0., 0., 0., 0., 0., 0., 0., 0., 0., 0., 0., 0., 0., 0., 0., 0.,
          0., 0., 0., 0. ]
      - [ 4.85074632e-02, 2.23880596e-02, 7.83582106e-02, 4.10447754e-02,
          1.15671642e-01, 1.71641782e-01, 2.23880596e-02, 7.46268639e-03,
          3.73134315e-02, 1.23134322e-01, 4.10447754e-02, 2.98507456e-02,
          1.86567158e-02, 0., 1.45522386e-01, 2.61194017e-02, 0., 0.,
          2.23880596e-02, 0., 7.46268639e-03, 1.11940298e-02,
          2.23880596e-02, 0., 3.73134320e-03, 0., 0., 0., 0., 0., 0., 0.,
          0., 0., 3.73134320e-03, 0., 0., 0., 0., 0., 0., 0., 0., 0., 0.,
          0., 0., 0., 0., 0., 0., 0., 0., 0., 0., 0., 0., 0., 0., 0., 0.,
          0., 0., 0., 0., 0., 0., 0., 0., 0., 0., 0., 0., 0., 0., 0., 0.,
          0., 0., 0., 0., 0., 0., 0., 0., 0., 0., 0., 0., 0., 0., 0., 0.,
          0., 0., 0., 0., 0., 0., 0. ]
   decision_functions:
      -
         sv_count: 1
         rho: 2.2332281619310379e-01
         alpha: [ 1. ]
         index: [ 0 ]
