%YAML:1.0
---
opencv_ml_boost:
   format: 3
   is_classifier: 1
   var_all: 101
   var_count: 100
   ord_var_count: 100
   cat_var_count: 1
   training_params:
      boosting_type: DiscreteAdaboost
      use_surrogates: 0
      max_categories: 10
      regression_accuracy: 9.9999997764825821e-03
      max_depth: 1
      min_sample_count: 10
      cross_validation_folds: 0
      weight_trimming_rate: 9.4999999999999996e-01
   global_var_idx: 1
   var_idx: [ 0, 1, 2, 3, 4, 5, 6, 7, 8, 9, 10, 11, 12, 13, 14, 15, 16,
       17, 18, 19, 20, 21, 22, 23, 24, 25, 26, 27, 28, 29, 30, 31, 32,
       33, 34, 35, 36, 37, 38, 39, 40, 41, 42, 43, 44, 45, 46, 47, 48,
       49, 50, 51, 52, 53, 54, 55, 56, 57, 58, 59, 60, 61, 62, 63, 64,
       65, 66, 67, 68, 69, 70, 71, 72, 73, 74, 75, 76, 77, 78, 79, 80,
       81, 82, 83, 84, 85, 86, 87, 88, 89, 90, 91, 92, 93, 94, 95, 96,
       97, 98, 99 ]
   var_type: [ 0, 0, 0, 0, 0, 0, 0, 0, 0, 0, 0, 0, 0, 0, 0, 0, 0, 0, 0,
       0, 0, 0, 0, 0, 0, 0, 0, 0, 0, 0, 0, 0, 0, 0, 0, 0, 0, 0, 0, 0, 0,
       0, 0, 0, 0, 0, 0, 0, 0, 0, 0, 0, 0, 0, 0, 0, 0, 0, 0, 0, 0, 0, 0,
       0, 0, 0, 0, 0, 0, 0, 0, 0, 0, 0, 0, 0, 0, 0, 0, 0, 0, 0, 0, 0, 0,
       0, 0, 0, 0, 0, 0, 0, 0, 0, 0, 0, 0, 0, 0, 0, 1 ]
   cat_ofs: [ 0, 0, 0, 0, 0, 0, 0, 0, 0, 0, 0, 0, 0, 0, 0, 0, 0, 0, 0, 0,
       0, 0, 0, 0, 0, 0, 0, 0, 0, 0, 0, 0, 0, 0, 0, 0, 0, 0, 0, 0, 0, 0,
       0, 0, 0, 0, 0, 0, 0, 0, 0, 0, 0, 0, 0, 0, 0, 0, 0, 0, 0, 0, 0, 0,
       0, 0, 0, 0, 0, 0, 0, 0, 0, 0, 0, 0, 0, 0, 0, 0, 0, 0, 0, 0, 0, 0,
       0, 0, 0, 0, 0, 0, 0, 0, 0, 0, 0, 0, 0, 0, 0, 0, 0, 0, 0, 0, 0, 0,
       0, 0, 0, 0, 0, 0, 0, 0, 0, 0, 0, 0, 0, 0, 0, 0, 0, 0, 0, 0, 0, 0,
       0, 0, 0, 0, 0, 0, 0, 0, 0, 0, 0, 0, 0, 0, 0, 0, 0, 0, 0, 0, 0, 0,
       0, 0, 0, 0, 0, 0, 0, 0, 0, 0, 0, 0, 0, 0, 0, 0, 0, 0, 0, 0, 0, 0,
       0, 0, 0, 0, 0, 0, 0, 0, 0, 0, 0, 0, 0, 0, 0, 0, 0, 0, 0, 0, 0, 0,
       0, 0, 0, 0 ]
   class_labels: [ 0, 1 ]
   missing_subst: [ 0., 0., 0., 0., 0., 0., 0., 0., 0., 0., 0., 0., 0.,
       0., 0., 0., 0., 0., 0., 0., 0., 0., 0., 0., 0., 0., 0., 0., 0.,
       0., 0., 0., 0., 0., 0., 0., 0., 0., 0., 0., 0., 0., 0., 0., 0.,
       0., 0., 0., 0., 0., 0., 0., 0., 0., 0., 0., 0., 0., 0., 0., 0.,
       0., 0., 0., 0., 0., 0., 0., 0., 0., 0., 0., 0., 0., 0., 0., 0.,
       0., 0., 0., 0., 0., 0., 0., 0., 0., 0., 0., 0., 0., 0., 0., 0.,
       0., 0., 0., 0., 0., 0., 0., 0. ]
   ntrees: 200
   trees:
      -
         nodes:
            -
               depth: 0
               value: -1.8718021769015911e+00
               norm_class_idx: 0
               splits:
                  - { var:10, quality:7.8947371244430542e-01,
                      le:2.3167248815298080e-02 }
            -
               depth: 1
               value: -1.8718021769015911e+00
               norm_class_idx: 0
            -
               depth: 1
               value: 1.8718021769015911e+00
               norm_class_idx: 1
      -
         nodes:
            -
               depth: 0
               value: -2.0368819272610388e+00
               norm_class_idx: 0
               splits:
                  - { var:6, quality:8.2100355625152588e-01,
                      le:6.3322201371192932e-02 }
            -
               depth: 1
               value: -2.0368819272610388e+00
               norm_class_idx: 0
            -
               depth: 1
               value: 2.0368819272610388e+00
               norm_class_idx: 1
      -
         nodes:
            -
               depth: 0
               value: -1.5455864404475681e+00
               norm_class_idx: 0
               splits:
                  - { var:30, quality:7.8848952054977417e-01,
                      le:8.1967213191092014e-04 }
            -
               depth: 1
               value: -1.5455864404475681e+00
               norm_class_idx: 0
            -
               depth: 1
               value: 1.5455864404475681e+00
               norm_class_idx: 1
      -
         nodes:
            -
               depth: 0
               value: -1.6306870519162260e+00
               norm_class_idx: 0
               splits:
                  - { var:11, quality:8.2186895608901978e-01,
                      le:2.0420320332050323e-02 }
            -
               depth: 1
               value: 1.6306870519162260e+00
               norm_class_idx: 1
            -
               depth: 1
               value: -1.6306870519162260e+00
               norm_class_idx: 0
      -
         nodes:
            -
               depth: 0
               value: -2.6746845822884180e+00
               norm_class_idx: 0
               splits:
                  - { var:27, quality:8.7937408685684204e-01,
                      le:9.0252707013860345e-04 }
            -
               depth: 1
               value: -2.6746845822884180e+00
               norm_class_idx: 0
            -
               depth: 1
               value: 2.6746845822884180e+00
               norm_class_idx: 1
      -
         nodes:
            -
               depth: 0
               value: 2.2295914116588826e+00
               norm_class_idx: 1
               splits:
                  - { var:10, quality:8.1187897920608521e-01,
                      le:3.6715969443321228e-02 }
            -
               depth: 1
               value: -2.2295914116588826e+00
               norm_class_idx: 0
            -
               depth: 1
               value: 2.2295914116588826e+00
               norm_class_idx: 1
      -
         nodes:
            -
               depth: 0
               value: -2.1242118383603117e+00
               norm_class_idx: 0
               splits:
                  - { var:19, quality:8.0702048540115356e-01,
                      le:1.0247955098748207e-02 }
            -
               depth: 1
               value: -2.1242118383603117e+00
               norm_class_idx: 0
            -
               depth: 1
               value: 2.1242118383603117e+00
               norm_class_idx: 1
      -
         nodes:
            -
               depth: 0
               value: -1.8552880045541265e+00
               norm_class_idx: 0
               splits:
                  - { var:0, quality:7.9139733314514160e-01,
                      le:5.8555781841278076e-02 }
            -
               depth: 1
               value: -1.8552880045541265e+00
               norm_class_idx: 0
            -
               depth: 1
               value: 1.8552880045541265e+00
               norm_class_idx: 1
      -
         nodes:
            -
               depth: 0
               value: -1.9389842201059564e+00
               norm_class_idx: 0
               splits:
                  - { var:6, quality:7.7342766523361206e-01,
                      le:8.6601510643959045e-02 }
            -
               depth: 1
               value: -1.9389842201059564e+00
               norm_class_idx: 0
            -
               depth: 1
               value: 1.9389842201059564e+00
               norm_class_idx: 1
      -
         nodes:
            -
               depth: 0
               value: 1.7551268111134735e+00
               norm_class_idx: 1
               splits:
                  - { var:11, quality:7.6186203956604004e-01,
                      le:1.9887775182723999e-02 }
            -
               depth: 1
               value: 1.7551268111134735e+00
               norm_class_idx: 1
            -
               depth: 1
               value: -1.7551268111134735e+00
               norm_class_idx: 0
      -
         nodes:
            -
               depth: 0
               value: -2.3580541247199505e+00
               norm_class_idx: 0
               splits:
                  - { var:30, quality:8.2558423280715942e-01,
                      le:1.1600927682593465e-03 }
            -
               depth: 1
               value: -2.3580541247199505e+00
               norm_class_idx: 0
            -
               depth: 1
               value: 2.3580541247199505e+00
               norm_class_idx: 1
      -
         nodes:
            -
               depth: 0
               value: -1.8953014423867105e+00
               norm_class_idx: 0
               splits:
                  - { var:14, quality:8.0754023790359497e-01,
                      le:3.1408458948135376e-02 }
            -
               depth: 1
               value: 1.8953014423867105e+00
               norm_class_idx: 1
            -
               depth: 1
               value: -1.8953014423867105e+00
               norm_class_idx: 0
      -
         nodes:
            -
               depth: 0
               value: -2.0748679978729840e+00
               norm_class_idx: 0
               splits:
                  - { var:5, quality:8.0689561367034912e-01,
                      le:6.5819919109344482e-02 }
            -
               depth: 1
               value: -2.0748679978729840e+00
               norm_class_idx: 0
            -
               depth: 1
               value: 2.0748679978729840e+00
               norm_class_idx: 1
      -
         nodes:
            -
               depth: 0
               value: 1.6635066763660797e+00
               norm_class_idx: 1
               splits:
                  - { var:21, quality:7.2872054576873779e-01,
                      le:1.1061946861445904e-03 }
            -
               depth: 1
               value: -1.6635066763660797e+00
               norm_class_idx: 0
            -
               depth: 1
               value: 1.6635066763660797e+00
               norm_class_idx: 1
      -
         nodes:
            -
               depth: 0
               value: -2.2626014269089536e+00
               norm_class_idx: 0
               splits:
                  - { var:10, quality:8.1066817045211792e-01,
                      le:2.3167248815298080e-02 }
            -
               depth: 1
               value: -2.2626014269089536e+00
               norm_class_idx: 0
            -
               depth: 1
               value: 2.2626014269089536e+00
               norm_class_idx: 1
      -
         nodes:
            -
               depth: 0
               value: -1.7613604818742521e+00
               norm_class_idx: 0
               splits:
                  - { var:8, quality:7.9236096143722534e-01,
                      le:3.8319267332553864e-02 }
            -
               depth: 1
               value: -1.7613604818742521e+00
               norm_class_idx: 0
            -
               depth: 1
               value: 1.7613604818742521e+00
               norm_class_idx: 1
      -
         nodes:
            -
               depth: 0
               value: -2.1734432178898508e+00
               norm_class_idx: 0
               splits:
                  - { var:27, quality:7.7437794208526611e-01,
                      le:5.7325027883052826e-03 }
            -
               depth: 1
               value: -2.1734432178898508e+00
               norm_class_idx: 0
            -
               depth: 1
               value: 2.1734432178898508e+00
               norm_class_idx: 1
      -
         nodes:
            -
               depth: 0
               value: 2.0162048625984972e+00
               norm_class_idx: 1
               splits:
                  - { var:28, quality:7.7298706769943237e-01,
                      le:1.1061946861445904e-03 }
            -
               depth: 1
               value: -2.0162048625984972e+00
               norm_class_idx: 0
            -
               depth: 1
               value: 2.0162048625984972e+00
               norm_class_idx: 1
      -
         nodes:
            -
               depth: 0
               value: -1.6614633252448634e+00
               norm_class_idx: 0
               splits:
                  - { var:10, quality:7.1119368076324463e-01,
                      le:3.6781802773475647e-02 }
            -
               depth: 1
               value: -1.6614633252448634e+00
               norm_class_idx: 0
            -
               depth: 1
               value: 1.6614633252448634e+00
               norm_class_idx: 1
      -
         nodes:
            -
               depth: 0
               value: -1.7181621505135225e+00
               norm_class_idx: 0
               splits:
                  - { var:27, quality:7.1750211715698242e-01,
                      le:1.6853932756930590e-03 }
            -
               depth: 1
               value: -1.7181621505135225e+00
               norm_class_idx: 0
            -
               depth: 1
               value: 1.7181621505135225e+00
               norm_class_idx: 1
      -
         nodes:
            -
               depth: 0
               value: 2.1894503419033735e+00
               norm_class_idx: 1
               splits:
                  - { var:11, quality:7.8278291225433350e-01,
                      le:1.9887775182723999e-02 }
            -
               depth: 1
               value: 2.1894503419033735e+00
               norm_class_idx: 1
            -
               depth: 1
               value: -2.1894503419033735e+00
               norm_class_idx: 0
      -
         nodes:
            -
               depth: 0
               value: 2.2948014461176043e+00
               norm_class_idx: 1
               splits:
                  - { var:19, quality:8.0512624979019165e-01,
                      le:1.0247955098748207e-02 }
            -
               depth: 1
               value: -2.2948014461176043e+00
               norm_class_idx: 0
            -
               depth: 1
               value: 2.2948014461176043e+00
               norm_class_idx: 1
      -
         nodes:
            -
               depth: 0
               value: -1.9204749698346175e+00
               norm_class_idx: 0
               splits:
                  - { var:35, quality:7.5362157821655273e-01,
                      le:1.1061946861445904e-03 }
            -
               depth: 1
               value: -1.9204749698346175e+00
               norm_class_idx: 0
            -
               depth: 1
               value: 1.9204749698346175e+00
               norm_class_idx: 1
      -
         nodes:
            -
               depth: 0
               value: 2.0502659861422710e+00
               norm_class_idx: 1
               splits:
                  - { var:7, quality:8.1339246034622192e-01,
                      le:3.8139108568429947e-02 }
            -
               depth: 1
               value: 2.0502659861422710e+00
               norm_class_idx: 1
            -
               depth: 1
               value: -2.0502659861422710e+00
               norm_class_idx: 0
      -
         nodes:
            -
               depth: 0
               value: 1.6088241341335019e+00
               norm_class_idx: 1
               splits:
                  - { var:26, quality:7.3416894674301147e-01,
                      le:1.6853932756930590e-03 }
            -
               depth: 1
               value: -1.6088241341335019e+00
               norm_class_idx: 0
            -
               depth: 1
               value: 1.6088241341335019e+00
               norm_class_idx: 1
      -
         nodes:
            -
               depth: 0
               value: -1.7154440891586666e+00
               norm_class_idx: 0
               splits:
                  - { var:6, quality:7.4539369344711304e-01,
                      le:8.6601510643959045e-02 }
            -
               depth: 1
               value: -1.7154440891586666e+00
               norm_class_idx: 0
            -
               depth: 1
               value: 1.7154440891586666e+00
               norm_class_idx: 1
      -
         nodes:
            -
               depth: 0
               value: 2.0501322152326389e+00
               norm_class_idx: 1
               splits:
                  - { var:10, quality:7.7029854059219360e-01,
                      le:2.3167248815298080e-02 }
            -
               depth: 1
               value: -2.0501322152326389e+00
               norm_class_idx: 0
            -
               depth: 1
               value: 2.0501322152326389e+00
               norm_class_idx: 1
      -
         nodes:
            -
               depth: 0
               value: -2.0434849211015220e+00
               norm_class_idx: 0
               splits:
                  - { var:36, quality:8.0632638931274414e-01,
                      le:1.1061946861445904e-03 }
            -
               depth: 1
               value: -2.0434849211015220e+00
               norm_class_idx: 0
            -
               depth: 1
               value: 2.0434849211015220e+00
               norm_class_idx: 1
      -
         nodes:
            -
               depth: 0
               value: -1.7810989262114068e+00
               norm_class_idx: 0
               splits:
                  - { var:27, quality:7.6588505506515503e-01,
                      le:1.6853932756930590e-03 }
            -
               depth: 1
               value: -1.7810989262114068e+00
               norm_class_idx: 0
            -
               depth: 1
               value: 1.7810989262114068e+00
               norm_class_idx: 1
      -
         nodes:
            -
               depth: 0
               value: 1.9064741202047586e+00
               norm_class_idx: 1
               splits:
                  - { var:19, quality:7.5054997205734253e-01,
                      le:1.0247955098748207e-02 }
            -
               depth: 1
               value: -1.9064741202047586e+00
               norm_class_idx: 0
            -
               depth: 1
               value: 1.9064741202047586e+00
               norm_class_idx: 1
      -
         nodes:
            -
               depth: 0
               value: 2.2569751030048146e+00
               norm_class_idx: 1
               splits:
                  - { var:10, quality:7.9056668281555176e-01,
                      le:2.3167248815298080e-02 }
            -
               depth: 1
               value: -2.2569751030048146e+00
               norm_class_idx: 0
            -
               depth: 1
               value: 2.2569751030048146e+00
               norm_class_idx: 1
      -
         nodes:
            -
               depth: 0
               value: -2.3101536689787618e+00
               norm_class_idx: 0
               splits:
                  - { var:6, quality:8.3749580383300781e-01,
                      le:6.5100498497486115e-02 }
            -
               depth: 1
               value: -2.3101536689787618e+00
               norm_class_idx: 0
            -
               depth: 1
               value: 2.3101536689787618e+00
               norm_class_idx: 1
      -
         nodes:
            -
               depth: 0
               value: -2.2203798779825394e+00
               norm_class_idx: 0
               splits:
                  - { var:35, quality:8.3874660730361938e-01,
                      le:1.1520737316459417e-03 }
            -
               depth: 1
               value: -2.2203798779825394e+00
               norm_class_idx: 0
            -
               depth: 1
               value: 2.2203798779825394e+00
               norm_class_idx: 1
      -
         nodes:
            -
               depth: 0
               value: -2.4784356417251647e+00
               norm_class_idx: 0
               splits:
                  - { var:7, quality:8.2793086767196655e-01,
                      le:3.3862441778182983e-02 }
            -
               depth: 1
               value: 2.4784356417251647e+00
               norm_class_idx: 1
            -
               depth: 1
               value: -2.4784356417251647e+00
               norm_class_idx: 0
      -
         nodes:
            -
               depth: 0
               value: -2.0741607384301233e+00
               norm_class_idx: 0
               splits:
                  - { var:4, quality:7.9413980245590210e-01,
                      le:8.0022640526294708e-02 }
            -
               depth: 1
               value: 2.0741607384301233e+00
               norm_class_idx: 1
            -
               depth: 1
               value: -2.0741607384301233e+00
               norm_class_idx: 0
      -
         nodes:
            -
               depth: 0
               value: 1.8956743345824536e+00
               norm_class_idx: 1
               splits:
                  - { var:28, quality:7.4763262271881104e-01,
                      le:1.1061946861445904e-03 }
            -
               depth: 1
               value: -1.8956743345824536e+00
               norm_class_idx: 0
            -
               depth: 1
               value: 1.8956743345824536e+00
               norm_class_idx: 1
      -
         nodes:
            -
               depth: 0
               value: -1.7972406053585996e+00
               norm_class_idx: 0
               splits:
                  - { var:21, quality:7.3408544063568115e-01,
                      le:1.1061946861445904e-03 }
            -
               depth: 1
               value: -1.7972406053585996e+00
               norm_class_idx: 0
            -
               depth: 1
               value: 1.7972406053585996e+00
               norm_class_idx: 1
      -
         nodes:
            -
               depth: 0
               value: 1.4950808707263432e+00
               norm_class_idx: 1
               splits:
                  - { var:11, quality:6.7670989036560059e-01,
                      le:1.9887775182723999e-02 }
            -
               depth: 1
               value: 1.4950808707263432e+00
               norm_class_idx: 1
            -
               depth: 1
               value: -1.4950808707263432e+00
               norm_class_idx: 0
      -
         nodes:
            -
               depth: 0
               value: -1.9287430818703191e+00
               norm_class_idx: 0
               splits:
                  - { var:13, quality:7.6259839534759521e-01,
                      le:1.8769182264804840e-02 }
            -
               depth: 1
               value: -1.9287430818703191e+00
               norm_class_idx: 0
            -
               depth: 1
               value: 1.9287430818703191e+00
               norm_class_idx: 1
      -
         nodes:
            -
               depth: 0
               value: -2.0605016909546268e+00
               norm_class_idx: 0
               splits:
                  - { var:27, quality:7.9307943582534790e-01,
                      le:1.6853932756930590e-03 }
            -
               depth: 1
               value: -2.0605016909546268e+00
               norm_class_idx: 0
            -
               depth: 1
               value: 2.0605016909546268e+00
               norm_class_idx: 1
      -
         nodes:
            -
               depth: 0
               value: 2.0573535914917680e+00
               norm_class_idx: 1
               splits:
                  - { var:10, quality:7.7746540307998657e-01,
                      le:2.3167248815298080e-02 }
            -
               depth: 1
               value: -2.0573535914917680e+00
               norm_class_idx: 0
            -
               depth: 1
               value: 2.0573535914917680e+00
               norm_class_idx: 1
      -
         nodes:
            -
               depth: 0
               value: -2.0250606195743224e+00
               norm_class_idx: 0
               splits:
                  - { var:13, quality:8.0191421508789062e-01,
                      le:2.9830988496541977e-02 }
            -
               depth: 1
               value: -2.0250606195743224e+00
               norm_class_idx: 0
            -
               depth: 1
               value: 2.0250606195743224e+00
               norm_class_idx: 1
      -
         nodes:
            -
               depth: 0
               value: -1.6473028953325355e+00
               norm_class_idx: 0
               splits:
                  - { var:31, quality:7.5000542402267456e-01,
                      le:8.9928059605881572e-04 }
            -
               depth: 1
               value: -1.6473028953325355e+00
               norm_class_idx: 0
            -
               depth: 1
               value: 1.6473028953325355e+00
               norm_class_idx: 1
      -
         nodes:
            -
               depth: 0
               value: -1.8654776727286100e+00
               norm_class_idx: 0
               splits:
                  - { var:21, quality:7.7729797363281250e-01,
                      le:1.2722646351903677e-03 }
            -
               depth: 1
               value: -1.8654776727286100e+00
               norm_class_idx: 0
            -
               depth: 1
               value: 1.8654776727286100e+00
               norm_class_idx: 1
      -
         nodes:
            -
               depth: 0
               value: 1.8907880286623810e+00
               norm_class_idx: 1
               splits:
                  - { var:11, quality:7.3222774267196655e-01,
                      le:1.9887775182723999e-02 }
            -
               depth: 1
               value: 1.8907880286623810e+00
               norm_class_idx: 1
            -
               depth: 1
               value: -1.8907880286623810e+00
               norm_class_idx: 0
      -
         nodes:
            -
               depth: 0
               value: -2.3452966211760740e+00
               norm_class_idx: 0
               splits:
                  - { var:30, quality:8.2398277521133423e-01,
                      le:1.1235955171287060e-03 }
            -
               depth: 1
               value: -2.3452966211760740e+00
               norm_class_idx: 0
            -
               depth: 1
               value: 2.3452966211760740e+00
               norm_class_idx: 1
      -
         nodes:
            -
               depth: 0
               value: -1.9160695663097063e+00
               norm_class_idx: 0
               splits:
                  - { var:19, quality:7.9073750972747803e-01,
                      le:2.6580795645713806e-02 }
            -
               depth: 1
               value: -1.9160695663097063e+00
               norm_class_idx: 0
            -
               depth: 1
               value: 1.9160695663097063e+00
               norm_class_idx: 1
      -
         nodes:
            -
               depth: 0
               value: 2.0367400870556343e+00
               norm_class_idx: 1
               splits:
                  - { var:10, quality:7.8793948888778687e-01,
                      le:2.3167248815298080e-02 }
            -
               depth: 1
               value: -2.0367400870556343e+00
               norm_class_idx: 0
            -
               depth: 1
               value: 2.0367400870556343e+00
               norm_class_idx: 1
      -
         nodes:
            -
               depth: 0
               value: -1.7051320391804443e+00
               norm_class_idx: 0
               splits:
                  - { var:6, quality:7.4791359901428223e-01,
                      le:6.5100498497486115e-02 }
            -
               depth: 1
               value: -1.7051320391804443e+00
               norm_class_idx: 0
            -
               depth: 1
               value: 1.7051320391804443e+00
               norm_class_idx: 1
      -
         nodes:
            -
               depth: 0
               value: -1.6665016873708840e+00
               norm_class_idx: 0
               splits:
                  - { var:7, quality:7.5775551795959473e-01,
                      le:3.4314796328544617e-02 }
            -
               depth: 1
               value: 1.6665016873708840e+00
               norm_class_idx: 1
            -
               depth: 1
               value: -1.6665016873708840e+00
               norm_class_idx: 0
      -
         nodes:
            -
               depth: 0
               value: -1.9566884305357533e+00
               norm_class_idx: 0
               splits:
                  - { var:35, quality:8.1498181819915771e-01,
                      le:1.1061946861445904e-03 }
            -
               depth: 1
               value: -1.9566884305357533e+00
               norm_class_idx: 0
            -
               depth: 1
               value: 1.9566884305357533e+00
               norm_class_idx: 1
      -
         nodes:
            -
               depth: 0
               value: -1.9496908111942464e+00
               norm_class_idx: 0
               splits:
                  - { var:19, quality:7.8798484802246094e-01,
                      le:1.0247955098748207e-02 }
            -
               depth: 1
               value: -1.9496908111942464e+00
               norm_class_idx: 0
            -
               depth: 1
               value: 1.9496908111942464e+00
               norm_class_idx: 1
      -
         nodes:
            -
               depth: 0
               value: -2.5067331981588987e+00
               norm_class_idx: 0
               splits:
                  - { var:27, quality:8.4733432531356812e-01,
                      le:1.6853932756930590e-03 }
            -
               depth: 1
               value: -2.5067331981588987e+00
               norm_class_idx: 0
            -
               depth: 1
               value: 2.5067331981588987e+00
               norm_class_idx: 1
      -
         nodes:
            -
               depth: 0
               value: 2.4592968510973416e+00
               norm_class_idx: 1
               splits:
                  - { var:11, quality:8.4411168098449707e-01,
                      le:1.9887775182723999e-02 }
            -
               depth: 1
               value: 2.4592968510973416e+00
               norm_class_idx: 1
            -
               depth: 1
               value: -2.4592968510973416e+00
               norm_class_idx: 0
      -
         nodes:
            -
               depth: 0
               value: -2.2496777660748615e+00
               norm_class_idx: 0
               splits:
                  - { var:10, quality:8.3896827697753906e-01,
                      le:3.6715969443321228e-02 }
            -
               depth: 1
               value: -2.2496777660748615e+00
               norm_class_idx: 0
            -
               depth: 1
               value: 2.2496777660748615e+00
               norm_class_idx: 1
      -
         nodes:
            -
               depth: 0
               value: -1.9195058549284467e+00
               norm_class_idx: 0
               splits:
                  - { var:1, quality:7.8058606386184692e-01,
                      le:6.5167948603630066e-02 }
            -
               depth: 1
               value: -1.9195058549284467e+00
               norm_class_idx: 0
            -
               depth: 1
               value: 1.9195058549284467e+00
               norm_class_idx: 1
      -
         nodes:
            -
               depth: 0
               value: -1.8866575984508731e+00
               norm_class_idx: 0
               splits:
                  - { var:5, quality:7.9978525638580322e-01,
                      le:6.5819919109344482e-02 }
            -
               depth: 1
               value: -1.8866575984508731e+00
               norm_class_idx: 0
            -
               depth: 1
               value: 1.8866575984508731e+00
               norm_class_idx: 1
      -
         nodes:
            -
               depth: 0
               value: 1.8796182666001220e+00
               norm_class_idx: 1
               splits:
                  - { var:26, quality:7.7696740627288818e-01,
                      le:4.5937094837427139e-03 }
            -
               depth: 1
               value: -1.8796182666001220e+00
               norm_class_idx: 0
            -
               depth: 1
               value: 1.8796182666001220e+00
               norm_class_idx: 1
      -
         nodes:
            -
               depth: 0
               value: -1.8553899368341529e+00
               norm_class_idx: 0
               splits:
                  - { var:18, quality:7.4557286500930786e-01,
                      le:7.1299131959676743e-03 }
            -
               depth: 1
               value: 1.8553899368341529e+00
               norm_class_idx: 1
            -
               depth: 1
               value: -1.8553899368341529e+00
               norm_class_idx: 0
      -
         nodes:
            -
               depth: 0
               value: 1.4078349131700756e+00
               norm_class_idx: 1
               splits:
                  - { var:16, quality:7.0394176244735718e-01,
                      le:2.1419208496809006e-02 }
            -
               depth: 1
               value: -1.4078349131700756e+00
               norm_class_idx: 0
            -
               depth: 1
               value: 1.4078349131700756e+00
               norm_class_idx: 1
      -
         nodes:
            -
               depth: 0
               value: -1.5676553397358415e+00
               norm_class_idx: 0
               splits:
                  - { var:10, quality:7.3420983552932739e-01,
                      le:2.3167248815298080e-02 }
            -
               depth: 1
               value: -1.5676553397358415e+00
               norm_class_idx: 0
            -
               depth: 1
               value: 1.5676553397358415e+00
               norm_class_idx: 1
      -
         nodes:
            -
               depth: 0
               value: -1.6841024545181287e+00
               norm_class_idx: 0
               splits:
                  - { var:6, quality:7.9476433992385864e-01,
                      le:6.5100498497486115e-02 }
            -
               depth: 1
               value: -1.6841024545181287e+00
               norm_class_idx: 0
            -
               depth: 1
               value: 1.6841024545181287e+00
               norm_class_idx: 1
      -
         nodes:
            -
               depth: 0
               value: -2.2763184281615829e+00
               norm_class_idx: 0
               splits:
                  - { var:27, quality:8.5690015554428101e-01,
                      le:6.1410604976117611e-03 }
            -
               depth: 1
               value: -2.2763184281615829e+00
               norm_class_idx: 0
            -
               depth: 1
               value: 2.2763184281615829e+00
               norm_class_idx: 1
      -
         nodes:
            -
               depth: 0
               value: 1.7412804180134516e+00
               norm_class_idx: 1
               splits:
                  - { var:35, quality:7.4394226074218750e-01,
                      le:1.1061946861445904e-03 }
            -
               depth: 1
               value: -1.7412804180134516e+00
               norm_class_idx: 0
            -
               depth: 1
               value: 1.7412804180134516e+00
               norm_class_idx: 1
      -
         nodes:
            -
               depth: 0
               value: -1.8282187667427683e+00
               norm_class_idx: 0
               splits:
                  - { var:19, quality:7.7273344993591309e-01,
                      le:3.9654038846492767e-03 }
            -
               depth: 1
               value: -1.8282187667427683e+00
               norm_class_idx: 0
            -
               depth: 1
               value: 1.8282187667427683e+00
               norm_class_idx: 1
      -
         nodes:
            -
               depth: 0
               value: -1.9764311424528318e+00
               norm_class_idx: 0
               splits:
                  - { var:11, quality:7.9303234815597534e-01,
                      le:1.9887775182723999e-02 }
            -
               depth: 1
               value: 1.9764311424528318e+00
               norm_class_idx: 1
            -
               depth: 1
               value: -1.9764311424528318e+00
               norm_class_idx: 0
      -
         nodes:
            -
               depth: 0
               value: -2.1403048860443765e+00
               norm_class_idx: 0
               splits:
                  - { var:27, quality:8.1527268886566162e-01,
                      le:4.9738129600882530e-03 }
            -
               depth: 1
               value: -2.1403048860443765e+00
               norm_class_idx: 0
            -
               depth: 1
               value: 2.1403048860443765e+00
               norm_class_idx: 1
      -
         nodes:
            -
               depth: 0
               value: 1.6978554861556379e+00
               norm_class_idx: 1
               splits:
                  - { var:13, quality:7.5471502542495728e-01,
                      le:1.8795147538185120e-02 }
            -
               depth: 1
               value: -1.6978554861556379e+00
               norm_class_idx: 0
            -
               depth: 1
               value: 1.6978554861556379e+00
               norm_class_idx: 1
      -
         nodes:
            -
               depth: 0
               value: -1.6910853548394027e+00
               norm_class_idx: 0
               splits:
                  - { var:15, quality:7.4198704957962036e-01,
                      le:3.6809965968132019e-02 }
            -
               depth: 1
               value: 1.6910853548394027e+00
               norm_class_idx: 1
            -
               depth: 1
               value: -1.6910853548394027e+00
               norm_class_idx: 0
      -
         nodes:
            -
               depth: 0
               value: -1.7076169077892407e+00
               norm_class_idx: 0
               splits:
                  - { var:36, quality:7.5490278005599976e-01,
                      le:1.1061946861445904e-03 }
            -
               depth: 1
               value: -1.7076169077892407e+00
               norm_class_idx: 0
            -
               depth: 1
               value: 1.7076169077892407e+00
               norm_class_idx: 1
      -
         nodes:
            -
               depth: 0
               value: -1.6562262469163573e+00
               norm_class_idx: 0
               splits:
                  - { var:35, quality:7.4516558647155762e-01,
                      le:1.1520737316459417e-03 }
            -
               depth: 1
               value: -1.6562262469163573e+00
               norm_class_idx: 0
            -
               depth: 1
               value: 1.6562262469163573e+00
               norm_class_idx: 1
      -
         nodes:
            -
               depth: 0
               value: -1.5881757716997043e+00
               norm_class_idx: 0
               splits:
                  - { var:6, quality:7.3762917518615723e-01,
                      le:6.5100498497486115e-02 }
            -
               depth: 1
               value: -1.5881757716997043e+00
               norm_class_idx: 0
            -
               depth: 1
               value: 1.5881757716997043e+00
               norm_class_idx: 1
      -
         nodes:
            -
               depth: 0
               value: -1.6118428042650106e+00
               norm_class_idx: 0
               splits:
                  - { var:10, quality:7.5572580099105835e-01,
                      le:2.3167248815298080e-02 }
            -
               depth: 1
               value: -1.6118428042650106e+00
               norm_class_idx: 0
            -
               depth: 1
               value: 1.6118428042650106e+00
               norm_class_idx: 1
      -
         nodes:
            -
               depth: 0
               value: -1.9162320768528764e+00
               norm_class_idx: 0
               splits:
                  - { var:19, quality:8.1506973505020142e-01,
                      le:1.3289671391248703e-02 }
            -
               depth: 1
               value: -1.9162320768528764e+00
               norm_class_idx: 0
            -
               depth: 1
               value: 1.9162320768528764e+00
               norm_class_idx: 1
      -
         nodes:
            -
               depth: 0
               value: -2.4255994579054612e+00
               norm_class_idx: 0
               splits:
                  - { var:5, quality:8.6715567111968994e-01,
                      le:6.5819919109344482e-02 }
            -
               depth: 1
               value: -2.4255994579054612e+00
               norm_class_idx: 0
            -
               depth: 1
               value: 2.4255994579054612e+00
               norm_class_idx: 1
      -
         nodes:
            -
               depth: 0
               value: 2.1804102763401709e+00
               norm_class_idx: 1
               splits:
                  - { var:3, quality:8.2899272441864014e-01,
                      le:1.0757505893707275e-01 }
            -
               depth: 1
               value: 2.1804102763401709e+00
               norm_class_idx: 1
            -
               depth: 1
               value: -2.1804102763401709e+00
               norm_class_idx: 0
      -
         nodes:
            -
               depth: 0
               value: -1.7252652086445697e+00
               norm_class_idx: 0
               splits:
                  - { var:10, quality:7.6502281427383423e-01,
                      le:2.3167248815298080e-02 }
            -
               depth: 1
               value: -1.7252652086445697e+00
               norm_class_idx: 0
            -
               depth: 1
               value: 1.7252652086445697e+00
               norm_class_idx: 1
      -
         nodes:
            -
               depth: 0
               value: -1.8881937532678956e+00
               norm_class_idx: 0
               splits:
                  - { var:19, quality:8.3088278770446777e-01,
                      le:1.3289671391248703e-02 }
            -
               depth: 1
               value: -1.8881937532678956e+00
               norm_class_idx: 0
            -
               depth: 1
               value: 1.8881937532678956e+00
               norm_class_idx: 1
      -
         nodes:
            -
               depth: 0
               value: -2.0037471131223263e+00
               norm_class_idx: 0
               splits:
                  - { var:18, quality:8.3024919033050537e-01,
                      le:2.8418086003512144e-03 }
            -
               depth: 1
               value: 2.0037471131223263e+00
               norm_class_idx: 1
            -
               depth: 1
               value: -2.0037471131223263e+00
               norm_class_idx: 0
      -
         nodes:
            -
               depth: 0
               value: 1.9138453358788636e+00
               norm_class_idx: 1
               splits:
                  - { var:11, quality:7.6568502187728882e-01,
                      le:1.9887775182723999e-02 }
            -
               depth: 1
               value: 1.9138453358788636e+00
               norm_class_idx: 1
            -
               depth: 1
               value: -1.9138453358788636e+00
               norm_class_idx: 0
      -
         nodes:
            -
               depth: 0
               value: -1.7575253075399166e+00
               norm_class_idx: 0
               splits:
                  - { var:30, quality:7.2748535871505737e-01,
                      le:1.1235955171287060e-03 }
            -
               depth: 1
               value: -1.7575253075399166e+00
               norm_class_idx: 0
            -
               depth: 1
               value: 1.7575253075399166e+00
               norm_class_idx: 1
      -
         nodes:
            -
               depth: 0
               value: -2.1573796799609504e+00
               norm_class_idx: 0
               splits:
                  - { var:21, quality:8.3085608482360840e-01,
                      le:1.1061946861445904e-03 }
            -
               depth: 1
               value: -2.1573796799609504e+00
               norm_class_idx: 0
            -
               depth: 1
               value: 2.1573796799609504e+00
               norm_class_idx: 1
      -
         nodes:
            -
               depth: 0
               value: -1.8083075097636925e+00
               norm_class_idx: 0
               splits:
                  - { var:10, quality:7.4365335702896118e-01,
                      le:2.3167248815298080e-02 }
            -
               depth: 1
               value: -1.8083075097636925e+00
               norm_class_idx: 0
            -
               depth: 1
               value: 1.8083075097636925e+00
               norm_class_idx: 1
      -
         nodes:
            -
               depth: 0
               value: -1.6267556776848737e+00
               norm_class_idx: 0
               splits:
                  - { var:13, quality:7.7279043197631836e-01,
                      le:1.8795147538185120e-02 }
            -
               depth: 1
               value: -1.6267556776848737e+00
               norm_class_idx: 0
            -
               depth: 1
               value: 1.6267556776848737e+00
               norm_class_idx: 1
      -
         nodes:
            -
               depth: 0
               value: -2.1942549431177736e+00
               norm_class_idx: 0
               splits:
                  - { var:4, quality:8.2099848985671997e-01,
                      le:8.0022640526294708e-02 }
            -
               depth: 1
               value: 2.1942549431177736e+00
               norm_class_idx: 1
            -
               depth: 1
               value: -2.1942549431177736e+00
               norm_class_idx: 0
      -
         nodes:
            -
               depth: 0
               value: 1.9652453636425133e+00
               norm_class_idx: 1
               splits:
                  - { var:11, quality:7.7132219076156616e-01,
                      le:1.9887775182723999e-02 }
            -
               depth: 1
               value: 1.9652453636425133e+00
               norm_class_idx: 1
            -
               depth: 1
               value: -1.9652453636425133e+00
               norm_class_idx: 0
      -
         nodes:
            -
               depth: 0
               value: -1.6719844935515096e+00
               norm_class_idx: 0
               splits:
                  - { var:27, quality:7.4681842327117920e-01,
                      le:9.0252707013860345e-04 }
            -
               depth: 1
               value: -1.6719844935515096e+00
               norm_class_idx: 0
            -
               depth: 1
               value: 1.6719844935515096e+00
               norm_class_idx: 1
      -
         nodes:
            -
               depth: 0
               value: 1.9756383172637824e+00
               norm_class_idx: 1
               splits:
                  - { var:13, quality:7.8579211235046387e-01,
                      le:1.8795147538185120e-02 }
            -
               depth: 1
               value: -1.9756383172637824e+00
               norm_class_idx: 0
            -
               depth: 1
               value: 1.9756383172637824e+00
               norm_class_idx: 1
      -
         nodes:
            -
               depth: 0
               value: -1.8626414040515769e+00
               norm_class_idx: 0
               splits:
                  - { var:35, quality:7.4571621417999268e-01,
                      le:1.1061946861445904e-03 }
            -
               depth: 1
               value: -1.8626414040515769e+00
               norm_class_idx: 0
            -
               depth: 1
               value: 1.8626414040515769e+00
               norm_class_idx: 1
      -
         nodes:
            -
               depth: 0
               value: -1.7584573337438472e+00
               norm_class_idx: 0
               splits:
                  - { var:25, quality:7.6871722936630249e-01,
                      le:8.9928059605881572e-04 }
            -
               depth: 1
               value: -1.7584573337438472e+00
               norm_class_idx: 0
            -
               depth: 1
               value: 1.7584573337438472e+00
               norm_class_idx: 1
      -
         nodes:
            -
               depth: 0
               value: -2.3280740731865492e+00
               norm_class_idx: 0
               splits:
                  - { var:11, quality:8.3446472883224487e-01,
                      le:1.9887775182723999e-02 }
            -
               depth: 1
               value: 2.3280740731865492e+00
               norm_class_idx: 1
            -
               depth: 1
               value: -2.3280740731865492e+00
               norm_class_idx: 0
      -
         nodes:
            -
               depth: 0
               value: -1.8536835142749259e+00
               norm_class_idx: 0
               splits:
                  - { var:30, quality:7.6078087091445923e-01,
                      le:3.7590293213725090e-03 }
            -
               depth: 1
               value: -1.8536835142749259e+00
               norm_class_idx: 0
            -
               depth: 1
               value: 1.8536835142749259e+00
               norm_class_idx: 1
      -
         nodes:
            -
               depth: 0
               value: -1.8863052920349903e+00
               norm_class_idx: 0
               splits:
                  - { var:10, quality:7.6525855064392090e-01,
                      le:2.3167248815298080e-02 }
            -
               depth: 1
               value: -1.8863052920349903e+00
               norm_class_idx: 0
            -
               depth: 1
               value: 1.8863052920349903e+00
               norm_class_idx: 1
      -
         nodes:
            -
               depth: 0
               value: -2.1457143802937853e+00
               norm_class_idx: 0
               splits:
                  - { var:21, quality:8.0549287796020508e-01,
                      le:1.1061946861445904e-03 }
            -
               depth: 1
               value: -2.1457143802937853e+00
               norm_class_idx: 0
            -
               depth: 1
               value: 2.1457143802937853e+00
               norm_class_idx: 1
      -
         nodes:
            -
               depth: 0
               value: -1.7671529207216796e+00
               norm_class_idx: 0
               splits:
                  - { var:13, quality:7.6051437854766846e-01,
                      le:1.8795147538185120e-02 }
            -
               depth: 1
               value: -1.7671529207216796e+00
               norm_class_idx: 0
            -
               depth: 1
               value: 1.7671529207216796e+00
               norm_class_idx: 1
      -
         nodes:
            -
               depth: 0
               value: -1.9093703122695476e+00
               norm_class_idx: 0
               splits:
                  - { var:6, quality:7.7251642942428589e-01,
                      le:8.6601510643959045e-02 }
            -
               depth: 1
               value: -1.9093703122695476e+00
               norm_class_idx: 0
            -
               depth: 1
               value: 1.9093703122695476e+00
               norm_class_idx: 1
      -
         nodes:
            -
               depth: 0
               value: 1.9813534055457975e+00
               norm_class_idx: 1
               splits:
                  - { var:7, quality:8.0055117607116699e-01,
                      le:3.5288918763399124e-02 }
            -
               depth: 1
               value: 1.9813534055457975e+00
               norm_class_idx: 1
            -
               depth: 1
               value: -1.9813534055457975e+00
               norm_class_idx: 0
      -
         nodes:
            -
               depth: 0
               value: -1.8451584425093011e+00
               norm_class_idx: 0
               splits:
                  - { var:28, quality:7.3599165678024292e-01,
                      le:1.6853932756930590e-03 }
            -
               depth: 1
               value: -1.8451584425093011e+00
               norm_class_idx: 0
            -
               depth: 1
               value: 1.8451584425093011e+00
               norm_class_idx: 1
      -
         nodes:
            -
               depth: 0
               value: -2.1165501314103889e+00
               norm_class_idx: 0
               splits:
                  - { var:27, quality:7.9008245468139648e-01,
                      le:9.0252707013860345e-04 }
            -
               depth: 1
               value: -2.1165501314103889e+00
               norm_class_idx: 0
            -
               depth: 1
               value: 2.1165501314103889e+00
               norm_class_idx: 1
      -
         nodes:
            -
               depth: 0
               value: 1.9422205722241472e+00
               norm_class_idx: 1
               splits:
                  - { var:10, quality:7.7815830707550049e-01,
                      le:2.6762418448925018e-02 }
            -
               depth: 1
               value: -1.9422205722241472e+00
               norm_class_idx: 0
            -
               depth: 1
               value: 1.9422205722241472e+00
               norm_class_idx: 1
      -
         nodes:
            -
               depth: 0
               value: -2.0976551275001327e+00
               norm_class_idx: 0
               splits:
                  - { var:6, quality:8.0010348558425903e-01,
                      le:6.5100498497486115e-02 }
            -
               depth: 1
               value: -2.0976551275001327e+00
               norm_class_idx: 0
            -
               depth: 1
               value: 2.0976551275001327e+00
               norm_class_idx: 1
      -
         nodes:
            -
               depth: 0
               value: -2.0495935929868514e+00
               norm_class_idx: 0
               splits:
                  - { var:35, quality:7.9563641548156738e-01,
                      le:1.1061946861445904e-03 }
            -
               depth: 1
               value: -2.0495935929868514e+00
               norm_class_idx: 0
            -
               depth: 1
               value: 2.0495935929868514e+00
               norm_class_idx: 1
      -
         nodes:
            -
               depth: 0
               value: -1.8004139385874518e+00
               norm_class_idx: 0
               splits:
                  - { var:1, quality:7.5857228040695190e-01,
                      le:1.0447860509157181e-01 }
            -
               depth: 1
               value: -1.8004139385874518e+00
               norm_class_idx: 0
            -
               depth: 1
               value: 1.8004139385874518e+00
               norm_class_idx: 1
      -
         nodes:
            -
               depth: 0
               value: 1.6186730590208425e+00
               norm_class_idx: 1
               splits:
                  - { var:6, quality:7.0979762077331543e-01,
                      le:6.3322201371192932e-02 }
            -
               depth: 1
               value: -1.6186730590208425e+00
               norm_class_idx: 0
            -
               depth: 1
               value: 1.6186730590208425e+00
               norm_class_idx: 1
      -
         nodes:
            -
               depth: 0
               value: -2.2918895692499399e+00
               norm_class_idx: 0
               splits:
                  - { var:10, quality:8.1019049882888794e-01,
                      le:2.3167248815298080e-02 }
            -
               depth: 1
               value: -2.2918895692499399e+00
               norm_class_idx: 0
            -
               depth: 1
               value: 2.2918895692499399e+00
               norm_class_idx: 1
      -
         nodes:
            -
               depth: 0
               value: -1.5564888574350080e+00
               norm_class_idx: 0
               splits:
                  - { var:26, quality:7.8666585683822632e-01,
                      le:4.5937094837427139e-03 }
            -
               depth: 1
               value: -1.5564888574350080e+00
               norm_class_idx: 0
            -
               depth: 1
               value: 1.5564888574350080e+00
               norm_class_idx: 1
      -
         nodes:
            -
               depth: 0
               value: -2.4317987890294610e+00
               norm_class_idx: 0
               splits:
                  - { var:27, quality:8.2008558511734009e-01,
                      le:1.6853932756930590e-03 }
            -
               depth: 1
               value: -2.4317987890294610e+00
               norm_class_idx: 0
            -
               depth: 1
               value: 2.4317987890294610e+00
               norm_class_idx: 1
      -
         nodes:
            -
               depth: 0
               value: 2.0831133060388018e+00
               norm_class_idx: 1
               splits:
                  - { var:19, quality:7.9036343097686768e-01,
                      le:1.0247955098748207e-02 }
            -
               depth: 1
               value: -2.0831133060388018e+00
               norm_class_idx: 0
            -
               depth: 1
               value: 2.0831133060388018e+00
               norm_class_idx: 1
      -
         nodes:
            -
               depth: 0
               value: -1.9109789672298214e+00
               norm_class_idx: 0
               splits:
                  - { var:11, quality:7.7846962213516235e-01,
                      le:1.9887775182723999e-02 }
            -
               depth: 1
               value: 1.9109789672298214e+00
               norm_class_idx: 1
            -
               depth: 1
               value: -1.9109789672298214e+00
               norm_class_idx: 0
      -
         nodes:
            -
               depth: 0
               value: -2.3176948585794697e+00
               norm_class_idx: 0
               splits:
                  - { var:35, quality:8.2628452777862549e-01,
                      le:1.1520737316459417e-03 }
            -
               depth: 1
               value: -2.3176948585794697e+00
               norm_class_idx: 0
            -
               depth: 1
               value: 2.3176948585794697e+00
               norm_class_idx: 1
      -
         nodes:
            -
               depth: 0
               value: -2.5539438363495104e+00
               norm_class_idx: 0
               splits:
                  - { var:7, quality:8.3750504255294800e-01,
                      le:3.5288918763399124e-02 }
            -
               depth: 1
               value: 2.5539438363495104e+00
               norm_class_idx: 1
            -
               depth: 1
               value: -2.5539438363495104e+00
               norm_class_idx: 0
      -
         nodes:
            -
               depth: 0
               value: -2.2496788578992057e+00
               norm_class_idx: 0
               splits:
                  - { var:19, quality:8.0122911930084229e-01,
                      le:1.0247955098748207e-02 }
            -
               depth: 1
               value: -2.2496788578992057e+00
               norm_class_idx: 0
            -
               depth: 1
               value: 2.2496788578992057e+00
               norm_class_idx: 1
      -
         nodes:
            -
               depth: 0
               value: -1.8318962981261186e+00
               norm_class_idx: 0
               splits:
                  - { var:10, quality:7.6411640644073486e-01,
                      le:2.3167248815298080e-02 }
            -
               depth: 1
               value: -1.8318962981261186e+00
               norm_class_idx: 0
            -
               depth: 1
               value: 1.8318962981261186e+00
               norm_class_idx: 1
      -
         nodes:
            -
               depth: 0
               value: -2.3158484304484874e+00
               norm_class_idx: 0
               splits:
                  - { var:6, quality:8.2741314172744751e-01,
                      le:8.6601510643959045e-02 }
            -
               depth: 1
               value: -2.3158484304484874e+00
               norm_class_idx: 0
            -
               depth: 1
               value: 2.3158484304484874e+00
               norm_class_idx: 1
      -
         nodes:
            -
               depth: 0
               value: 1.8823597116697153e+00
               norm_class_idx: 1
               splits:
                  - { var:30, quality:7.5345844030380249e-01,
                      le:1.1235955171287060e-03 }
            -
               depth: 1
               value: -1.8823597116697153e+00
               norm_class_idx: 0
            -
               depth: 1
               value: 1.8823597116697153e+00
               norm_class_idx: 1
      -
         nodes:
            -
               depth: 0
               value: -2.3324928133289733e+00
               norm_class_idx: 0
               splits:
                  - { var:21, quality:8.2897782325744629e-01,
                      le:1.1061946861445904e-03 }
            -
               depth: 1
               value: -2.3324928133289733e+00
               norm_class_idx: 0
            -
               depth: 1
               value: 2.3324928133289733e+00
               norm_class_idx: 1
      -
         nodes:
            -
               depth: 0
               value: -1.5906713406983901e+00
               norm_class_idx: 0
               splits:
                  - { var:26, quality:7.2053253650665283e-01,
                      le:4.7470219433307648e-03 }
            -
               depth: 1
               value: -1.5906713406983901e+00
               norm_class_idx: 0
            -
               depth: 1
               value: 1.5906713406983901e+00
               norm_class_idx: 1
      -
         nodes:
            -
               depth: 0
               value: -1.7081748321840491e+00
               norm_class_idx: 0
               splits:
                  - { var:5, quality:7.5408577919006348e-01,
                      le:6.5819919109344482e-02 }
            -
               depth: 1
               value: -1.7081748321840491e+00
               norm_class_idx: 0
            -
               depth: 1
               value: 1.7081748321840491e+00
               norm_class_idx: 1
      -
         nodes:
            -
               depth: 0
               value: 1.9174714068834917e+00
               norm_class_idx: 1
               splits:
                  - { var:6, quality:7.8329306840896606e-01,
                      le:6.5100498497486115e-02 }
            -
               depth: 1
               value: -1.9174714068834917e+00
               norm_class_idx: 0
            -
               depth: 1
               value: 1.9174714068834917e+00
               norm_class_idx: 1
      -
         nodes:
            -
               depth: 0
               value: -2.3027613030293033e+00
               norm_class_idx: 0
               splits:
                  - { var:10, quality:8.0470854043960571e-01,
                      le:2.3167248815298080e-02 }
            -
               depth: 1
               value: -2.3027613030293033e+00
               norm_class_idx: 0
            -
               depth: 1
               value: 2.3027613030293033e+00
               norm_class_idx: 1
      -
         nodes:
            -
               depth: 0
               value: -1.7111748201731933e+00
               norm_class_idx: 0
               splits:
                  - { var:13, quality:7.8555107116699219e-01,
                      le:1.9827019423246384e-02 }
            -
               depth: 1
               value: -1.7111748201731933e+00
               norm_class_idx: 0
            -
               depth: 1
               value: 1.7111748201731933e+00
               norm_class_idx: 1
      -
         nodes:
            -
               depth: 0
               value: -2.0503591700038606e+00
               norm_class_idx: 0
               splits:
                  - { var:6, quality:8.2360523939132690e-01,
                      le:8.6601510643959045e-02 }
            -
               depth: 1
               value: -2.0503591700038606e+00
               norm_class_idx: 0
            -
               depth: 1
               value: 2.0503591700038606e+00
               norm_class_idx: 1
      -
         nodes:
            -
               depth: 0
               value: -1.7566110189783757e+00
               norm_class_idx: 0
               splits:
                  - { var:25, quality:7.4038392305374146e-01,
                      le:8.9928059605881572e-04 }
            -
               depth: 1
               value: -1.7566110189783757e+00
               norm_class_idx: 0
            -
               depth: 1
               value: 1.7566110189783757e+00
               norm_class_idx: 1
      -
         nodes:
            -
               depth: 0
               value: 2.0318940136956121e+00
               norm_class_idx: 1
               splits:
                  - { var:11, quality:8.0029302835464478e-01,
                      le:1.9887775182723999e-02 }
            -
               depth: 1
               value: 2.0318940136956121e+00
               norm_class_idx: 1
            -
               depth: 1
               value: -2.0318940136956121e+00
               norm_class_idx: 0
      -
         nodes:
            -
               depth: 0
               value: -1.6017934863962882e+00
               norm_class_idx: 0
               splits:
                  - { var:0, quality:7.4407166242599487e-01,
                      le:6.1062626540660858e-02 }
            -
               depth: 1
               value: -1.6017934863962882e+00
               norm_class_idx: 0
            -
               depth: 1
               value: 1.6017934863962882e+00
               norm_class_idx: 1
      -
         nodes:
            -
               depth: 0
               value: -2.1582011461551374e+00
               norm_class_idx: 0
               splits:
                  - { var:30, quality:8.1500488519668579e-01,
                      le:1.1235955171287060e-03 }
            -
               depth: 1
               value: -2.1582011461551374e+00
               norm_class_idx: 0
            -
               depth: 1
               value: 2.1582011461551374e+00
               norm_class_idx: 1
      -
         nodes:
            -
               depth: 0
               value: -1.9821748908290755e+00
               norm_class_idx: 0
               splits:
                  - { var:27, quality:8.0550640821456909e-01,
                      le:3.8167939055711031e-03 }
            -
               depth: 1
               value: -1.9821748908290755e+00
               norm_class_idx: 0
            -
               depth: 1
               value: 1.9821748908290755e+00
               norm_class_idx: 1
      -
         nodes:
            -
               depth: 0
               value: 1.4634936417810678e+00
               norm_class_idx: 1
               splits:
                  - { var:10, quality:7.0532816648483276e-01,
                      le:2.3167248815298080e-02 }
            -
               depth: 1
               value: -1.4634936417810678e+00
               norm_class_idx: 0
            -
               depth: 1
               value: 1.4634936417810678e+00
               norm_class_idx: 1
      -
         nodes:
            -
               depth: 0
               value: -1.9760653239253276e+00
               norm_class_idx: 0
               splits:
                  - { var:6, quality:8.1822746992111206e-01,
                      le:8.6601510643959045e-02 }
            -
               depth: 1
               value: -1.9760653239253276e+00
               norm_class_idx: 0
            -
               depth: 1
               value: 1.9760653239253276e+00
               norm_class_idx: 1
      -
         nodes:
            -
               depth: 0
               value: 2.4478441224211656e+00
               norm_class_idx: 1
               splits:
                  - { var:19, quality:8.7675255537033081e-01,
                      le:1.0247955098748207e-02 }
            -
               depth: 1
               value: -2.4478441224211656e+00
               norm_class_idx: 0
            -
               depth: 1
               value: 2.4478441224211656e+00
               norm_class_idx: 1
      -
         nodes:
            -
               depth: 0
               value: -1.9795956391646381e+00
               norm_class_idx: 0
               splits:
                  - { var:0, quality:8.0873763561248779e-01,
                      le:6.1062626540660858e-02 }
            -
               depth: 1
               value: -1.9795956391646381e+00
               norm_class_idx: 0
            -
               depth: 1
               value: 1.9795956391646381e+00
               norm_class_idx: 1
      -
         nodes:
            -
               depth: 0
               value: 2.0438157810096946e+00
               norm_class_idx: 1
               splits:
                  - { var:11, quality:7.8478002548217773e-01,
                      le:1.9887775182723999e-02 }
            -
               depth: 1
               value: 2.0438157810096946e+00
               norm_class_idx: 1
            -
               depth: 1
               value: -2.0438157810096946e+00
               norm_class_idx: 0
      -
         nodes:
            -
               depth: 0
               value: -1.6848046946249520e+00
               norm_class_idx: 0
               splits:
                  - { var:10, quality:7.3563998937606812e-01,
                      le:2.3167248815298080e-02 }
            -
               depth: 1
               value: -1.6848046946249520e+00
               norm_class_idx: 0
            -
               depth: 1
               value: 1.6848046946249520e+00
               norm_class_idx: 1
      -
         nodes:
            -
               depth: 0
               value: -2.2502457145896848e+00
               norm_class_idx: 0
               splits:
                  - { var:19, quality:8.0125969648361206e-01,
                      le:1.0247955098748207e-02 }
            -
               depth: 1
               value: -2.2502457145896848e+00
               norm_class_idx: 0
            -
               depth: 1
               value: 2.2502457145896848e+00
               norm_class_idx: 1
      -
         nodes:
            -
               depth: 0
               value: -2.3944362882643553e+00
               norm_class_idx: 0
               splits:
                  - { var:0, quality:8.8424235582351685e-01,
                      le:8.6400687694549561e-02 }
            -
               depth: 1
               value: -2.3944362882643553e+00
               norm_class_idx: 0
            -
               depth: 1
               value: 2.3944362882643553e+00
               norm_class_idx: 1
      -
         nodes:
            -
               depth: 0
               value: 1.7637577441567522e+00
               norm_class_idx: 1
               splits:
                  - { var:11, quality:7.3250961303710938e-01,
                      le:1.9887775182723999e-02 }
            -
               depth: 1
               value: 1.7637577441567522e+00
               norm_class_idx: 1
            -
               depth: 1
               value: -1.7637577441567522e+00
               norm_class_idx: 0
      -
         nodes:
            -
               depth: 0
               value: -1.7304242159472119e+00
               norm_class_idx: 0
               splits:
                  - { var:10, quality:7.2676825523376465e-01,
                      le:3.6715969443321228e-02 }
            -
               depth: 1
               value: -1.7304242159472119e+00
               norm_class_idx: 0
            -
               depth: 1
               value: 1.7304242159472119e+00
               norm_class_idx: 1
      -
         nodes:
            -
               depth: 0
               value: 1.8244380060400389e+00
               norm_class_idx: 1
               splits:
                  - { var:27, quality:7.6217955350875854e-01,
                      le:1.6853932756930590e-03 }
            -
               depth: 1
               value: -1.8244380060400389e+00
               norm_class_idx: 0
            -
               depth: 1
               value: 1.8244380060400389e+00
               norm_class_idx: 1
      -
         nodes:
            -
               depth: 0
               value: 1.8459056308746458e+00
               norm_class_idx: 1
               splits:
                  - { var:1, quality:7.5654125213623047e-01,
                      le:6.5167948603630066e-02 }
            -
               depth: 1
               value: -1.8459056308746458e+00
               norm_class_idx: 0
            -
               depth: 1
               value: 1.8459056308746458e+00
               norm_class_idx: 1
      -
         nodes:
            -
               depth: 0
               value: -1.6624931448904454e+00
               norm_class_idx: 0
               splits:
                  - { var:11, quality:7.3028117418289185e-01,
                      le:1.9887775182723999e-02 }
            -
               depth: 1
               value: 1.6624931448904454e+00
               norm_class_idx: 1
            -
               depth: 1
               value: -1.6624931448904454e+00
               norm_class_idx: 0
      -
         nodes:
            -
               depth: 0
               value: -2.1112847660892466e+00
               norm_class_idx: 0
               splits:
                  - { var:35, quality:8.1556665897369385e-01,
                      le:1.1061946861445904e-03 }
            -
               depth: 1
               value: -2.1112847660892466e+00
               norm_class_idx: 0
            -
               depth: 1
               value: 2.1112847660892466e+00
               norm_class_idx: 1
      -
         nodes:
            -
               depth: 0
               value: -1.8528319189553601e+00
               norm_class_idx: 0
               splits:
                  - { var:19, quality:7.8901809453964233e-01,
                      le:1.1677538044750690e-02 }
            -
               depth: 1
               value: -1.8528319189553601e+00
               norm_class_idx: 0
            -
               depth: 1
               value: 1.8528319189553601e+00
               norm_class_idx: 1
      -
         nodes:
            -
               depth: 0
               value: -1.8973146389717190e+00
               norm_class_idx: 0
               splits:
                  - { var:10, quality:7.7524417638778687e-01,
                      le:2.3167248815298080e-02 }
            -
               depth: 1
               value: -1.8973146389717190e+00
               norm_class_idx: 0
            -
               depth: 1
               value: 1.8973146389717190e+00
               norm_class_idx: 1
      -
         nodes:
            -
               depth: 0
               value: -2.1665754081156381e+00
               norm_class_idx: 0
               splits:
                  - { var:27, quality:8.2454109191894531e-01,
                      le:5.7325027883052826e-03 }
            -
               depth: 1
               value: -2.1665754081156381e+00
               norm_class_idx: 0
            -
               depth: 1
               value: 2.1665754081156381e+00
               norm_class_idx: 1
      -
         nodes:
            -
               depth: 0
               value: 2.4545876776952902e+00
               norm_class_idx: 1
               splits:
                  - { var:6, quality:8.4285944700241089e-01,
                      le:6.5100498497486115e-02 }
            -
               depth: 1
               value: -2.4545876776952902e+00
               norm_class_idx: 0
            -
               depth: 1
               value: 2.4545876776952902e+00
               norm_class_idx: 1
      -
         nodes:
            -
               depth: 0
               value: -2.0035220509109739e+00
               norm_class_idx: 0
               splits:
                  - { var:18, quality:7.9992067813873291e-01,
                      le:7.3116961866617203e-03 }
            -
               depth: 1
               value: 2.0035220509109739e+00
               norm_class_idx: 1
            -
               depth: 1
               value: -2.0035220509109739e+00
               norm_class_idx: 0
      -
         nodes:
            -
               depth: 0
               value: -1.8180918734895379e+00
               norm_class_idx: 0
               splits:
                  - { var:14, quality:7.2082191705703735e-01,
                      le:3.1474649906158447e-02 }
            -
               depth: 1
               value: 1.8180918734895379e+00
               norm_class_idx: 1
            -
               depth: 1
               value: -1.8180918734895379e+00
               norm_class_idx: 0
      -
         nodes:
            -
               depth: 0
               value: -1.5338702745796653e+00
               norm_class_idx: 0
               splits:
                  - { var:6, quality:7.4358761310577393e-01,
                      le:6.5100498497486115e-02 }
            -
               depth: 1
               value: -1.5338702745796653e+00
               norm_class_idx: 0
            -
               depth: 1
               value: 1.5338702745796653e+00
               norm_class_idx: 1
      -
         nodes:
            -
               depth: 0
               value: -1.6663734957726930e+00
               norm_class_idx: 0
               splits:
                  - { var:10, quality:7.5101470947265625e-01,
                      le:2.3167248815298080e-02 }
            -
               depth: 1
               value: -1.6663734957726930e+00
               norm_class_idx: 0
            -
               depth: 1
               value: 1.6663734957726930e+00
               norm_class_idx: 1
      -
         nodes:
            -
               depth: 0
               value: -1.9279448763081033e+00
               norm_class_idx: 0
               splits:
                  - { var:0, quality:7.9780775308609009e-01,
                      le:1.0868121683597565e-01 }
            -
               depth: 1
               value: -1.9279448763081033e+00
               norm_class_idx: 0
            -
               depth: 1
               value: 1.9279448763081033e+00
               norm_class_idx: 1
      -
         nodes:
            -
               depth: 0
               value: 1.5553153896489313e+00
               norm_class_idx: 1
               splits:
                  - { var:3, quality:7.4057024717330933e-01,
                      le:1.0757505893707275e-01 }
            -
               depth: 1
               value: 1.5553153896489313e+00
               norm_class_idx: 1
            -
               depth: 1
               value: -1.5553153896489313e+00
               norm_class_idx: 0
      -
         nodes:
            -
               depth: 0
               value: -1.8407951454739406e+00
               norm_class_idx: 0
               splits:
                  - { var:19, quality:7.9483807086944580e-01,
                      le:1.0247955098748207e-02 }
            -
               depth: 1
               value: -1.8407951454739406e+00
               norm_class_idx: 0
            -
               depth: 1
               value: 1.8407951454739406e+00
               norm_class_idx: 1
      -
         nodes:
            -
               depth: 0
               value: -1.9373436614044210e+00
               norm_class_idx: 0
               splits:
                  - { var:35, quality:8.0844062566757202e-01,
                      le:1.1520737316459417e-03 }
            -
               depth: 1
               value: -1.9373436614044210e+00
               norm_class_idx: 0
            -
               depth: 1
               value: 1.9373436614044210e+00
               norm_class_idx: 1
      -
         nodes:
            -
               depth: 0
               value: -1.8634559794746632e+00
               norm_class_idx: 0
               splits:
                  - { var:7, quality:7.5615233182907104e-01,
                      le:3.5288918763399124e-02 }
            -
               depth: 1
               value: 1.8634559794746632e+00
               norm_class_idx: 1
            -
               depth: 1
               value: -1.8634559794746632e+00
               norm_class_idx: 0
      -
         nodes:
            -
               depth: 0
               value: -1.8659182612535361e+00
               norm_class_idx: 0
               splits:
                  - { var:4, quality:7.5917428731918335e-01,
                      le:8.0022640526294708e-02 }
            -
               depth: 1
               value: 1.8659182612535361e+00
               norm_class_idx: 1
            -
               depth: 1
               value: -1.8659182612535361e+00
               norm_class_idx: 0
      -
         nodes:
            -
               depth: 0
               value: 1.9752452065265105e+00
               norm_class_idx: 1
               splits:
                  - { var:28, quality:7.5886923074722290e-01,
                      le:1.1061946861445904e-03 }
            -
               depth: 1
               value: -1.9752452065265105e+00
               norm_class_idx: 0
            -
               depth: 1
               value: 1.9752452065265105e+00
               norm_class_idx: 1
      -
         nodes:
            -
               depth: 0
               value: -1.9666586655038176e+00
               norm_class_idx: 0
               splits:
                  - { var:11, quality:7.7168941497802734e-01,
                      le:1.9887775182723999e-02 }
            -
               depth: 1
               value: 1.9666586655038176e+00
               norm_class_idx: 1
            -
               depth: 1
               value: -1.9666586655038176e+00
               norm_class_idx: 0
      -
         nodes:
            -
               depth: 0
               value: -2.0692173422804565e+00
               norm_class_idx: 0
               splits:
                  - { var:18, quality:8.0387181043624878e-01,
                      le:7.1299131959676743e-03 }
            -
               depth: 1
               value: 2.0692173422804565e+00
               norm_class_idx: 1
            -
               depth: 1
               value: -2.0692173422804565e+00
               norm_class_idx: 0
      -
         nodes:
            -
               depth: 0
               value: 1.6552702361504885e+00
               norm_class_idx: 1
               splits:
                  - { var:27, quality:7.3774057626724243e-01,
                      le:9.0252707013860345e-04 }
            -
               depth: 1
               value: -1.6552702361504885e+00
               norm_class_idx: 0
            -
               depth: 1
               value: 1.6552702361504885e+00
               norm_class_idx: 1
      -
         nodes:
            -
               depth: 0
               value: 2.0966773313869433e+00
               norm_class_idx: 1
               splits:
                  - { var:10, quality:7.9028666019439697e-01,
                      le:2.6762418448925018e-02 }
            -
               depth: 1
               value: -2.0966773313869433e+00
               norm_class_idx: 0
            -
               depth: 1
               value: 2.0966773313869433e+00
               norm_class_idx: 1
      -
         nodes:
            -
               depth: 0
               value: -2.2096271368249014e+00
               norm_class_idx: 0
               splits:
                  - { var:19, quality:8.1732201576232910e-01,
                      le:1.0247955098748207e-02 }
            -
               depth: 1
               value: -2.2096271368249014e+00
               norm_class_idx: 0
            -
               depth: 1
               value: 2.2096271368249014e+00
               norm_class_idx: 1
      -
         nodes:
            -
               depth: 0
               value: 1.8628241520921993e+00
               norm_class_idx: 1
               splits:
                  - { var:6, quality:7.6459354162216187e-01,
                      le:6.5100498497486115e-02 }
            -
               depth: 1
               value: -1.8628241520921993e+00
               norm_class_idx: 0
            -
               depth: 1
               value: 1.8628241520921993e+00
               norm_class_idx: 1
      -
         nodes:
            -
               depth: 0
               value: -2.1539942661858613e+00
               norm_class_idx: 0
               splits:
                  - { var:35, quality:8.0066442489624023e-01,
                      le:1.1520737316459417e-03 }
            -
               depth: 1
               value: -2.1539942661858613e+00
               norm_class_idx: 0
            -
               depth: 1
               value: 2.1539942661858613e+00
               norm_class_idx: 1
      -
         nodes:
            -
               depth: 0
               value: -1.8208666521128853e+00
               norm_class_idx: 0
               splits:
                  - { var:0, quality:7.8802073001861572e-01,
                      le:7.1369543671607971e-02 }
            -
               depth: 1
               value: -1.8208666521128853e+00
               norm_class_idx: 0
            -
               depth: 1
               value: 1.8208666521128853e+00
               norm_class_idx: 1
      -
         nodes:
            -
               depth: 0
               value: -2.0819249022327826e+00
               norm_class_idx: 0
               splits:
                  - { var:11, quality:7.6510292291641235e-01,
                      le:1.9887775182723999e-02 }
            -
               depth: 1
               value: 2.0819249022327826e+00
               norm_class_idx: 1
            -
               depth: 1
               value: -2.0819249022327826e+00
               norm_class_idx: 0
      -
         nodes:
            -
               depth: 0
               value: -2.1179804379171370e+00
               norm_class_idx: 0
               splits:
                  - { var:27, quality:8.2307535409927368e-01,
                      le:1.6853932756930590e-03 }
            -
               depth: 1
               value: -2.1179804379171370e+00
               norm_class_idx: 0
            -
               depth: 1
               value: 2.1179804379171370e+00
               norm_class_idx: 1
      -
         nodes:
            -
               depth: 0
               value: 2.4268353324243295e+00
               norm_class_idx: 1
               splits:
                  - { var:19, quality:8.4748303890228271e-01,
                      le:1.0118128731846809e-02 }
            -
               depth: 1
               value: -2.4268353324243295e+00
               norm_class_idx: 0
            -
               depth: 1
               value: 2.4268353324243295e+00
               norm_class_idx: 1
      -
         nodes:
            -
               depth: 0
               value: -2.4667687503107909e+00
               norm_class_idx: 0
               splits:
                  - { var:10, quality:8.4015047550201416e-01,
                      le:2.3167248815298080e-02 }
            -
               depth: 1
               value: -2.4667687503107909e+00
               norm_class_idx: 0
            -
               depth: 1
               value: 2.4667687503107909e+00
               norm_class_idx: 1
      -
         nodes:
            -
               depth: 0
               value: -1.7319616102919253e+00
               norm_class_idx: 0
               splits:
                  - { var:6, quality:7.8107523918151855e-01,
                      le:6.5730616450309753e-02 }
            -
               depth: 1
               value: -1.7319616102919253e+00
               norm_class_idx: 0
            -
               depth: 1
               value: 1.7319616102919253e+00
               norm_class_idx: 1
      -
         nodes:
            -
               depth: 0
               value: -1.9674449041124014e+00
               norm_class_idx: 0
               splits:
                  - { var:19, quality:8.1053906679153442e-01,
                      le:2.6580795645713806e-02 }
            -
               depth: 1
               value: -1.9674449041124014e+00
               norm_class_idx: 0
            -
               depth: 1
               value: 1.9674449041124014e+00
               norm_class_idx: 1
      -
         nodes:
            -
               depth: 0
               value: 2.1944965688128377e+00
               norm_class_idx: 1
               splits:
                  - { var:0, quality:8.3769673109054565e-01,
                      le:5.8555781841278076e-02 }
            -
               depth: 1
               value: -2.1944965688128377e+00
               norm_class_idx: 0
            -
               depth: 1
               value: 2.1944965688128377e+00
               norm_class_idx: 1
      -
         nodes:
            -
               depth: 0
               value: -1.5940881786721195e+00
               norm_class_idx: 0
               splits:
                  - { var:26, quality:7.0988559722900391e-01,
                      le:4.5937094837427139e-03 }
            -
               depth: 1
               value: -1.5940881786721195e+00
               norm_class_idx: 0
            -
               depth: 1
               value: 1.5940881786721195e+00
               norm_class_idx: 1
      -
         nodes:
            -
               depth: 0
               value: -1.7174754578787386e+00
               norm_class_idx: 0
               splits:
                  - { var:30, quality:7.5676155090332031e-01,
                      le:1.1235955171287060e-03 }
            -
               depth: 1
               value: -1.7174754578787386e+00
               norm_class_idx: 0
            -
               depth: 1
               value: 1.7174754578787386e+00
               norm_class_idx: 1
      -
         nodes:
            -
               depth: 0
               value: -1.9011800344449845e+00
               norm_class_idx: 0
               splits:
                  - { var:6, quality:8.0728971958160400e-01,
                      le:8.6601510643959045e-02 }
            -
               depth: 1
               value: -1.9011800344449845e+00
               norm_class_idx: 0
            -
               depth: 1
               value: 1.9011800344449845e+00
               norm_class_idx: 1
      -
         nodes:
            -
               depth: 0
               value: -2.0254245779607847e+00
               norm_class_idx: 0
               splits:
                  - { var:10, quality:7.7127450704574585e-01,
                      le:2.3167248815298080e-02 }
            -
               depth: 1
               value: -2.0254245779607847e+00
               norm_class_idx: 0
            -
               depth: 1
               value: 2.0254245779607847e+00
               norm_class_idx: 1
      -
         nodes:
            -
               depth: 0
               value: -1.9872665046971156e+00
               norm_class_idx: 0
               splits:
                  - { var:12, quality:7.8138530254364014e-01,
                      le:1.2330519035458565e-02 }
            -
               depth: 1
               value: -1.9872665046971156e+00
               norm_class_idx: 0
            -
               depth: 1
               value: 1.9872665046971156e+00
               norm_class_idx: 1
      -
         nodes:
            -
               depth: 0
               value: -1.6752911355809279e+00
               norm_class_idx: 0
               splits:
                  - { var:1, quality:7.4547255039215088e-01,
                      le:8.6273059248924255e-02 }
            -
               depth: 1
               value: -1.6752911355809279e+00
               norm_class_idx: 0
            -
               depth: 1
               value: 1.6752911355809279e+00
               norm_class_idx: 1
      -
         nodes:
            -
               depth: 0
               value: -2.0286361912425912e+00
               norm_class_idx: 0
               splits:
                  - { var:11, quality:7.6205301284790039e-01,
                      le:1.9887775182723999e-02 }
            -
               depth: 1
               value: 2.0286361912425912e+00
               norm_class_idx: 1
            -
               depth: 1
               value: -2.0286361912425912e+00
               norm_class_idx: 0
      -
         nodes:
            -
               depth: 0
               value: -1.9950966493269120e+00
               norm_class_idx: 0
               splits:
                  - { var:30, quality:7.7352583408355713e-01,
                      le:1.1235955171287060e-03 }
            -
               depth: 1
               value: -1.9950966493269120e+00
               norm_class_idx: 0
            -
               depth: 1
               value: 1.9950966493269120e+00
               norm_class_idx: 1
      -
         nodes:
            -
               depth: 0
               value: -1.4990918893753289e+00
               norm_class_idx: 0
               splits:
                  - { var:22, quality:7.5568622350692749e-01,
                      le:5.6179775856435299e-04 }
            -
               depth: 1
               value: -1.4990918893753289e+00
               norm_class_idx: 0
            -
               depth: 1
               value: 1.4990918893753289e+00
               norm_class_idx: 1
      -
         nodes:
            -
               depth: 0
               value: -1.7682142560271945e+00
               norm_class_idx: 0
               splits:
                  - { var:10, quality:8.0134457349777222e-01,
                      le:3.6715969443321228e-02 }
            -
               depth: 1
               value: -1.7682142560271945e+00
               norm_class_idx: 0
            -
               depth: 1
               value: 1.7682142560271945e+00
               norm_class_idx: 1
      -
         nodes:
            -
               depth: 0
               value: -2.2850776862058111e+00
               norm_class_idx: 0
               splits:
                  - { var:27, quality:8.1446790695190430e-01,
                      le:1.6853932756930590e-03 }
            -
               depth: 1
               value: -2.2850776862058111e+00
               norm_class_idx: 0
            -
               depth: 1
               value: 2.2850776862058111e+00
               norm_class_idx: 1
      -
         nodes:
            -
               depth: 0
               value: 2.0333129718227165e+00
               norm_class_idx: 1
               splits:
                  - { var:11, quality:7.9068958759307861e-01,
                      le:1.9887775182723999e-02 }
            -
               depth: 1
               value: 2.0333129718227165e+00
               norm_class_idx: 1
            -
               depth: 1
               value: -2.0333129718227165e+00
               norm_class_idx: 0
      -
         nodes:
            -
               depth: 0
               value: -2.3887469573352496e+00
               norm_class_idx: 0
               splits:
                  - { var:19, quality:8.4558010101318359e-01,
                      le:1.0247955098748207e-02 }
            -
               depth: 1
               value: -2.3887469573352496e+00
               norm_class_idx: 0
            -
               depth: 1
               value: 2.3887469573352496e+00
               norm_class_idx: 1
      -
         nodes:
            -
               depth: 0
               value: -1.9457319861322004e+00
               norm_class_idx: 0
               splits:
                  - { var:10, quality:7.8676068782806396e-01,
                      le:2.3167248815298080e-02 }
            -
               depth: 1
               value: -1.9457319861322004e+00
               norm_class_idx: 0
            -
               depth: 1
               value: 1.9457319861322004e+00
               norm_class_idx: 1
      -
         nodes:
            -
               depth: 0
               value: -2.2840148293249634e+00
               norm_class_idx: 0
               splits:
                  - { var:0, quality:8.1375437974929810e-01,
                      le:8.5996374487876892e-02 }
            -
               depth: 1
               value: -2.2840148293249634e+00
               norm_class_idx: 0
            -
               depth: 1
               value: 2.2840148293249634e+00
               norm_class_idx: 1
      -
         nodes:
            -
               depth: 0
               value: 1.8929456919345562e+00
               norm_class_idx: 1
               splits:
                  - { var:4, quality:7.8926736116409302e-01,
                      le:1.5212294459342957e-01 }
            -
               depth: 1
               value: 1.8929456919345562e+00
               norm_class_idx: 1
            -
               depth: 1
               value: -1.8929456919345562e+00
               norm_class_idx: 0
      -
         nodes:
            -
               depth: 0
               value: -1.7535276425718485e+00
               norm_class_idx: 0
               splits:
                  - { var:10, quality:7.8795486688613892e-01,
                      le:3.6781802773475647e-02 }
            -
               depth: 1
               value: -1.7535276425718485e+00
               norm_class_idx: 0
            -
               depth: 1
               value: 1.7535276425718485e+00
               norm_class_idx: 1
      -
         nodes:
            -
               depth: 0
               value: -1.7078262924026582e+00
               norm_class_idx: 0
               splits:
                  - { var:26, quality:7.2594541311264038e-01,
                      le:4.5937094837427139e-03 }
            -
               depth: 1
               value: -1.7078262924026582e+00
               norm_class_idx: 0
            -
               depth: 1
               value: 1.7078262924026582e+00
               norm_class_idx: 1
      -
         nodes:
            -
               depth: 0
               value: -1.5065954487509863e+00
               norm_class_idx: 0
               splits:
                  - { var:5, quality:7.1931350231170654e-01,
                      le:6.5819919109344482e-02 }
            -
               depth: 1
               value: -1.5065954487509863e+00
               norm_class_idx: 0
            -
               depth: 1
               value: 1.5065954487509863e+00
               norm_class_idx: 1
      -
         nodes:
            -
               depth: 0
               value: 1.7654202720070011e+00
               norm_class_idx: 1
               splits:
                  - { var:13, quality:7.4907636642456055e-01,
                      le:1.8769182264804840e-02 }
            -
               depth: 1
               value: -1.7654202720070011e+00
               norm_class_idx: 0
            -
               depth: 1
               value: 1.7654202720070011e+00
               norm_class_idx: 1
      -
         nodes:
            -
               depth: 0
               value: -1.9409999021047457e+00
               norm_class_idx: 0
               splits:
                  - { var:11, quality:7.8916317224502563e-01,
                      le:1.9887775182723999e-02 }
            -
               depth: 1
               value: 1.9409999021047457e+00
               norm_class_idx: 1
            -
               depth: 1
