%YAML:1.0
---
opencv_ml_svm:
   format: 3
   svmType: C_SVC
   kernel:
      type: RBF
      gamma: 1.
   C: 1.
   term_criteria: { iterations:100 }
   var_count: 100
   class_count: 2
   class_labels: !!opencv-matrix
      rows: 2
      cols: 1
      dt: i
      data: [ 0, 1 ]
   sv_total: 30
   support_vectors:
      - [ 6.96202517e-02, 1.70886084e-01, 5.69620281e-02, 8.22784826e-02,
          8.22784826e-02, 6.32911399e-02, 4.43037972e-02, 4.43037972e-02,
          1.26582282e-02, 2.53164563e-02, 6.32911408e-03, 4.43037972e-02,
          6.96202517e-02, 1.26582282e-02, 1.89873427e-02, 3.79746854e-02,
          1.89873427e-02, 9.49367136e-02, 6.32911408e-03, 0., 0.,
          6.32911408e-03, 1.26582282e-02, 0., 1.26582282e-02, 0., 0., 0.,
          6.32911408e-03, 0., 0., 0., 0., 0., 0., 0., 0., 0., 0., 0., 0.,
          0., 0., 0., 0., 0., 0., 0., 0., 0., 0., 0., 0., 0., 0., 0., 0.,
          0., 0., 0., 0., 0., 0., 0., 0., 0., 0., 0., 0., 0., 0., 0., 0.,
          0., 0., 0., 0., 0., 0., 0., 0., 0., 0., 0., 0., 0., 0., 0., 0.,
          0., 0., 0., 0., 0., 0., 0., 0., 0., 0., 0. ]
      - [ 1.01449281e-01, 8.69565234e-02, 1.01449281e-01, 1.30434781e-01,
          1.15942031e-01, 8.69565234e-02, 4.34782617e-02, 7.24637657e-02,
          1.44927539e-02, 2.89855078e-02, 0., 1.44927539e-02,
          2.89855078e-02, 2.89855078e-02, 0., 2.89855078e-02,
          1.44927539e-02, 5.79710156e-02, 0., 0., 0., 1.44927539e-02, 0.,
          0., 1.44927539e-02, 0., 0., 0., 0., 0., 0., 0., 0., 0., 0., 0.,
          1.44927539e-02, 0., 0., 0., 0., 0., 0., 0., 0., 0., 0., 0., 0.,
          0., 0., 0., 0., 0., 0., 0., 0., 0., 0., 0., 0., 0., 0., 0., 0.,
          0., 0., 0., 0., 0., 0., 0., 0., 0., 0., 0., 0., 0., 0., 0., 0.,
          0., 0., 0., 0., 0., 0., 0., 0., 0., 0., 0., 0., 0., 0., 0., 0.,
          0., 0., 0. ]
      - [ 5.30973449e-02, 1.76991150e-01, 1.29793510e-01, 9.43952799e-02,
          9.73451287e-02, 6.78466111e-02, 4.71976399e-02, 5.89970499e-02,
          2.35988200e-02, 8.84955749e-03, 2.06489675e-02, 3.53982300e-02,
          4.12979349e-02, 1.76991150e-02, 1.76991150e-02, 2.65486725e-02,
          0., 5.89970499e-02, 1.17994100e-02, 0., 2.94985250e-03, 0., 0.,
          0., 0., 0., 0., 0., 2.94985250e-03, 0., 0., 5.89970499e-03, 0.,
          0., 0., 0., 0., 0., 0., 0., 0., 0., 0., 0., 0., 0., 0., 0., 0.,
          0., 0., 0., 0., 0., 0., 0., 0., 0., 0., 0., 0., 0., 0., 0., 0.,
          0., 0., 0., 0., 0., 0., 0., 0., 0., 0., 0., 0., 0., 0., 0., 0.,
          0., 0., 0., 0., 0., 0., 0., 0., 0., 0., 0., 0., 0., 0., 0., 0.,
          0., 0., 0. ]
      - [ 1.72413792e-02, 8.62068981e-02, 2.24137932e-01, 6.89655170e-02,
          1.72413792e-02, 1.37931034e-01, 0., 1.03448272e-01,
          5.17241359e-02, 3.44827585e-02, 0., 6.89655170e-02,
          5.17241359e-02, 0., 1.72413792e-02, 1.72413792e-02, 0.,
          8.62068981e-02, 1.72413792e-02, 0., 0., 0., 0., 0., 0., 0., 0.,
          0., 0., 0., 0., 0., 0., 0., 0., 0., 0., 0., 0., 0., 0., 0., 0.,
          0., 0., 0., 0., 0., 0., 0., 0., 0., 0., 0., 0., 0., 0., 0., 0.,
          0., 0., 0., 0., 0., 0., 0., 0., 0., 0., 0., 0., 0., 0., 0., 0.,
          0., 0., 0., 0., 0., 0., 0., 0., 0., 0., 0., 0., 0., 0., 0., 0.,
          0., 0., 0., 0., 0., 0., 0., 0., 0. ]
      - [ 1.11587986e-01, 2.06008583e-01, 7.72532225e-02, 1.11587986e-01,
          6.00858368e-02, 2.57510729e-02, 6.43776804e-02, 3.00429184e-02,
          1.28755365e-02, 3.43347639e-02, 6.43776804e-02, 3.86266112e-02,
          4.72102985e-02, 1.28755365e-02, 2.57510729e-02, 1.71673819e-02,
          0., 3.00429184e-02, 1.71673819e-02, 0., 0., 0., 0., 0., 0., 0.,
          4.29184549e-03, 0., 0., 0., 4.29184549e-03, 0., 0., 0., 0., 0.,
          4.29184549e-03, 0., 0., 0., 0., 0., 0., 0., 0., 0., 0., 0., 0.,
          0., 0., 0., 0., 0., 0., 0., 0., 0., 0., 0., 0., 0., 0., 0., 0.,
          0., 0., 0., 0., 0., 0., 0., 0., 0., 0., 0., 0., 0., 0., 0., 0.,
          0., 0., 0., 0., 0., 0., 0., 0., 0., 0., 0., 0., 0., 0., 0., 0.,
          0., 0., 0. ]
      - [ 6.34920672e-02, 4.76190522e-02, 1.26984134e-01, 6.34920672e-02,
          7.93650821e-02, 6.34920672e-02, 7.93650821e-02, 0.,
          4.76190522e-02, 0., 1.58730168e-02, 1.58730168e-02,
          1.26984134e-01, 3.17460336e-02, 3.17460336e-02, 3.17460336e-02,
          0., 1.42857149e-01, 1.58730168e-02, 0., 0., 0., 0., 0., 0., 0.,
          0., 0., 0., 0., 0., 0., 0., 0., 0., 0., 0., 0., 0., 0., 0., 0.,
          0., 0., 0., 0., 1.58730168e-02, 0., 0., 0., 0., 0., 0., 0., 0.,
          0., 0., 0., 0., 0., 0., 0., 0., 0., 0., 0., 0., 0., 0., 0., 0.,
          0., 0., 0., 0., 0., 0., 0., 0., 0., 0., 0., 0., 0., 0., 0., 0.,
          0., 0., 0., 0., 0., 0., 0., 0., 0., 0., 0., 0., 0. ]
      - [ 5.31914867e-02, 7.44680837e-02, 2.23404244e-01, 3.19148935e-02,
          8.51063803e-02, 7.44680837e-02, 4.25531901e-02, 4.25531901e-02,
          3.19148935e-02, 3.19148935e-02, 2.12765951e-02, 3.19148935e-02,
          3.19148935e-02, 1.06382975e-02, 2.12765951e-02, 5.31914867e-02,
          1.06382975e-02, 6.38297871e-02, 0., 0., 0., 2.12765951e-02,
          1.06382975e-02, 0., 1.06382975e-02, 0., 0., 0., 0., 0., 0., 0.,
          0., 0., 0., 0., 2.12765951e-02, 0., 0., 0., 0., 0., 0., 0., 0.,
          0., 0., 0., 0., 0., 0., 0., 0., 0., 0., 0., 0., 0., 0., 0., 0.,
          0., 0., 0., 0., 0., 0., 0., 0., 0., 0., 0., 0., 0., 0., 0., 0.,
          0., 0., 0., 0., 0., 0., 0., 0., 0., 0., 0., 0., 0., 0., 0., 0.,
          0., 0., 0., 0., 0., 0., 0. ]
      - [ 8.33333358e-02, 2.08333343e-01, 5.65476194e-02, 1.07142858e-01,
          8.92857164e-02, 6.84523806e-02, 6.25000000e-02, 8.33333358e-02,
          2.38095243e-02, 5.05952388e-02, 1.48809524e-02, 8.92857183e-03,
          2.67857146e-02, 1.78571437e-02, 0., 2.97619049e-02, 0.,
          1.78571437e-02, 1.78571437e-02, 0., 0., 2.97619053e-03,
          2.97619053e-03, 0., 2.97619053e-03, 0., 2.97619053e-03, 0.,
          2.97619053e-03, 0., 2.97619053e-03, 2.97619053e-03, 0., 0.,
          2.97619053e-03, 0., 2.97619053e-03, 2.97619053e-03,
          2.97619053e-03, 0., 0., 0., 0., 0., 0., 0., 0., 0., 0., 0., 0.,
          0., 0., 0., 0., 0., 0., 0., 0., 0., 0., 0., 0., 0., 0., 0., 0.,
          0., 0., 0., 0., 0., 0., 0., 0., 0., 0., 0., 0., 0., 0., 0., 0.,
          0., 0., 0., 0., 0., 0., 0., 0., 0., 0., 0., 0., 0., 0., 0., 0.,
          0. ]
      - [ 4.80349362e-02, 1.83406115e-01, 1.61572054e-01, 4.36681211e-02,
          9.17030573e-02, 4.80349362e-02, 3.93013097e-02, 3.93013097e-02,
          2.18340605e-02, 2.62008738e-02, 4.36681230e-03, 3.05676870e-02,
          4.36681211e-02, 1.74672492e-02, 2.18340605e-02, 5.24017476e-02,
          0., 6.11353740e-02, 2.62008738e-02, 0., 0., 2.18340605e-02, 0.,
          0., 8.73362459e-03, 0., 0., 0., 0., 0., 0., 0., 0., 0., 0.,
          4.36681230e-03, 4.36681230e-03, 0., 0., 0., 0., 0., 0., 0., 0.,
          0., 0., 0., 0., 0., 0., 0., 0., 0., 0., 0., 0., 0., 0., 0., 0.,
          0., 0., 0., 0., 0., 0., 0., 0., 0., 0., 0., 0., 0., 0., 0., 0.,
          0., 0., 0., 0., 0., 0., 0., 0., 0., 0., 0., 0., 0., 0., 0., 0.,
          0., 0., 0., 0., 0., 0., 0. ]
      - [ 1.85185179e-01, 2.66666651e-01, 1.48148146e-02, 5.18518500e-02,
          4.44444418e-02, 5.18518500e-02, 3.70370373e-02, 3.70370373e-02,
          5.18518500e-02, 2.96296291e-02, 1.48148146e-02, 7.40740728e-03,
          6.66666627e-02, 7.40740728e-03, 1.48148146e-02, 1.48148146e-02,
          0., 6.66666627e-02, 2.22222209e-02, 0., 0., 1.48148146e-02, 0.,
          0., 0., 0., 0., 0., 0., 0., 0., 0., 0., 0., 0., 0., 0., 0., 0.,
          0., 0., 0., 0., 0., 0., 0., 0., 0., 0., 0., 0., 0., 0., 0., 0.,
          0., 0., 0., 0., 0., 0., 0., 0., 0., 0., 0., 0., 0., 0., 0., 0.,
          0., 0., 0., 0., 0., 0., 0., 0., 0., 0., 0., 0., 0., 0., 0., 0.,
          0., 0., 0., 0., 0., 0., 0., 0., 0., 0., 0., 0., 0. ]
      - [ 1.46017700e-01, 1.46017700e-01, 7.96460211e-02, 7.52212405e-02,
          8.40707943e-02, 1.76991150e-02, 3.98230106e-02, 5.30973449e-02,
          1.32743362e-02, 3.09734512e-02, 1.76991150e-02, 4.86725643e-02,
          8.40707943e-02, 8.84955749e-03, 4.42477874e-03, 2.21238937e-02,
          0., 6.63716793e-02, 1.76991150e-02, 0., 0., 1.32743362e-02,
          4.42477874e-03, 0., 8.84955749e-03, 0., 0., 0., 4.42477874e-03,
          0., 0., 0., 4.42477874e-03, 0., 4.42477874e-03, 0.,
          4.42477874e-03, 0., 0., 0., 0., 0., 0., 0., 0., 0., 0., 0., 0.,
          0., 0., 0., 0., 0., 0., 0., 0., 0., 0., 0., 0., 0., 0., 0., 0.,
          0., 0., 0., 0., 0., 0., 0., 0., 0., 0., 0., 0., 0., 0., 0., 0.,
          0., 0., 0., 0., 0., 0., 0., 0., 0., 0., 0., 0., 0., 0., 0., 0.,
          0., 0., 0. ]
      - [ 5.47945201e-02, 2.05479443e-01, 6.84931502e-02, 1.23287663e-01,
          8.67579877e-02, 2.73972601e-02, 5.02283089e-02, 5.02283089e-02,
          3.19634676e-02, 5.02283089e-02, 3.19634676e-02, 4.56620986e-03,
          5.47945201e-02, 1.82648394e-02, 9.13241971e-03, 5.02283089e-02,
          0., 2.73972601e-02, 2.73972601e-02, 0., 0., 4.56620986e-03,
          4.56620986e-03, 0., 4.56620986e-03, 0., 4.56620986e-03, 0., 0.,
          4.56620986e-03, 0., 0., 0., 0., 0., 0., 0., 0., 0.,
          4.56620986e-03, 0., 0., 0., 0., 0., 0., 0., 0., 0., 0., 0., 0.,
          0., 0., 0., 0., 0., 0., 0., 0., 0., 0., 0., 0., 0., 0., 0., 0.,
          0., 0., 0., 0., 0., 0., 0., 0., 0., 0., 0., 0., 0., 0., 0., 0.,
          0., 0., 0., 0., 0., 0., 0., 0., 0., 0., 0., 0., 0., 0., 0., 0. ]
      - [ 4.54545431e-02, 2.09090903e-01, 1.36363626e-01, 9.09090862e-02,
          1.09090909e-01, 5.45454547e-02, 1.81818176e-02, 8.18181783e-02,
          9.09090880e-03, 2.72727273e-02, 0., 4.54545431e-02,
          9.09090880e-03, 1.81818176e-02, 9.09090880e-03, 3.63636352e-02,
          9.09090880e-03, 0., 3.63636352e-02, 9.09090880e-03,
          9.09090880e-03, 1.81818176e-02, 0., 0., 9.09090880e-03, 0., 0.,
          0., 0., 0., 0., 0., 0., 0., 0., 0., 9.09090880e-03, 0., 0., 0.,
          0., 0., 0., 0., 0., 0., 0., 0., 0., 0., 0., 0., 0., 0., 0., 0.,
          0., 0., 0., 0., 0., 0., 0., 0., 0., 0., 0., 0., 0., 0., 0., 0.,
          0., 0., 0., 0., 0., 0., 0., 0., 0., 0., 0., 0., 0., 0., 0., 0.,
          0., 0., 0., 0., 0., 0., 0., 0., 0., 0., 0., 0. ]
      - [ 8.13559294e-02, 2.74576277e-01, 6.10169470e-02, 6.44067824e-02,
          8.47457647e-02, 7.11864382e-02, 3.05084735e-02, 4.06779647e-02,
          4.40677963e-02, 5.76271191e-02, 3.05084735e-02, 2.37288140e-02,
          1.69491526e-02, 1.69491526e-02, 6.77966094e-03, 3.72881368e-02,
          0., 1.01694912e-02, 2.03389823e-02, 3.38983047e-03,
          3.38983047e-03, 0., 3.38983047e-03, 0., 0., 0., 3.38983047e-03,
          0., 6.77966094e-03, 0., 0., 3.38983047e-03, 0., 0., 0., 0.,
          3.38983047e-03, 0., 0., 0., 0., 0., 0., 0., 0., 0., 0., 0., 0.,
          0., 0., 0., 0., 0., 0., 0., 0., 0., 0., 0., 0., 0., 0., 0., 0.,
          0., 0., 0., 0., 0., 0., 0., 0., 0., 0., 0., 0., 0., 0., 0., 0.,
          0., 0., 0., 0., 0., 0., 0., 0., 0., 0., 0., 0., 0., 0., 0., 0.,
          0., 0., 0. ]
      - [ 8.09859112e-02, 1.02112673e-01, 1.05633803e-01, 8.09859112e-02,
          6.33802786e-02, 8.80281702e-02, 8.80281702e-02, 4.22535203e-02,
          2.46478878e-02, 3.52112651e-02, 3.52112669e-03, 2.11267602e-02,
          4.92957756e-02, 1.05633801e-02, 1.76056325e-02, 4.57746461e-02,
          0., 5.63380271e-02, 2.11267602e-02, 3.52112669e-03,
          1.05633801e-02, 1.05633801e-02, 7.04225339e-03, 0.,
          1.05633801e-02, 0., 3.52112669e-03, 0., 0., 0., 3.52112669e-03,
          3.52112669e-03, 7.04225339e-03, 0., 0., 0., 0., 3.52112669e-03,
          0., 0., 0., 0., 0., 0., 0., 0., 0., 0., 0., 0., 0., 0., 0., 0.,
          0., 0., 0., 0., 0., 0., 0., 0., 0., 0., 0., 0., 0., 0., 0., 0.,
          0., 0., 0., 0., 0., 0., 0., 0., 0., 0., 0., 0., 0., 0., 0., 0.,
          0., 0., 0., 0., 0., 0., 0., 0., 0., 0., 0., 0., 0., 0. ]
      - [ 1.30242825e-01, 1.30242825e-01, 7.94702023e-02, 6.18101545e-02,
          7.28476793e-02, 1.25827819e-01, 3.97351012e-02, 6.18101545e-02,
          2.86975726e-02, 3.31125818e-02, 6.62251655e-03, 2.20750552e-02,
          3.31125818e-02, 1.98675506e-02, 2.64900662e-02, 2.86975726e-02,
          0., 3.97351012e-02, 1.10375276e-02, 8.83002207e-03, 0.,
          2.20750552e-03, 2.20750552e-03, 0., 6.62251655e-03, 0.,
          4.41501103e-03, 2.20750552e-03, 6.62251655e-03, 0.,
          2.20750552e-03, 2.20750552e-03, 4.41501103e-03, 0.,
          2.20750552e-03, 0., 2.20750552e-03, 2.20750552e-03, 0., 0., 0.,
          0., 0., 0., 0., 0., 0., 0., 0., 0., 0., 0., 0., 0., 0., 0., 0.,
          0., 0., 0., 0., 0., 0., 0., 0., 0., 0., 0., 0., 0., 0., 0., 0.,
          0., 0., 0., 0., 0., 0., 0., 0., 0., 0., 0., 0., 0., 0., 0., 0.,
          0., 0., 0., 0., 0., 0., 0., 0., 0., 0., 0. ]
      - [ 7.51072988e-02, 1.37339056e-01, 1.05150215e-01, 7.72532225e-02,
          1.24463521e-01, 5.36480695e-02, 4.07725312e-02, 5.36480695e-02,
          3.21888402e-02, 4.29184549e-02, 3.43347639e-02, 1.93133056e-02,
          2.78969966e-02, 1.07296137e-02, 3.21888402e-02, 2.57510729e-02,
          0., 5.57939932e-02, 1.07296137e-02, 1.28755365e-02,
          4.29184549e-03, 4.29184549e-03, 4.29184549e-03, 0.,
          2.14592274e-03, 0., 0., 0., 2.14592274e-03, 0., 0.,
          2.14592274e-03, 0., 0., 0., 2.14592274e-03, 6.43776823e-03, 0.,
          0., 0., 0., 0., 0., 0., 0., 0., 0., 0., 0., 0., 0., 0., 0., 0.,
          0., 0., 0., 0., 0., 0., 0., 0., 0., 0., 0., 0., 0., 0., 0., 0.,
          0., 0., 0., 0., 0., 0., 0., 0., 0., 0., 0., 0., 0., 0., 0., 0.,
          0., 0., 0., 0., 0., 0., 0., 0., 0., 0., 0., 0., 0., 0. ]
      - [ 1.11888111e-01, 1.36363640e-01, 8.04195777e-02, 1.08391605e-01,
          1.15384616e-01, 8.04195777e-02, 6.64335638e-02, 6.29370660e-02,
          3.49650346e-02, 2.79720277e-02, 6.99300691e-03, 2.44755242e-02,
          3.49650346e-02, 1.74825173e-02, 1.04895104e-02, 2.44755242e-02,
          0., 1.39860138e-02, 6.99300691e-03, 3.49650346e-03, 0.,
          3.49650346e-03, 3.49650346e-03, 0., 1.04895104e-02, 0.,
          3.49650346e-03, 3.49650346e-03, 0., 0., 3.49650346e-03,
          3.49650346e-03, 0., 0., 0., 0., 0., 0., 0., 0., 0., 0., 0., 0.,
          0., 0., 0., 0., 0., 0., 0., 0., 0., 0., 0., 0., 0., 0., 0., 0.,
          0., 0., 0., 0., 0., 0., 0., 0., 0., 0., 0., 0., 0., 0., 0., 0.,
          0., 0., 0., 0., 0., 0., 0., 0., 0., 0., 0., 0., 0., 0., 0., 0.,
          0., 0., 0., 0., 0., 0., 0., 0. ]
      - [ 6.89655170e-02, 1.66666672e-01, 9.19540226e-02, 8.62068981e-02,
          8.90804604e-02, 6.60919547e-02, 7.75862038e-02, 6.03448264e-02,
          3.44827585e-02, 3.44827585e-02, 1.14942528e-02, 2.01149434e-02,
          2.87356321e-02, 1.14942528e-02, 5.74712642e-03, 4.59770113e-02,
          2.87356321e-03, 2.87356321e-02, 2.58620679e-02, 2.87356321e-03,
          0., 8.62068962e-03, 2.87356321e-03, 0., 2.87356321e-03, 0., 0.,
          2.87356321e-03, 0., 0., 2.87356321e-03, 0., 5.74712642e-03, 0.,
          0., 0., 2.87356321e-03, 5.74712642e-03, 0., 5.74712642e-03, 0.,
          0., 0., 0., 0., 0., 0., 0., 0., 0., 0., 0., 0., 0., 0., 0., 0.,
          0., 0., 0., 0., 0., 0., 0., 0., 0., 0., 0., 0., 0., 0., 0., 0.,
          0., 0., 0., 0., 0., 0., 0., 0., 0., 0., 0., 0., 0., 0., 0., 0.,
          0., 0., 0., 0., 0., 0., 0., 0., 0., 0., 0. ]
      - [ 7.42857158e-02, 1.42857134e-01, 1.40952379e-01, 8.57142881e-02,
          9.71428528e-02, 7.04761893e-02, 8.76190439e-02, 4.38095219e-02,
          1.52380951e-02, 2.09523812e-02, 7.61904754e-03, 1.33333337e-02,
          3.23809534e-02, 2.28571426e-02, 9.52380896e-03, 3.04761901e-02,
          3.80952377e-03, 3.80952358e-02, 1.33333337e-02, 3.80952377e-03,
          0., 1.33333337e-02, 3.80952377e-03, 0., 1.52380951e-02, 0.,
          1.90476188e-03, 0., 0., 0., 3.80952377e-03, 0., 1.90476188e-03,
          0., 0., 0., 3.80952377e-03, 1.90476188e-03, 0., 0., 0., 0., 0.,
          0., 0., 0., 0., 0., 0., 0., 0., 0., 0., 0., 0., 0., 0., 0., 0.,
          0., 0., 0., 0., 0., 0., 0., 0., 0., 0., 0., 0., 0., 0., 0., 0.,
          0., 0., 0., 0., 0., 0., 0., 0., 0., 0., 0., 0., 0., 0., 0., 0.,
          0., 0., 0., 0., 0., 0., 0., 0., 0. ]
      - [ 5.03144637e-02, 1.74004182e-01, 1.21593289e-01, 5.03144637e-02,
          1.09014675e-01, 6.91823885e-02, 5.45073375e-02, 5.66037707e-02,
          1.67714879e-02, 5.03144637e-02, 2.30607949e-02, 1.46750519e-02,
          3.77358496e-02, 1.46750519e-02, 4.19287197e-02, 3.14465389e-02,
          0., 2.93501038e-02, 2.51572318e-02, 2.09643599e-03, 0.,
          1.25786159e-02, 6.28930796e-03, 0., 0., 0., 0., 0., 0., 0.,
          2.09643599e-03, 0., 2.09643599e-03, 0., 0., 0., 2.09643599e-03,
          0., 0., 0., 0., 0., 0., 0., 0., 0., 2.09643599e-03, 0., 0., 0.,
          0., 0., 0., 0., 0., 0., 0., 0., 0., 0., 0., 0., 0., 0., 0., 0.,
          0., 0., 0., 0., 0., 0., 0., 0., 0., 0., 0., 0., 0., 0., 0., 0.,
          0., 0., 0., 0., 0., 0., 0., 0., 0., 0., 0., 0., 0., 0., 0., 0.,
          0., 0. ]
      - [ 7.62195066e-02, 2.22560972e-01, 1.00609750e-01, 7.31707290e-02,
          9.14634094e-02, 7.31707290e-02, 3.04878037e-02, 5.48780486e-02,
          2.13414617e-02, 4.26829234e-02, 9.14634112e-03, 9.14634112e-03,
          1.21951215e-02, 2.13414617e-02, 6.09756075e-03, 3.65853645e-02,
          3.04878037e-03, 5.48780486e-02, 2.74390243e-02, 0.,
          3.04878037e-03, 9.14634112e-03, 6.09756075e-03, 0.,
          3.04878037e-03, 0., 0., 0., 0., 0., 6.09756075e-03, 0.,
          6.09756075e-03, 0., 0., 0., 0., 0., 0., 0., 0., 0., 0., 0., 0.,
          0., 0., 0., 0., 0., 0., 0., 0., 0., 0., 0., 0., 0., 0., 0., 0.,
          0., 0., 0., 0., 0., 0., 0., 0., 0., 0., 0., 0., 0., 0., 0., 0.,
          0., 0., 0., 0., 0., 0., 0., 0., 0., 0., 0., 0., 0., 0., 0., 0.,
          0., 0., 0., 0., 0., 0., 0. ]
      - [ 1.03585660e-01, 6.97211176e-02, 1.21513948e-01, 7.76892453e-02,
          7.76892453e-02, 7.76892453e-02, 7.37051815e-02, 4.58167344e-02,
          2.58964151e-02, 3.58565748e-02, 2.39043832e-02, 3.18725109e-02,
          3.38645428e-02, 2.39043832e-02, 2.78884470e-02, 2.98804790e-02,
          5.97609580e-03, 5.37848622e-02, 1.39442235e-02, 7.96812773e-03,
          0., 1.59362555e-02, 1.99203193e-03, 0., 5.97609580e-03, 0., 0.,
          0., 3.98406386e-03, 0., 3.98406386e-03, 0., 0., 0., 0., 0.,
          1.99203193e-03, 3.98406386e-03, 0., 0., 0., 0., 0., 0., 0., 0.,
          0., 0., 0., 0., 0., 0., 0., 0., 0., 0., 0., 0., 0., 0., 0., 0.,
          0., 0., 0., 0., 0., 0., 0., 0., 0., 0., 0., 0., 0., 0., 0., 0.,
          0., 0., 0., 0., 0., 0., 0., 0., 0., 0., 0., 0., 0., 0., 0., 0.,
          0., 0., 0., 0., 0., 0. ]
      - [ 5.58510609e-02, 1.63563818e-01, 9.84042510e-02, 1.02393612e-01,
          8.64361674e-02, 8.64361674e-02, 5.05319126e-02, 3.72340418e-02,
          2.26063821e-02, 2.65957434e-02, 2.26063821e-02, 3.85638289e-02,
          4.12234031e-02, 1.06382975e-02, 1.19680846e-02, 3.72340418e-02,
          1.32978719e-03, 6.51595742e-02, 5.31914877e-03, 0.,
          2.65957438e-03, 1.19680846e-02, 0., 0., 1.32978719e-03,
          2.65957438e-03, 3.98936169e-03, 0., 2.65957438e-03,
          1.32978719e-03, 0., 1.32978719e-03, 0., 0., 0., 1.32978719e-03,
          2.65957438e-03, 2.65957438e-03, 0., 1.32978719e-03, 0., 0., 0.,
          0., 0., 0., 0., 0., 0., 0., 0., 0., 0., 0., 0., 0., 0., 0., 0.,
          0., 0., 0., 0., 0., 0., 0., 0., 0., 0., 0., 0., 0., 0., 0., 0.,
          0., 0., 0., 0., 0., 0., 0., 0., 0., 0., 0., 0., 0., 0., 0., 0.,
          0., 0., 0., 0., 0., 0., 0., 0., 0. ]
      - [ 7.56972134e-02, 1.41434267e-01, 1.07569724e-01, 4.78087664e-02,
          9.16334689e-02, 6.97211176e-02, 9.16334689e-02, 5.37848622e-02,
          3.78486067e-02, 4.58167344e-02, 7.96812773e-03, 1.19521916e-02,
          1.59362555e-02, 1.39442235e-02, 3.18725109e-02, 2.78884470e-02,
          1.99203193e-03, 5.57768941e-02, 1.39442235e-02, 0., 0.,
          5.97609580e-03, 3.98406386e-03, 0., 5.97609580e-03,
          1.99203193e-03, 0., 3.98406386e-03, 3.98406386e-03, 0.,
          3.98406386e-03, 3.98406386e-03, 1.99203193e-03, 0., 0.,
          1.99203193e-03, 0., 5.97609580e-03, 1.99203193e-03, 0., 0.,
          1.99203193e-03, 1.99203193e-03, 0., 0., 0., 3.98406386e-03,
          1.99203193e-03, 0., 0., 0., 0., 0., 0., 0., 0., 0., 0., 0., 0.,
          0., 0., 0., 0., 0., 0., 0., 0., 0., 0., 0., 0., 0., 0., 0., 0.,
          0., 0., 0., 0., 0., 0., 0., 0., 0., 0., 0., 0., 0., 0., 0., 0.,
          0., 0., 0., 0., 0., 0., 0., 0. ]
      - [ 8.42572078e-02, 1.01995565e-01, 1.41906872e-01, 5.54323718e-02,
          8.86917934e-02, 9.53436792e-02, 6.43015504e-02, 4.87804860e-02,
          2.88248342e-02, 3.99113074e-02, 1.10864742e-02, 2.88248342e-02,
          3.32594216e-02, 1.77383590e-02, 2.88248342e-02, 2.66075395e-02,
          2.21729488e-03, 5.32150790e-02, 8.86917952e-03, 1.10864742e-02,
          0., 6.65188488e-03, 8.86917952e-03, 0., 2.21729488e-03, 0., 0.,
          0., 4.43458976e-03, 0., 2.21729488e-03, 0., 0., 0., 0.,
          4.43458976e-03, 0., 0., 0., 0., 0., 0., 0., 0., 0., 0., 0., 0.,
          0., 0., 0., 0., 0., 0., 0., 0., 0., 0., 0., 0., 0., 0., 0., 0.,
          0., 0., 0., 0., 0., 0., 0., 0., 0., 0., 0., 0., 0., 0., 0., 0.,
          0., 0., 0., 0., 0., 0., 0., 0., 0., 0., 0., 0., 0., 0., 0., 0.,
          0., 0., 0., 0. ]
      - [ 7.16723502e-02, 1.05802044e-01, 1.26279861e-01, 8.53242278e-02,
          1.22866891e-01, 5.46075068e-02, 5.80204763e-02, 8.19112584e-02,
          2.04778146e-02, 4.09556292e-02, 1.36518767e-02, 1.70648452e-02,
          4.09556292e-02, 1.02389073e-02, 6.82593836e-03, 3.41296904e-02,
          0., 5.80204763e-02, 1.70648452e-02, 3.41296918e-03, 0.,
          6.82593836e-03, 0., 0., 3.41296918e-03, 0., 0., 0.,
          3.41296918e-03, 0., 0., 6.82593836e-03, 0., 0., 0., 0.,
          1.02389073e-02, 0., 0., 0., 0., 0., 0., 0., 0., 0., 0., 0., 0.,
          0., 0., 0., 0., 0., 0., 0., 0., 0., 0., 0., 0., 0., 0., 0., 0.,
          0., 0., 0., 0., 0., 0., 0., 0., 0., 0., 0., 0., 0., 0., 0., 0.,
          0., 0., 0., 0., 0., 0., 0., 0., 0., 0., 0., 0., 0., 0., 0., 0.,
          0., 0., 0. ]
      - [ 8.28402340e-02, 1.15384616e-01, 1.27218932e-01, 5.02958596e-02,
          1.03550300e-01, 6.80473372e-02, 7.10059181e-02, 4.14201170e-02,
          4.14201170e-02, 3.84615399e-02, 1.47928996e-02, 1.47928996e-02,
          2.66272202e-02, 2.66272202e-02, 2.66272202e-02, 2.95857992e-02,
          0., 3.84615399e-02, 2.66272202e-02, 8.87573976e-03,
          2.95857992e-03, 2.07100585e-02, 0., 2.95857992e-03,
          5.91715984e-03, 0., 0., 2.95857992e-03, 0., 0., 0., 0., 0., 0.,
          0., 0., 5.91715984e-03, 2.95857992e-03, 0., 0., 0.,
          2.95857992e-03, 0., 0., 0., 0., 0., 0., 0., 0., 0., 0., 0., 0.,
          0., 0., 0., 0., 0., 0., 0., 0., 0., 0., 0., 0., 0., 0., 0., 0.,
          0., 0., 0., 0., 0., 0., 0., 0., 0., 0., 0., 0., 0., 0., 0., 0.,
          0., 0., 0., 0., 0., 0., 0., 0., 0., 0., 0., 0., 0., 0. ]
      - [ 1.04046248e-01, 1.40655115e-01, 1.04046248e-01, 7.70712942e-02,
          1.02119461e-01, 6.74373806e-02, 6.74373806e-02, 5.97302504e-02,
          3.66088636e-02, 4.23892103e-02, 1.73410401e-02, 2.89017353e-02,
          2.50481702e-02, 1.34874759e-02, 1.54142585e-02, 3.46820801e-02,
          1.92678231e-03, 3.08285169e-02, 9.63391177e-03, 0., 0.,
          9.63391177e-03, 1.92678231e-03, 0., 1.92678231e-03, 0.,
          3.85356462e-03, 0., 0., 0., 0., 0., 3.85356462e-03, 0., 0., 0.,
          0., 0., 0., 0., 0., 0., 0., 0., 0., 0., 0., 0., 0., 0., 0., 0.,
          0., 0., 0., 0., 0., 0., 0., 0., 0., 0., 0., 0., 0., 0., 0., 0.,
          0., 0., 0., 0., 0., 0., 0., 0., 0., 0., 0., 0., 0., 0., 0., 0.,
          0., 0., 0., 0., 0., 0., 0., 0., 0., 0., 0., 0., 0., 0., 0., 0. ]
      - [ 6.40668496e-02, 1.78272977e-01, 1.19777158e-01, 8.07799399e-02,
          1.14206128e-01, 6.68523684e-02, 8.63509700e-02, 5.57103045e-02,
          2.78551523e-02, 2.22841222e-02, 8.35654605e-03, 1.11420611e-02,
          3.89972143e-02, 2.78551527e-03, 5.57103055e-03, 2.78551523e-02,
          5.57103055e-03, 1.94986071e-02, 1.39275761e-02, 2.78551527e-03,
          0., 1.39275761e-02, 8.35654605e-03, 0., 8.35654605e-03, 0., 0.,
          0., 2.78551527e-03, 0., 0., 2.78551527e-03, 0., 0., 0.,
          2.78551527e-03, 2.78551527e-03, 0., 2.78551527e-03, 0., 0., 0.,
          2.78551527e-03, 0., 0., 0., 0., 0., 0., 0., 0., 0., 0., 0., 0.,
          0., 0., 0., 0., 0., 0., 0., 0., 0., 0., 0., 0., 0., 0., 0., 0.,
          0., 0., 0., 0., 0., 0., 0., 0., 0., 0., 0., 0., 0., 0., 0., 0.,
          0., 0., 0., 0., 0., 0., 0., 0., 0., 0., 0., 0., 0. ]
   decision_functions:
      -
         sv_count: 30
         rho: -1.4454299211502075e-01
         alpha: [ 1., 1., 1., 1., 1., 1., 1., 1., 1., 1., 1., 1., 1., 1.,
             1., -1., -1., -1., -1., -1., -1., -1., -1., -1., -1., -1.,
             -1., -1., -1., -1. ]
         index: [ 0, 1, 2, 3, 4, 5, 6, 7, 8, 9, 10, 11, 12, 13, 14, 15,
             16, 17, 18, 19, 20, 21, 22, 23, 24, 25, 26, 27, 28, 29 ]
