%YAML:1.0
---
opencv_ml_knn:
   format: 3
   is_classifier: 1
   default_k: 10
   samples: !!opencv-matrix
      rows: 75
      cols: 100
      dt: f
      data: [ 9.52380970e-02, 5.95238106e-03, 3.51190478e-01, 0.,
          3.57142873e-02, 5.35714291e-02, 4.16666679e-02, 1.01190478e-01,
          4.16666679e-02, 5.95238106e-03, 1.78571437e-02, 5.35714291e-02,
          4.16666679e-02, 1.19047621e-02, 5.95238106e-03, 2.38095243e-02,
          0., 1.19047621e-02, 5.95238106e-03, 1.19047621e-02,
          1.78571437e-02, 1.19047621e-02, 1.78571437e-02, 0.,
          5.95238106e-03, 0., 0., 0., 0., 5.95238106e-03, 1.78571437e-02,
          0., 0., 5.95238106e-03, 0., 0., 0., 0., 0., 0., 0., 0., 0., 0.,
          0., 0., 0., 0., 0., 0., 0., 0., 0., 0., 0., 0., 0., 0., 0., 0.,
          0., 0., 0., 0., 0., 0., 0., 0., 0., 0., 0., 0., 0., 0., 0., 0.,
          0., 0., 0., 0., 0., 0., 0., 0., 0., 0., 0., 0., 0., 0., 0., 0.,
          0., 0., 0., 0., 0., 0., 0., 0., 7.57575780e-02, 9.46969688e-02,
          1.36363640e-01, 7.95454532e-02, 1.36363640e-01, 1.51515156e-02,
          3.40909101e-02, 9.09090936e-02, 1.89393945e-02, 1.89393945e-02,
          2.27272734e-02, 1.89393945e-02, 1.89393945e-02, 1.51515156e-02,
          5.68181835e-02, 3.78787890e-03, 1.51515156e-02, 0.,
          2.65151523e-02, 3.03030312e-02, 3.78787890e-02, 0.,
          3.78787890e-03, 7.57575780e-03, 1.13636367e-02, 0., 0.,
          7.57575780e-03, 0., 7.57575780e-03, 1.13636367e-02, 0., 0., 0.,
          0., 0., 0., 0., 0., 0., 0., 3.78787890e-03, 0., 0., 0., 0., 0.,
          0., 0., 0., 0., 0., 0., 0., 0., 0., 0., 0., 0., 0., 0., 0., 0.,
          0., 0., 0., 0., 0., 0., 0., 0., 0., 0., 0., 0., 0., 0., 0., 0.,
          0., 0., 0., 0., 0., 0., 0., 0., 0., 0., 0., 0., 0., 0., 0., 0.,
          0., 0., 0., 0., 0., 1.84049085e-02, 7.36196339e-02,
          2.51533747e-01, 0., 8.58895704e-02, 4.90797535e-02,
          7.36196339e-02, 4.90797535e-02, 6.74846619e-02, 2.45398767e-02,
          3.06748450e-02, 6.13496918e-03, 2.45398767e-02, 0.,
          2.45398767e-02, 3.06748450e-02, 0., 1.84049085e-02,
          6.13496900e-02, 6.74846619e-02, 1.22699384e-02, 0.,
          6.13496918e-03, 0., 0., 0., 0., 6.13496918e-03, 0.,
          1.22699384e-02, 6.13496918e-03, 0., 0., 0., 0., 0., 0., 0., 0.,
          0., 0., 0., 0., 0., 0., 0., 0., 0., 0., 0., 0., 0., 0., 0., 0.,
          0., 0., 0., 0., 0., 0., 0., 0., 0., 0., 0., 0., 0., 0., 0., 0.,
          0., 0., 0., 0., 0., 0., 0., 0., 0., 0., 0., 0., 0., 0., 0., 0.,
          0., 0., 0., 0., 0., 0., 0., 0., 0., 0., 0., 0., 0.,
          2.46835455e-01, 7.59493709e-02, 1.01265825e-01, 3.79746854e-02,
          3.79746854e-02, 3.16455700e-02, 3.79746854e-02, 4.43037972e-02,
          5.69620281e-02, 2.53164563e-02, 2.53164563e-02, 2.53164563e-02,
          6.32911408e-03, 1.89873427e-02, 6.32911408e-03, 6.32911408e-03,
          6.32911408e-03, 1.26582282e-02, 1.26582282e-02, 3.79746854e-02,
          5.06329127e-02, 1.89873427e-02, 1.26582282e-02, 6.32911408e-03,
          1.26582282e-02, 0., 0., 6.32911408e-03, 6.32911408e-03,
          1.26582282e-02, 6.32911408e-03, 0., 6.32911408e-03,
          6.32911408e-03, 0., 0., 0., 0., 0., 0., 0., 0., 0., 0., 0., 0.,
          0., 0., 0., 0., 0., 0., 0., 0., 0., 0., 0., 0., 0., 0., 0., 0.,
          0., 0., 0., 0., 0., 0., 0., 0., 0., 0., 0., 0., 0., 0., 0., 0.,
          0., 0., 0., 0., 0., 0., 0., 0., 0., 0., 0., 0., 0., 0., 0., 0.,
          0., 0., 0., 0., 0., 0., 7.75862038e-02, 6.46551698e-02,
          8.62068981e-02, 3.01724132e-02, 1.42241374e-01, 3.44827585e-02,
          3.44827585e-02, 6.89655170e-02, 7.75862038e-02, 1.72413792e-02,
          2.58620679e-02, 3.87931019e-02, 1.72413792e-02, 1.29310340e-02,
          4.74137925e-02, 8.62068962e-03, 1.72413792e-02, 2.58620679e-02,
          1.72413792e-02, 5.17241359e-02, 3.01724132e-02, 1.29310340e-02,
          4.31034481e-03, 0., 4.31034481e-03, 0., 0., 1.29310340e-02,
          8.62068962e-03, 0., 1.72413792e-02, 4.31034481e-03,
          4.31034481e-03, 4.31034481e-03, 0., 0., 0., 0., 0., 0., 0., 0.,
          0., 0., 0., 0., 0., 0., 0., 0., 0., 0., 0., 0., 0., 0., 0., 0.,
          0., 0., 0., 0., 0., 0., 0., 0., 0., 0., 0., 0., 0., 0., 0., 0.,
          0., 0., 0., 0., 0., 0., 0., 0., 0., 0., 0., 0., 0., 0., 0., 0.,
          0., 0., 0., 0., 0., 0., 0., 0., 0., 0., 8.96057338e-02,
          5.73476702e-02, 1.29032254e-01, 1.07526882e-02, 9.31899622e-02,
          5.37634417e-02, 4.30107526e-02, 5.01792133e-02, 4.30107526e-02,
          1.43369175e-02, 2.15053763e-02, 5.37634417e-02, 3.58422920e-02,
          7.16845877e-03, 1.43369175e-02, 3.58422939e-03, 7.16845877e-03,
          3.58422939e-03, 3.94265242e-02, 7.88530484e-02, 7.52688199e-02,
          1.43369175e-02, 0., 3.58422939e-03, 7.16845877e-03, 0., 0.,
          1.43369175e-02, 0., 1.07526882e-02, 1.43369175e-02,
          3.58422939e-03, 3.58422939e-03, 3.58422939e-03, 0., 0., 0., 0.,
          0., 0., 0., 0., 0., 0., 0., 0., 0., 0., 0., 0., 0., 0., 0., 0.,
          0., 0., 0., 0., 0., 0., 0., 0., 0., 0., 0., 0., 0., 0., 0., 0.,
          0., 0., 0., 0., 0., 0., 0., 0., 0., 0., 0., 0., 0., 0., 0., 0.,
          0., 0., 0., 0., 0., 0., 0., 0., 0., 0., 0., 0., 0., 0.,
          2.16730043e-01, 6.84410632e-02, 1.44486696e-01, 2.66159698e-02,
          3.04182507e-02, 3.04182507e-02, 3.04182507e-02, 1.21673003e-01,
          2.66159698e-02, 1.14068445e-02, 3.80228125e-02, 3.80228125e-02,
          1.52091254e-02, 1.14068445e-02, 7.60456268e-03, 3.42205316e-02,
          7.60456268e-03, 1.90114062e-02, 7.60456268e-03, 5.32319397e-02,
          2.28136890e-02, 1.14068445e-02, 0., 7.60456268e-03, 0., 0., 0.,
          0., 3.80228134e-03, 3.80228134e-03, 7.60456268e-03, 0., 0., 0.,
          3.80228134e-03, 0., 0., 0., 0., 0., 0., 0., 0., 0., 0., 0., 0.,
          0., 0., 0., 0., 0., 0., 0., 0., 0., 0., 0., 0., 0., 0., 0., 0.,
          0., 0., 0., 0., 0., 0., 0., 0., 0., 0., 0., 0., 0., 0., 0., 0.,
          0., 0., 0., 0., 0., 0., 0., 0., 0., 0., 0., 0., 0., 0., 0., 0.,
          0., 0., 0., 0., 0., 1.24293789e-01, 8.47457647e-02,
          9.32203382e-02, 3.67231630e-02, 8.47457647e-02, 4.23728824e-02,
          4.23728824e-02, 1.32768363e-01, 3.95480245e-02, 1.69491526e-02,
          3.67231630e-02, 3.10734473e-02, 1.12994350e-02, 2.25988701e-02,
          1.41242938e-02, 8.47457629e-03, 8.47457629e-03, 8.47457629e-03,
          1.69491526e-02, 5.36723174e-02, 3.95480245e-02, 1.12994350e-02,
          2.82485876e-03, 0., 0., 0., 2.82485876e-03, 1.69491526e-02, 0.,
          2.82485876e-03, 2.82485876e-03, 2.82485876e-03, 2.82485876e-03,
          5.64971752e-03, 0., 0., 0., 0., 0., 0., 0., 0., 0., 0., 0., 0.,
          0., 0., 0., 0., 0., 0., 0., 0., 0., 0., 0., 0., 0., 0., 0., 0.,
          0., 0., 0., 0., 0., 0., 0., 0., 0., 0., 0., 0., 0., 0., 0., 0.,
          0., 0., 0., 0., 0., 0., 0., 0., 0., 0., 0., 0., 0., 0., 0., 0.,
          0., 0., 0., 0., 0., 0., 1.52777776e-01, 8.79629627e-02,
          1.62037045e-01, 7.87037015e-02, 6.48148134e-02, 4.62962985e-02,
          6.48148134e-02, 1.01851851e-01, 3.24074067e-02, 2.31481493e-02,
          1.85185187e-02, 2.77777780e-02, 0., 1.38888890e-02,
          4.62962966e-03, 9.25925933e-03, 0., 4.62962966e-03,
          1.38888890e-02, 2.77777780e-02, 3.24074067e-02, 9.25925933e-03,
          0., 4.62962966e-03, 4.62962966e-03, 0., 0., 0., 4.62962966e-03,
          0., 4.62962966e-03, 0., 0., 0., 0., 0., 0., 0., 0., 0., 0., 0.,
          0., 0., 0., 0., 0., 0., 0., 0., 0., 4.62962966e-03, 0., 0., 0.,
          0., 0., 0., 0., 0., 0., 0., 0., 0., 0., 0., 0., 0., 0., 0., 0.,
          0., 0., 0., 0., 0., 0., 0., 0., 0., 0., 0., 0., 0., 0., 0., 0.,
          0., 0., 0., 0., 0., 0., 0., 0., 0., 0., 0., 0., 0.,
          1.26984134e-01, 1.42857149e-01, 1.26984134e-01, 4.76190522e-02,
          6.34920672e-02, 1.58730168e-02, 4.76190522e-02, 6.34920672e-02,
          7.93650821e-02, 0., 1.58730168e-02, 1.58730168e-02,
          7.93650821e-02, 0., 0., 1.58730168e-02, 0., 0., 0.,
          6.34920672e-02, 3.17460336e-02, 1.58730168e-02, 1.58730168e-02,
          1.58730168e-02, 0., 0., 0., 0., 0., 0., 1.58730168e-02, 0., 0.,
          0., 0., 0., 0., 0., 0., 0., 0., 0., 0., 0., 0., 0., 0., 0., 0.,
          0., 0., 0., 0., 0., 0., 0., 0., 0., 0., 0., 0., 0., 0., 0., 0.,
          0., 0., 0., 0., 0., 0., 0., 0., 0., 0., 0., 0., 0., 0., 0., 0.,
          0., 0., 0., 0., 0., 0., 0., 0., 0., 0., 0., 0., 0., 0., 0., 0.,
          0., 0., 0., 1.37096763e-01, 6.45161271e-02, 2.98387080e-01,
          8.06451589e-03, 4.03225794e-02, 8.06451589e-03, 0.,
          1.29032254e-01, 2.41935477e-02, 1.61290318e-02, 6.45161271e-02,
          5.64516112e-02, 2.41935477e-02, 1.61290318e-02, 0.,
          8.06451589e-03, 0., 8.06451589e-03, 8.06451589e-03,
          8.06451589e-03, 2.41935477e-02, 2.41935477e-02, 0.,
          8.06451589e-03, 0., 0., 0., 0., 1.61290318e-02, 0., 0., 0., 0.,
          0., 8.06451589e-03, 0., 0., 0., 0., 0., 0., 0., 0., 0., 0., 0.,
          0., 0., 0., 0., 0., 0., 0., 0., 0., 0., 0., 0., 0., 0., 0., 0.,
          0., 0., 0., 0., 0., 0., 0., 0., 0., 0., 0., 0., 0., 0., 0., 0.,
          0., 0., 0., 0., 0., 0., 0., 0., 0., 0., 0., 0., 0., 0., 0., 0.,
          0., 0., 0., 0., 0., 0., 9.43396166e-02, 5.03144637e-02,
          1.57232702e-01, 5.03144637e-02, 6.91823885e-02, 5.66037707e-02,
          5.66037707e-02, 1.13207541e-01, 7.54716992e-02, 6.28930796e-03,
          6.28930796e-03, 1.88679248e-02, 2.51572318e-02, 6.28930796e-03,
          1.25786159e-02, 0., 0., 6.28930796e-03, 1.88679248e-02,
          8.80503133e-02, 3.14465389e-02, 6.28930796e-03, 6.28930796e-03,
          0., 0., 6.28930796e-03, 0., 6.28930796e-03, 0., 6.28930796e-03,
          1.25786159e-02, 0., 6.28930796e-03, 6.28930796e-03, 0., 0., 0.,
          0., 0., 0., 0., 0., 0., 0., 0., 0., 0., 0., 0., 0., 0., 0., 0.,
          0., 0., 0., 0., 0., 0., 0., 0., 0., 0., 0., 0., 0., 0., 0., 0.,
          0., 0., 0., 0., 0., 0., 0., 0., 0., 0., 0., 0., 0., 0., 0., 0.,
          0., 0., 0., 0., 0., 0., 0., 0., 0., 0., 0., 0., 0., 0., 0.,
          2.81690136e-02, 5.63380271e-02, 2.39436612e-01, 0.,
          5.63380271e-02, 2.81690136e-02, 8.45070407e-02, 9.85915512e-02,
          4.22535203e-02, 5.63380271e-02, 0., 5.63380271e-02,
          1.40845068e-02, 2.81690136e-02, 2.81690136e-02, 0., 0.,
          2.81690136e-02, 2.81690136e-02, 5.63380271e-02, 1.40845068e-02,
          0., 0., 0., 0., 0., 0., 1.40845068e-02, 4.22535203e-02, 0., 0.,
          0., 0., 0., 0., 0., 0., 0., 0., 0., 0., 0., 0., 0., 0., 0., 0.,
          0., 0., 0., 0., 0., 0., 0., 0., 0., 0., 0., 0., 0., 0., 0., 0.,
          0., 0., 0., 0., 0., 0., 0., 0., 0., 0., 0., 0., 0., 0., 0., 0.,
          0., 0., 0., 0., 0., 0., 0., 0., 0., 0., 0., 0., 0., 0., 0., 0.,
          0., 0., 0., 0., 0., 1.38297871e-01, 6.02836870e-02,
          1.91489354e-01, 7.09219836e-03, 7.09219873e-02, 1.77304968e-02,
          3.19148935e-02, 7.80141801e-02, 5.67375869e-02, 3.90070900e-02,
          1.41843967e-02, 5.67375869e-02, 3.19148935e-02, 2.12765951e-02,
          1.06382975e-02, 0., 7.09219836e-03, 3.19148935e-02,
          2.83687934e-02, 3.54609936e-02, 1.06382975e-02, 0., 0.,
          7.09219836e-03, 7.09219836e-03, 0., 0., 7.09219836e-03,
          1.77304968e-02, 0., 1.77304968e-02, 0., 3.54609918e-03, 0., 0.,
          0., 0., 0., 0., 0., 0., 0., 0., 0., 0., 0., 0., 0., 0., 0., 0.,
          0., 0., 0., 0., 0., 0., 0., 0., 0., 0., 0., 0., 0., 0., 0., 0.,
          0., 0., 0., 0., 0., 0., 0., 0., 0., 0., 0., 0., 0., 0., 0., 0.,
          0., 0., 0., 0., 0., 0., 0., 0., 0., 0., 0., 0., 0., 0., 0., 0.,
          0., 7.14285746e-02, 2.59740259e-02, 1.55844152e-01,
          6.49350649e-03, 1.42857149e-01, 2.59740259e-02, 5.84415570e-02,
          5.84415570e-02, 4.54545468e-02, 1.94805190e-02, 1.94805190e-02,
          7.14285746e-02, 6.49350649e-03, 1.29870130e-02, 2.59740259e-02,
          2.59740259e-02, 0., 1.94805190e-02, 5.84415570e-02,
          7.14285746e-02, 3.89610380e-02, 6.49350649e-03, 6.49350649e-03,
          1.29870130e-02, 0., 0., 0., 0., 0., 0., 1.29870130e-02, 0., 0.,
          0., 0., 0., 0., 0., 0., 0., 0., 0., 0., 0., 0., 0., 0., 0., 0.,
          0., 0., 0., 0., 0., 0., 0., 0., 0., 0., 0., 0., 0., 0., 0., 0.,
          0., 0., 0., 0., 0., 0., 0., 0., 0., 0., 0., 0., 0., 0., 0., 0.,
          0., 0., 0., 0., 0., 0., 0., 0., 0., 0., 0., 0., 0., 0., 0., 0.,
          0., 0., 0., 6.39763772e-02, 1.29921257e-01, 3.93700786e-02,
          1.18110240e-01, 1.33858263e-01, 9.64566916e-02, 2.36220472e-02,
          8.95669311e-02, 5.21653555e-02, 1.67322829e-02, 2.46062987e-02,
          4.33070883e-02, 1.08267721e-02, 1.57480314e-02, 2.16535442e-02,
          1.96850393e-03, 2.06692908e-02, 1.27952751e-02, 5.90551179e-03,
          7.87401572e-03, 9.84251965e-03, 1.77165344e-02, 1.96850393e-03,
          1.18110236e-02, 1.18110236e-02, 0., 2.95275589e-03,
          2.95275589e-03, 9.84251965e-04, 5.90551179e-03, 9.84251965e-04,
          1.96850393e-03, 9.84251965e-04, 9.84251965e-04, 0., 0., 0., 0.,
          0., 0., 0., 0., 0., 0., 0., 0., 0., 0., 0., 0., 0., 0., 0., 0.,
          0., 0., 0., 0., 0., 0., 0., 0., 0., 0., 0., 0., 0., 0., 0., 0.,
          0., 0., 0., 0., 0., 0., 0., 0., 0., 0., 0., 0., 0., 0., 0., 0.,
          0., 0., 0., 0., 0., 0., 0., 0., 0., 0., 0., 0., 0., 0.,
          2.24632062e-02, 1.07668474e-01, 8.75290483e-02, 5.88690937e-02,
          1.34779245e-01, 6.27420619e-02, 3.56312916e-02, 5.65453134e-02,
          8.67544562e-02, 2.32378002e-02, 1.70410536e-02, 7.12625831e-02,
          2.94345468e-02, 1.93648338e-02, 3.40821072e-02, 5.42215351e-03,
          6.19674660e-03, 1.78156458e-02, 2.40123924e-02, 5.42215351e-03,
          1.62664596e-02, 2.16886140e-02, 7.74593325e-03, 3.09837330e-03,
          1.00697130e-02, 0., 7.74593325e-04, 9.29511990e-03,
          5.42215351e-03, 3.87296663e-03, 8.52052681e-03, 1.54918665e-03,
          1.54918665e-03, 0., 7.74593325e-04, 0., 0., 0., 0.,
          7.74593325e-04, 0., 1.54918665e-03, 0., 0., 7.74593325e-04, 0.,
          0., 0., 0., 0., 0., 0., 0., 0., 0., 0., 0., 0., 0., 0., 0., 0.,
          0., 0., 0., 0., 0., 0., 0., 0., 0., 0., 0., 0., 0., 0., 0., 0.,
          0., 0., 0., 0., 0., 0., 0., 0., 0., 0., 0., 0., 0., 0., 0., 0.,
          0., 0., 0., 0., 0., 0., 1.14260405e-01, 1.09831706e-01,
          5.84588125e-02, 6.02302924e-02, 1.32860929e-01, 6.99734241e-02,
          3.27723660e-02, 9.65456143e-02, 3.80868018e-02, 1.68290511e-02,
          1.15146143e-02, 3.18866260e-02, 1.77147910e-02, 2.39149686e-02,
          3.01151462e-02, 3.54295829e-03, 1.06288753e-02, 1.24003543e-02,
          1.77147910e-02, 2.12577507e-02, 2.39149686e-02, 1.41718332e-02,
          5.31443767e-03, 4.42869775e-03, 7.08591659e-03, 0.,
          8.85739573e-04, 6.20017713e-03, 4.42869775e-03, 6.20017713e-03,
          7.97165651e-03, 1.77147915e-03, 8.85739573e-04, 1.77147915e-03,
          3.54295829e-03, 0., 0., 0., 0., 0., 8.85739573e-04, 0., 0., 0.,
          0., 0., 0., 0., 0., 0., 0., 0., 0., 0., 0., 0., 0., 0., 0., 0.,
          0., 0., 0., 0., 0., 0., 0., 0., 0., 0., 0., 0., 0., 0., 0., 0.,
          0., 0., 0., 0., 0., 0., 0., 0., 0., 0., 0., 0., 0., 0., 0., 0.,
          0., 0., 0., 0., 0., 0., 0., 0., 4.70127314e-02, 1.45935357e-01,
          8.57002884e-02, 8.76591578e-02, 8.76591578e-02, 6.90499470e-02,
          2.49755140e-02, 7.00293779e-02, 7.93339834e-02, 2.54652295e-02,
          3.67286950e-02, 3.67286950e-02, 2.15475019e-02, 1.51811950e-02,
          2.05680691e-02, 3.91772762e-03, 1.12634674e-02, 1.71400588e-02,
          1.37120467e-02, 4.89715952e-03, 6.36630738e-03, 2.59549450e-02,
          5.38687548e-03, 1.51811950e-02, 1.42017622e-02, 0.,
          3.42801167e-03, 4.40744357e-03, 4.89715952e-03, 3.42801167e-03,
          3.42801167e-03, 1.46914786e-03, 2.44857976e-03, 4.89715952e-04,
          9.79431905e-04, 0., 0., 0., 0., 0., 0., 1.46914786e-03, 0., 0.,
          4.89715952e-04, 0., 4.89715952e-04, 4.89715952e-04, 0., 0., 0.,
          4.89715952e-04, 0., 0., 0., 0., 0., 0., 0., 0., 0., 0., 0., 0.,
          0., 0., 0., 0., 0., 0., 0., 0., 0., 0., 0., 0., 0., 0., 0., 0.,
          0., 0., 0., 0., 0., 0., 0., 0., 0., 0., 0., 0., 0., 0., 0., 0.,
          0., 0., 0., 0., 2.36220472e-02, 1.43307090e-01, 5.27559072e-02,
          7.63779506e-02, 1.60629928e-01, 5.03937006e-02, 3.07086613e-02,
          5.51181100e-02, 5.59055135e-02, 2.36220472e-02, 1.73228346e-02,
          5.27559072e-02, 1.65354330e-02, 2.12598424e-02, 3.46456692e-02,
          6.29921257e-03, 1.49606299e-02, 2.20472440e-02, 2.20472440e-02,
          2.75590550e-02, 2.12598424e-02, 1.65354330e-02, 3.14960629e-03,
          1.02362204e-02, 1.02362204e-02, 7.87401572e-04, 2.36220472e-03,
          4.72440943e-03, 2.36220472e-03, 6.29921257e-03, 1.10236220e-02,
          7.87401572e-04, 0., 0., 7.87401572e-04, 0., 0., 0.,
          7.87401572e-04, 0., 0., 0., 7.87401572e-04, 0., 0., 0., 0., 0.,
          0., 0., 0., 0., 0., 0., 0., 0., 0., 0., 0., 0., 0., 0., 0., 0.,
          0., 0., 0., 0., 0., 0., 0., 0., 0., 0., 0., 0., 0., 0., 0., 0.,
          0., 0., 0., 0., 0., 0., 0., 0., 0., 0., 0., 0., 0., 0., 0., 0.,
          0., 0., 0., 0., 1.37096778e-01, 9.13978517e-02, 8.87096748e-02,
          2.41935477e-02, 6.72043040e-02, 9.67741907e-02, 4.30107526e-02,
          1.37096778e-01, 5.37634417e-02, 4.30107526e-02, 2.41935477e-02,
          2.68817209e-02, 3.49462368e-02, 1.34408604e-02, 8.06451589e-03,
          2.68817204e-03, 8.06451589e-03, 1.34408604e-02, 5.37634408e-03,
          1.61290318e-02, 8.06451589e-03, 2.15053763e-02, 2.68817204e-03,
          0., 5.37634408e-03, 5.37634408e-03, 0., 0., 8.06451589e-03, 0.,
          5.37634408e-03, 5.37634408e-03, 0., 0., 0., 0., 0., 0., 0., 0.,
          0., 2.68817204e-03, 0., 0., 0., 0., 0., 0., 0., 0., 0., 0., 0.,
          0., 0., 0., 0., 0., 0., 0., 0., 0., 0., 0., 0., 0., 0., 0., 0.,
          0., 0., 0., 0., 0., 0., 0., 0., 0., 0., 0., 0., 0., 0., 0., 0.,
          0., 0., 0., 0., 0., 0., 0., 0., 0., 0., 0., 0., 0., 0., 0.,
          4.73525636e-02, 9.90099013e-02, 3.74515727e-02, 1.06758505e-01,
          1.14937581e-01, 8.78174827e-02, 2.10934151e-02, 1.13215670e-01,
          8.17907900e-02, 4.52001728e-02, 3.31467949e-02, 4.60611284e-02,
          1.63581576e-02, 1.59276798e-02, 2.06629373e-02, 4.73525608e-03,
          9.04003438e-03, 1.89410243e-02, 1.03314687e-02, 4.73525608e-03,
          6.88764546e-03, 2.58286707e-02, 5.16573433e-03, 1.72191137e-03,
          1.29143354e-02, 4.30477841e-04, 0., 2.15238915e-03,
          3.44382273e-03, 8.60955683e-04, 4.30477830e-03, 4.30477841e-04,
          0., 4.30477841e-04, 4.30477841e-04, 4.30477841e-04, 0., 0., 0.,
          0., 0., 0., 0., 0., 0., 0., 0., 0., 0., 0., 0., 0., 0., 0., 0.,
          0., 0., 0., 0., 0., 0., 0., 0., 0., 0., 0., 0., 0., 0., 0., 0.,
          0., 0., 0., 0., 0., 0., 0., 0., 0., 0., 0., 0., 0., 0., 0., 0.,
          0., 0., 0., 0., 0., 0., 0., 0., 0., 0., 0., 0., 0.,
          1.44032910e-01, 1.19341560e-01, 5.34979403e-02, 2.05761306e-02,
          1.89300403e-01, 6.58436194e-02, 3.29218097e-02, 8.23045224e-02,
          2.05761306e-02, 2.46913582e-02, 0., 2.05761306e-02,
          8.23045243e-03, 2.05761306e-02, 3.29218097e-02, 0.,
          2.05761306e-02, 4.11522621e-03, 1.23456791e-02, 2.46913582e-02,
          5.76131679e-02, 4.11522621e-03, 0., 4.11522621e-03,
          4.11522621e-03, 0., 0., 4.11522621e-03, 0., 1.23456791e-02,
          8.23045243e-03, 0., 0., 8.23045243e-03, 0., 0., 0., 0., 0., 0.,
          0., 0., 0., 0., 0., 0., 0., 0., 0., 0., 0., 0., 0., 0., 0., 0.,
          0., 0., 0., 0., 0., 0., 0., 0., 0., 0., 0., 0., 0., 0., 0., 0.,
          0., 0., 0., 0., 0., 0., 0., 0., 0., 0., 0., 0., 0., 0., 0., 0.,
          0., 0., 0., 0., 0., 0., 0., 0., 0., 0., 0., 0., 1.16414437e-02,
          1.10593714e-01, 5.23864962e-02, 6.86845183e-02, 1.60651922e-01,
          9.66239795e-02, 3.60884741e-02, 5.93713634e-02, 8.73108283e-02,
          2.09545977e-02, 1.28055885e-02, 5.82072176e-02, 3.37601863e-02,
          1.97904538e-02, 3.02677527e-02, 2.32828874e-03, 1.74621660e-02,
          1.86263099e-02, 2.44470313e-02, 3.49243311e-03, 1.16414437e-02,
          1.16414437e-02, 6.98486622e-03, 5.82072185e-03, 1.39697324e-02,
          0., 1.16414437e-03, 3.49243311e-03, 4.65657748e-03,
          8.14901106e-03, 2.32828874e-03, 2.32828874e-03, 1.16414437e-03,
          0., 1.16414437e-03, 0., 0., 0., 0., 0., 0., 0., 0., 0., 0., 0.,
          0., 0., 0., 0., 0., 0., 0., 0., 0., 0., 0., 0., 0., 0., 0., 0.,
          0., 0., 0., 0., 0., 0., 0., 0., 0., 0., 0., 0., 0., 0., 0., 0.,
          0., 0., 0., 0., 0., 0., 0., 0., 0., 0., 0., 0., 0., 0., 0., 0.,
          0., 0., 0., 0., 0., 0., 1.87116563e-01, 7.97545984e-02,
          9.20245424e-03, 2.45398760e-01, 7.05521479e-02, 4.90797535e-02,
          2.45398767e-02, 9.50920209e-02, 2.45398767e-02, 2.45398767e-02,
          3.68098170e-02, 3.06748459e-03, 9.20245424e-03, 2.45398767e-02,
          1.53374225e-02, 6.13496918e-03, 1.53374225e-02, 9.20245424e-03,
          3.06748459e-03, 1.53374225e-02, 1.84049085e-02, 9.20245424e-03,
          0., 1.22699384e-02, 0., 0., 0., 3.06748459e-03, 0., 0., 0., 0.,
          3.06748459e-03, 0., 3.06748459e-03, 0., 0., 0., 0., 0., 0., 0.,
          0., 0., 0., 0., 0., 0., 0., 0., 0., 3.06748459e-03, 0., 0., 0.,
          0., 0., 0., 0., 0., 0., 0., 0., 0., 0., 0., 0., 0., 0., 0., 0.,
          0., 0., 0., 0., 0., 0., 0., 0., 0., 0., 0., 0., 0., 0., 0., 0.,
          0., 0., 0., 0., 0., 0., 0., 0., 0., 0., 0., 0., 0.,
          1.19469024e-01, 1.28318578e-01, 3.09734512e-02, 4.86725643e-02,
          2.07964599e-01, 2.21238937e-02, 7.07964599e-02, 4.42477874e-02,
          3.98230106e-02, 8.84955749e-03, 8.84955749e-03, 3.09734512e-02,
          1.32743362e-02, 2.21238937e-02, 2.21238937e-02, 0.,
          4.42477874e-03, 8.84955749e-03, 1.76991150e-02, 2.65486725e-02,
          5.75221255e-02, 1.32743362e-02, 0., 1.76991150e-02, 0., 0., 0.,
          4.42477874e-03, 0., 4.42477874e-03, 1.76991150e-02, 0.,
          4.42477874e-03, 0., 0., 0., 0., 0., 0., 0., 0., 4.42477874e-03,
          0., 0., 0., 0., 0., 0., 0., 0., 0., 0., 0., 0., 0., 0., 0., 0.,
          0., 0., 0., 0., 0., 0., 0., 0., 0., 0., 0., 0., 0., 0., 0., 0.,
          0., 0., 0., 0., 0., 0., 0., 0., 0., 0., 0., 0., 0., 0., 0., 0.,
          0., 0., 0., 0., 0., 0., 0., 0., 0., 0., 2.94530150e-02,
          1.50070131e-01, 7.85413757e-02, 8.27489495e-02, 1.33239836e-01,
          5.46984561e-02, 4.20757346e-02, 1.00981764e-01, 4.62833084e-02,
          1.82328187e-02, 2.66479664e-02, 4.76858355e-02, 1.68302953e-02,
          1.26227206e-02, 3.64656374e-02, 1.40252453e-03, 9.81767196e-03,
          1.12201963e-02, 1.40252449e-02, 1.40252449e-02, 1.26227206e-02,
          8.41514766e-03, 5.61009813e-03, 1.12201963e-02, 8.41514766e-03,
          0., 0., 2.80504907e-03, 4.20757383e-03, 5.61009813e-03,
          7.01262243e-03, 1.40252453e-03, 1.40252453e-03, 1.40252453e-03,
          1.40252453e-03, 0., 0., 0., 0., 0., 0., 0., 0., 0., 0., 0., 0.,
          1.40252453e-03, 0., 0., 0., 0., 0., 0., 0., 0., 0., 0., 0., 0.,
          0., 0., 0., 0., 0., 0., 0., 0., 0., 0., 0., 0., 0., 0., 0., 0.,
          0., 0., 0., 0., 0., 0., 0., 0., 0., 0., 0., 0., 0., 0., 0., 0.,
          0., 0., 0., 0., 0., 0., 0., 0., 1.29032265e-02, 7.31182843e-02,
          1.11827962e-01, 1.05376348e-01, 9.24731195e-02, 8.81720483e-02,
          1.50537640e-02, 6.45161271e-02, 1.09677419e-01, 5.59139811e-02,
          2.58064531e-02, 5.59139811e-02, 2.15053763e-02, 1.29032265e-02,
          1.29032265e-02, 4.30107536e-03, 6.45161327e-03, 1.93548389e-02,
          1.07526882e-02, 8.60215072e-03, 8.60215072e-03, 2.79569905e-02,
          2.15053768e-03, 4.30107536e-03, 3.01075280e-02, 0., 0., 0.,
          4.30107536e-03, 6.45161327e-03, 4.30107536e-03, 2.15053768e-03,
          2.15053768e-03, 0., 0., 0., 0., 0., 0., 0., 0., 0., 0., 0., 0.,
          0., 0., 0., 0., 0., 0., 0., 0., 0., 0., 0., 0., 0., 0., 0., 0.,
          0., 0., 0., 0., 0., 0., 0., 0., 0., 0., 0., 0., 0., 0., 0., 0.,
          0., 0., 0., 0., 0., 0., 0., 0., 0., 0., 0., 0., 0., 0., 0., 0.,
          0., 0., 0., 0., 0., 0., 0., 7.12499991e-02, 1.11249998e-01,
          7.75000006e-02, 1.26249999e-01, 1.32499993e-01, 3.37499976e-02,
          2.62499992e-02, 5.24999984e-02, 2.49999985e-02, 1.24999993e-02,
          2.62499992e-02, 2.62499992e-02, 1.37499999e-02, 1.24999993e-02,
          2.87499987e-02, 1.24999997e-03, 8.75000004e-03, 1.12499995e-02,
          3.62499990e-02, 5.24999984e-02, 4.62500006e-02, 1.24999993e-02,
          3.74999992e-03, 2.49999994e-03, 6.24999963e-03, 0.,
          1.24999997e-03, 2.49999994e-03, 1.24999997e-03, 6.24999963e-03,
          2.24999990e-02, 0., 2.49999994e-03, 2.49999994e-03, 0., 0., 0.,
          0., 0., 0., 0., 2.49999994e-03, 0., 0., 0., 1.24999997e-03, 0.,
          0., 0., 0., 0., 0., 0., 0., 0., 0., 0., 0., 0., 0., 0., 0., 0.,
          0., 0., 0., 0., 0., 0., 0., 0., 0., 0., 0., 0., 0., 0., 0., 0.,
          0., 0., 0., 0., 0., 0., 0., 0., 0., 0., 0., 0., 0., 0., 0., 0.,
          0., 0., 0., 0., 0., 3.12500000e-02, 1.25000000e-01,
          4.91071418e-02, 1.02678575e-01, 1.41071424e-01, 8.03571418e-02,
          1.69642866e-02, 7.32142851e-02, 5.62499985e-02, 2.32142862e-02,
          3.30357142e-02, 4.55357134e-02, 2.67857146e-02, 2.32142862e-02,
          3.03571429e-02, 8.92857183e-03, 1.87500007e-02, 1.25000002e-02,
          1.25000002e-02, 1.25000002e-02, 8.03571474e-03, 9.82142892e-03,
          5.35714300e-03, 1.16071431e-02, 1.25000002e-02, 0.,
          2.67857150e-03, 1.78571430e-03, 6.25000009e-03, 3.57142859e-03,
          7.14285718e-03, 8.92857148e-04, 2.67857150e-03, 8.92857148e-04,
          1.78571430e-03, 0., 0., 0., 0., 0., 0., 8.92857148e-04, 0., 0.,
          0., 8.92857148e-04, 0., 0., 0., 0., 0., 0., 0., 0., 0., 0., 0.,
          0., 0., 0., 0., 0., 0., 0., 0., 0., 0., 0., 0., 0., 0., 0., 0.,
          0., 0., 0., 0., 0., 0., 0., 0., 0., 0., 0., 0., 0., 0., 0., 0.,
          0., 0., 0., 0., 0., 0., 0., 0., 0., 0., 0., 8.54503438e-02,
          8.31408799e-02, 2.07852200e-01, 1.03926100e-01, 6.23556562e-02,
          3.23325619e-02, 1.38568133e-02, 9.00692865e-02, 5.77367209e-02,
          1.61662810e-02, 4.38799076e-02, 4.61893752e-02, 4.15704399e-02,
          6.92840666e-03, 4.61893762e-03, 4.61893762e-03, 1.84757505e-02,
          2.30946881e-03, 4.61893762e-03, 1.61662810e-02, 1.15473438e-02,
          1.38568133e-02, 2.30946881e-03, 9.23787523e-03, 0., 0.,
          4.61893762e-03, 0., 6.92840666e-03, 2.30946881e-03,
          4.61893762e-03, 0., 0., 2.30946881e-03, 0., 0., 0., 0., 0., 0.,
          0., 0., 0., 0., 0., 0., 0., 0., 0., 0., 0., 0., 0., 0., 0., 0.,
          0., 0., 0., 0., 0., 0., 0., 0., 0., 0., 0., 0., 0., 0., 0., 0.,
          0., 0., 0., 0., 0., 0., 0., 0., 0., 0., 0., 0., 0., 0., 0., 0.,
          0., 0., 0., 0., 0., 0., 0., 0., 0., 0., 0., 0., 1.99040771e-01,
          8.87290165e-02, 8.39328542e-02, 8.39328542e-02, 6.95443675e-02,
          5.27577959e-02, 1.43884895e-02, 1.39088735e-01, 5.27577959e-02,
          3.35731432e-02, 2.15827338e-02, 2.63788980e-02, 1.19904075e-02,
          1.91846527e-02, 9.59232636e-03, 4.79616318e-03, 1.43884895e-02,
          9.59232636e-03, 4.79616318e-03, 0., 4.79616318e-03,
          7.19424477e-03, 7.19424477e-03, 7.19424477e-03, 9.59232636e-03,
          2.39808159e-03, 0., 0., 9.59232636e-03, 0., 2.39808159e-03, 0.,
          0., 4.79616318e-03, 0., 2.39808159e-03, 0., 0., 0., 0., 0., 0.,
          0., 0., 2.39808159e-03, 0., 0., 0., 0., 0., 0., 0., 0., 0., 0.,
          0., 0., 0., 0., 0., 0., 0., 0., 0., 0., 0., 0., 0., 0., 0., 0.,
          0., 0., 0., 0., 0., 0., 0., 0., 0., 0., 0., 0., 0., 0., 0., 0.,
          0., 0., 0., 0., 0., 0., 0., 0., 0., 0., 0., 0., 0.,
          2.21729483e-02, 9.09090936e-02, 1.28603101e-01, 5.09977825e-02,
          1.44124165e-01, 2.88248342e-02, 3.32594216e-02, 7.31707290e-02,
          2.43902430e-02, 1.55210644e-02, 3.54767181e-02, 3.99113074e-02,
          1.77383590e-02, 2.43902430e-02, 4.43458967e-02, 4.43458976e-03,
          6.65188488e-03, 1.99556537e-02, 4.87804860e-02, 5.09977825e-02,
          5.09977825e-02, 2.21729488e-03, 0., 1.55210644e-02,
          2.21729488e-03, 2.21729488e-03, 2.21729488e-03, 0.,
          6.65188488e-03, 0., 1.33037698e-02, 0., 0., 0., 0., 0., 0., 0.,
          0., 0., 0., 0., 0., 0., 0., 0., 0., 0., 0., 0., 0., 0., 0., 0.,
          0., 0., 0., 0., 0., 0., 0., 0., 0., 0., 0., 0., 0., 0., 0., 0.,
          0., 0., 0., 0., 0., 0., 0., 0., 0., 0., 0., 0., 0., 0., 0., 0.,
          0., 0., 0., 0., 0., 0., 0., 0., 0., 0., 0., 0., 0., 0.,
          2.01567747e-02, 4.47928347e-02, 2.95632720e-01, 1.15341552e-01,
          6.60694316e-02, 1.67973135e-02, 2.57558804e-02, 4.25531939e-02,
          6.83090761e-02, 2.35162377e-02, 2.46360600e-02, 4.47928347e-02,
          4.03135493e-02, 1.00783873e-02, 1.45576708e-02, 1.56774931e-02,
          8.95856693e-03, 6.71892520e-03, 2.23964173e-02, 7.83874653e-03,
          2.35162377e-02, 6.71892520e-03, 5.59910433e-03, 3.35946260e-03,
          8.95856693e-03, 2.23964173e-03, 0., 3.35946260e-03,
          1.11982087e-03, 4.47928347e-03, 2.23964173e-02, 1.11982087e-03,
          0., 0., 2.23964173e-03, 0., 0., 0., 0., 0., 0., 0., 0., 0., 0.,
          0., 0., 0., 0., 0., 0., 0., 0., 0., 0., 0., 0., 0., 0., 0., 0.,
          0., 0., 0., 0., 0., 0., 0., 0., 0., 0., 0., 0., 0., 0., 0., 0.,
          0., 0., 0., 0., 0., 0., 0., 0., 0., 0., 0., 0., 0., 0., 0., 0.,
          0., 0., 0., 0., 0., 0., 0., 4.86322194e-02, 7.90273547e-02,
          1.67173252e-01, 6.68693036e-02, 1.27659574e-01, 2.43161097e-02,
          3.03951371e-02, 5.16717322e-02, 5.77507615e-02, 1.21580549e-02,
          1.51975686e-02, 4.55927067e-02, 5.77507615e-02, 1.21580549e-02,
          2.12765969e-02, 3.03951371e-03, 9.11854114e-03, 9.11854114e-03,
          6.07902743e-03, 3.03951371e-02, 4.86322194e-02, 6.07902743e-03,
          6.07902743e-03, 1.21580549e-02, 1.51975686e-02, 0., 0.,
          3.03951371e-03, 6.07902743e-03, 9.11854114e-03, 1.51975686e-02,
          0., 0., 3.03951371e-03, 0., 0., 0., 0., 0., 0., 0., 0., 0., 0.,
          0., 0., 0., 0., 0., 0., 0., 0., 0., 0., 0., 0., 0., 0., 0., 0.,
          0., 0., 0., 0., 0., 0., 0., 0., 0., 0., 0., 0., 0., 0., 0., 0.,
          0., 0., 0., 0., 0., 0., 0., 0., 0., 0., 0., 0., 0., 0., 0., 0.,
          0., 0., 0., 0., 0., 0., 0., 0., 5.72057217e-02, 7.81078115e-02,
          1.35313526e-01, 2.20021997e-02, 8.03080276e-02, 6.05060495e-02,
          1.76017601e-02, 7.15071484e-02, 5.72057217e-02, 2.42024194e-02,
          3.74037400e-02, 4.95049506e-02, 4.18041795e-02, 1.65016502e-02,
          1.54015403e-02, 1.32013205e-02, 9.90098994e-03, 5.50054992e-03,
          1.54015403e-02, 3.96039598e-02, 6.49064928e-02, 1.43014304e-02,
          5.50054992e-03, 5.50054992e-03, 9.90098994e-03, 2.20022001e-03,
          0., 7.70077016e-03, 5.50054992e-03, 4.40044003e-03,
          2.20021997e-02, 2.20022001e-03, 3.30033014e-03, 0.,
          3.30033014e-03, 0., 0., 0., 1.10011001e-03, 0., 0., 0., 0., 0.,
          0., 0., 0., 0., 0., 0., 0., 0., 0., 0., 0., 0., 0., 0., 0., 0.,
          0., 0., 0., 0., 0., 0., 0., 0., 0., 0., 0., 0., 0., 0., 0., 0.,
          0., 0., 0., 0., 0., 0., 0., 0., 0., 0., 0., 0., 0., 0., 0., 0.,
          0., 0., 0., 0., 0., 0., 0., 0., 1.41509436e-02, 5.42452857e-02,
          2.14622647e-01, 7.07547218e-02, 7.31132105e-02, 5.66037744e-02,
          2.12264154e-02, 7.78301880e-02, 8.25471729e-02, 1.17924530e-02,
          6.60377368e-02, 3.53773609e-02, 2.83018872e-02, 9.43396240e-03,
          1.88679248e-02, 2.35849060e-02, 9.43396240e-03, 1.17924530e-02,
          1.41509436e-02, 1.88679248e-02, 3.30188684e-02, 2.35849060e-03,
          7.07547180e-03, 1.17924530e-02, 0., 0., 4.71698120e-03, 0.,
          1.17924530e-02, 0., 1.65094342e-02, 0., 0., 0., 0., 0., 0., 0.,
          0., 0., 0., 0., 0., 0., 0., 0., 0., 0., 0., 0., 0., 0., 0., 0.,
          0., 0., 0., 0., 0., 0., 0., 0., 0., 0., 0., 0., 0., 0., 0., 0.,
          0., 0., 0., 0., 0., 0., 0., 0., 0., 0., 0., 0., 0., 0., 0., 0.,
          0., 0., 0., 0., 0., 0., 0., 0., 0., 0., 0., 0., 0., 0.,
          2.59740259e-02, 3.89610380e-02, 8.44155848e-02, 3.89610380e-02,
          1.36363640e-01, 1.94805190e-02, 4.87012975e-02, 2.59740259e-02,
          2.27272734e-02, 9.74025950e-03, 3.24675324e-03, 2.92207785e-02,
          1.62337665e-02, 1.29870130e-02, 2.92207785e-02, 6.49350649e-03,
          1.29870130e-02, 9.74025950e-03, 4.54545468e-02, 1.68831170e-01,
          1.52597398e-01, 3.24675324e-03, 0., 3.24675324e-03, 0., 0., 0.,
          3.24675324e-03, 6.49350649e-03, 6.49350649e-03, 2.59740259e-02,
          6.49350649e-03, 0., 0., 6.49350649e-03, 0., 0., 0., 0., 0., 0.,
          0., 0., 0., 0., 0., 0., 0., 0., 0., 0., 0., 0., 0., 0., 0., 0.,
          0., 0., 0., 0., 0., 0., 0., 0., 0., 0., 0., 0., 0., 0., 0., 0.,
          0., 0., 0., 0., 0., 0., 0., 0., 0., 0., 0., 0., 0., 0., 0., 0.,
          0., 0., 0., 0., 0., 0., 0., 0., 0., 0., 0., 3.91676873e-02,
          5.50795607e-02, 1.12607099e-01, 2.20318250e-02, 7.83353746e-02,
          1.21175036e-01, 3.18237469e-02, 9.30232555e-02, 8.32313374e-02,
          3.42717245e-02, 2.69277841e-02, 4.65116277e-02, 3.67197059e-02,
          1.10159125e-02, 1.59118734e-02, 3.67197068e-03, 2.44798046e-03,
          1.95838436e-02, 2.20318250e-02, 2.57037953e-02, 3.42717245e-02,
          1.95838436e-02, 1.34638920e-02, 1.22399023e-03, 9.79192182e-03,
          2.44798046e-03, 0., 1.22399023e-02, 6.11995114e-03,
          2.44798046e-03, 9.79192182e-03, 4.89596091e-03, 0., 0.,
          1.22399023e-03, 0., 0., 0., 0., 0., 0., 1.22399023e-03, 0., 0.,
          0., 0., 0., 0., 0., 0., 0., 0., 0., 0., 0., 0., 0., 0., 0., 0.,
          0., 0., 0., 0., 0., 0., 0., 0., 0., 0., 0., 0., 0., 0., 0., 0.,
          0., 0., 0., 0., 0., 0., 0., 0., 0., 0., 0., 0., 0., 0., 0., 0.,
          0., 0., 0., 0., 0., 0., 0., 0., 1.90476188e-03, 1.90476179e-02,
          3.06666672e-01, 0., 3.61904763e-02, 3.04761901e-02,
          3.80952377e-03, 6.28571436e-02, 8.95238072e-02, 1.10476188e-01,
          4.38095219e-02, 6.28571436e-02, 5.33333346e-02, 1.90476188e-03,
          9.52380896e-03, 1.71428565e-02, 3.80952377e-03, 1.90476179e-02,
          9.52380896e-03, 0., 0., 2.28571426e-02, 2.85714287e-02,
          5.71428565e-03, 2.28571426e-02, 2.28571426e-02, 0., 0.,
          7.61904754e-03, 3.80952377e-03, 0., 0., 1.90476188e-03, 0., 0.,
          0., 0., 0., 1.90476188e-03, 0., 0., 0., 0., 0., 0., 0., 0., 0.,
          0., 0., 0., 0., 0., 0., 0., 0., 0., 0., 0., 0., 0., 0., 0., 0.,
          0., 0., 0., 0., 0., 0., 0., 0., 0., 0., 0., 0., 0., 0., 0., 0.,
          0., 0., 0., 0., 0., 0., 0., 0., 0., 0., 0., 0., 0., 0., 0., 0.,
          0., 0., 0., 0., 5.62770553e-02, 4.43722941e-02, 1.17965370e-01,
          8.44155848e-02, 4.65367958e-02, 1.00649349e-01, 1.29870130e-02,
          1.17965370e-01, 1.06060609e-01, 5.51948063e-02, 5.19480519e-02,
          3.89610380e-02, 5.08657992e-02, 1.40692638e-02, 7.57575780e-03,
          5.41125517e-03, 5.41125517e-03, 4.32900432e-03, 2.16450216e-03,
          1.08225108e-03, 9.74025950e-03, 1.83982681e-02, 5.41125517e-03,
          4.32900432e-03, 1.51515156e-02, 0., 2.16450216e-03,
          4.32900432e-03, 4.32900432e-03, 1.08225108e-03, 5.41125517e-03,
          3.24675324e-03, 0., 0., 1.08225108e-03, 0., 0., 0., 0., 0., 0.,
          1.08225108e-03, 0., 0., 0., 0., 0., 0., 0., 0., 0., 0., 0., 0.,
          0., 0., 0., 0., 0., 0., 0., 0., 0., 0., 0., 0., 0., 0., 0., 0.,
          0., 0., 0., 0., 0., 0., 0., 0., 0., 0., 0., 0., 0., 0., 0., 0.,
          0., 0., 0., 0., 0., 0., 0., 0., 0., 0., 0., 0., 0., 0.,
          4.96894382e-02, 1.24913730e-01, 3.51966843e-02, 1.05590060e-01,
          8.76466483e-02, 1.10420972e-01, 2.20841952e-02, 9.79986191e-02,
          7.45341554e-02, 2.20841952e-02, 3.65769491e-02, 3.79572101e-02,
          2.07039323e-02, 2.82953754e-02, 1.86335389e-02, 6.21117977e-03,
          1.10420976e-02, 1.72532778e-02, 3.45065538e-03, 1.10420976e-02,
          1.31124910e-02, 2.07039323e-02, 4.83091781e-03, 6.21117977e-03,
          7.59144221e-03, 0., 2.07039341e-03, 5.52104879e-03,
          3.45065538e-03, 4.83091781e-03, 5.52104879e-03, 2.07039341e-03,
          0., 0., 0., 0., 0., 0., 0., 0., 0., 6.90131099e-04, 0., 0., 0.,
          6.90131099e-04, 1.38026220e-03, 0., 0., 0., 0., 0., 0., 0., 0.,
          0., 0., 0., 0., 0., 0., 0., 0., 0., 0., 0., 0., 0., 0., 0., 0.,
          0., 0., 0., 0., 0., 0., 0., 0., 0., 0., 0., 0., 0., 0., 0., 0.,
          0., 0., 0., 0., 0., 0., 0., 0., 0., 0., 0., 0., 0.,
          7.48503059e-02, 5.68862297e-02, 2.39520967e-02, 1.79640725e-02,
          8.98203626e-02, 8.08383226e-02, 5.68862297e-02, 1.22754499e-01,
          3.89221571e-02, 6.58682659e-02, 5.08982055e-02, 2.69461088e-02,
          2.69461088e-02, 5.98802418e-03, 1.79640725e-02, 8.98203626e-03,
          1.19760484e-02, 2.99401209e-03, 2.39520967e-02, 5.68862297e-02,
          8.38323385e-02, 1.49700604e-02, 8.98203626e-03, 5.98802418e-03,
          5.98802418e-03, 0., 0., 2.99401209e-03, 2.99401209e-03, 0.,
          5.98802418e-03, 2.99401209e-03, 0., 2.99401209e-03, 0., 0., 0.,
          0., 0., 0., 0., 0., 0., 0., 0., 0., 0., 0., 0., 0., 0., 0., 0.,
          0., 0., 0., 0., 0., 0., 0., 0., 0., 0., 0., 0., 0., 0., 0., 0.,
          0., 0., 0., 0., 0., 0., 0., 0., 0., 0., 0., 0., 0., 0., 0., 0.,
          0., 0., 0., 0., 0., 0., 0., 0., 0., 0., 0., 0., 0., 0., 0.,
          2.67605633e-02, 4.22535203e-02, 3.59154910e-01, 2.81690131e-03,
          7.60563388e-02, 4.50704210e-02, 2.39436608e-02, 6.90140799e-02,
          4.92957719e-02, 1.54929571e-02, 3.80281694e-02, 2.11267602e-02,
          4.36619706e-02, 2.81690131e-03, 1.54929571e-02, 1.97183099e-02,
          1.40845065e-03, 2.67605633e-02, 3.66197154e-02, 1.69014074e-02,
          8.45070370e-03, 1.26760555e-02, 4.22535185e-03, 4.22535185e-03,
          2.81690131e-03, 0., 1.40845065e-03, 2.81690131e-03,
          2.81690131e-03, 5.63380262e-03, 1.54929571e-02, 4.22535185e-03,
          2.81690131e-03, 0., 0., 0., 0., 0., 0., 0., 0., 0., 0., 0., 0.,
          0., 0., 0., 0., 0., 0., 0., 0., 0., 0., 0., 0., 0., 0., 0., 0.,
          0., 0., 0., 0., 0., 0., 0., 0., 0., 0., 0., 0., 0., 0., 0., 0.,
          0., 0., 0., 0., 0., 0., 0., 0., 0., 0., 0., 0., 0., 0., 0., 0.,
          0., 0., 0., 0., 0., 0., 0., 5.29801324e-02, 5.46357632e-02,
          1.72185436e-01, 5.96026480e-02, 6.62251636e-02, 4.80132438e-02,
          2.64900662e-02, 7.45033100e-02, 5.79470210e-02, 9.93377529e-03,
          4.13907282e-02, 3.97351012e-02, 3.97351012e-02, 2.48344373e-02,
          9.93377529e-03, 6.62251655e-03, 1.15894042e-02, 8.27814545e-03,
          1.82119198e-02, 3.64238396e-02, 3.47682126e-02, 1.49006620e-02,
          3.31125828e-03, 6.62251655e-03, 4.96688765e-03, 0.,
          3.31125828e-03, 4.47019860e-02, 4.96688765e-03, 0.,
          1.32450331e-02, 1.65562914e-03, 0., 0., 8.27814545e-03, 0., 0.,
          0., 0., 0., 0., 0., 0., 0., 0., 0., 0., 0., 0., 0., 0., 0., 0.,
          0., 0., 0., 0., 0., 0., 0., 0., 0., 0., 0., 0., 0., 0., 0., 0.,
          0., 0., 0., 0., 0., 0., 0., 0., 0., 0., 0., 0., 0., 0., 0., 0.,
          0., 0., 0., 0., 0., 0., 0., 0., 0., 0., 0., 0., 0., 0., 0.,
          7.23514259e-02, 1.08527131e-01, 1.29198968e-01, 3.35917324e-02,
          1.00775197e-01, 6.97674453e-02, 3.35917324e-02, 8.26873407e-02,
          5.94315268e-02, 3.10077518e-02, 3.10077518e-02, 3.87596898e-02,
          2.06718352e-02, 2.58397944e-02, 1.80878565e-02, 2.58397940e-03,
          1.55038759e-02, 1.80878565e-02, 5.16795879e-03, 4.13436703e-02,
          1.55038759e-02, 1.03359176e-02, 5.16795879e-03, 7.75193796e-03,
          2.58397940e-03, 2.58397940e-03, 0., 5.16795879e-03,
          7.75193796e-03, 2.58397940e-03, 0., 0., 0., 2.58397940e-03, 0.,
          0., 0., 0., 0., 0., 0., 0., 0., 0., 0., 0., 0., 0., 0., 0., 0.,
          0., 0., 0., 0., 0., 0., 0., 0., 0., 0., 0., 0., 0., 0., 0., 0.,
          0., 0., 0., 0., 0., 0., 0., 0., 0., 0., 0., 0., 0., 0., 0., 0.,
          0., 0., 0., 0., 0., 0., 0., 0., 0., 0., 0., 0., 0., 0., 0., 0.,
          0., 6.95296526e-02, 1.14519425e-01, 8.58895704e-02,
          7.15746433e-02, 1.00204498e-01, 9.61145163e-02, 3.06748450e-02,
          7.97545984e-02, 5.52147217e-02, 1.63599178e-02, 1.63599178e-02,
          4.70347628e-02, 1.84049085e-02, 3.06748450e-02, 1.84049085e-02,
          4.08997945e-03, 1.84049085e-02, 1.22699384e-02, 1.22699384e-02,
          2.24948861e-02, 1.63599178e-02, 1.43149281e-02, 6.13496918e-03,
          1.02249486e-02, 8.17995891e-03, 0., 2.04498973e-03,
          6.13496918e-03, 0., 6.13496918e-03, 4.08997945e-03, 0.,
          2.04498973e-03, 4.08997945e-03, 0., 0., 0., 0., 0., 0., 0., 0.,
          0., 0., 0., 0., 0., 0., 0., 0., 0., 0., 0., 0., 0., 0., 0., 0.,
          0., 0., 0., 0., 0., 0., 0., 0., 0., 0., 0., 0., 0., 0., 0., 0.,
          0., 0., 0., 0., 0., 0., 0., 0., 0., 0., 0., 0., 0., 0., 0., 0.,
          0., 0., 0., 0., 0., 0., 0., 0., 0., 0., 5.04731871e-02,
          6.94006309e-02, 1.35646686e-01, 1.26182968e-02, 8.83280784e-02,
          9.14826542e-02, 8.20189267e-02, 8.20189267e-02, 7.88643584e-02,
          3.47003154e-02, 1.26182968e-02, 3.15457433e-02, 9.46372282e-03,
          2.20820196e-02, 2.52365936e-02, 6.30914839e-03, 1.89274456e-02,
          1.26182968e-02, 2.52365936e-02, 2.83911675e-02, 2.83911675e-02,
          3.15457419e-03, 1.26182968e-02, 0., 3.15457419e-03,
          3.15457419e-03, 0., 1.26182968e-02, 9.46372282e-03,
          3.15457419e-03, 0., 0., 3.15457419e-03, 0., 3.15457419e-03, 0.,
          0., 0., 0., 0., 0., 0., 0., 0., 0., 0., 0., 0., 0., 0., 0., 0.,
          0., 0., 0., 0., 0., 0., 0., 0., 0., 0., 0., 0., 0., 0., 0., 0.,
          0., 0., 0., 0., 0., 0., 0., 0., 0., 0., 0., 0., 0., 0., 0., 0.,
          0., 0., 0., 0., 0., 0., 0., 0., 0., 0., 0., 0., 0., 0., 0., 0.,
          1.35549873e-01, 1.38107419e-01, 6.64961636e-02, 5.37084378e-02,
          1.04859337e-01, 5.88235296e-02, 4.34782617e-02, 9.20716077e-02,
          4.09207158e-02, 2.81329919e-02, 7.67263398e-03, 3.58056277e-02,
          1.79028139e-02, 3.32480818e-02, 2.55754478e-02, 2.55754474e-03,
          1.27877239e-02, 1.02301789e-02, 1.27877239e-02, 1.79028139e-02,
          1.79028139e-02, 1.02301789e-02, 0., 7.67263398e-03, 0.,
          2.55754474e-03, 0., 2.55754474e-03, 2.55754474e-03,
          2.55754474e-03, 5.11508947e-03, 2.55754474e-03, 0.,
          7.67263398e-03, 0., 0., 0., 0., 0., 0., 0., 0., 0., 0., 0., 0.,
          0., 0., 0., 0., 0., 0., 0., 0., 0., 0., 0., 0., 0., 0., 0., 0.,
          0., 0., 0., 0., 0., 0., 0., 0., 0., 0., 0., 0., 0., 0., 0., 0.,
          0., 0., 0., 0., 0., 0., 0., 0., 0., 0., 0., 0., 0., 0., 0., 0.,
          0., 0., 0., 0., 0., 0., 1.23595506e-01, 1.19850188e-01,
          1.01123594e-01, 4.11985032e-02, 8.98876414e-02, 4.86891381e-02,
          4.11985032e-02, 8.61423239e-02, 3.37078646e-02, 1.49812736e-02,
          1.49812736e-02, 5.61797768e-02, 1.49812736e-02, 7.49063678e-03,
          1.49812736e-02, 0., 7.49063678e-03, 1.12359552e-02,
          2.24719103e-02, 5.99250942e-02, 2.62172297e-02, 1.87265910e-02,
          0., 1.49812736e-02, 0., 0., 0., 7.49063678e-03, 0., 0.,
          1.49812736e-02, 0., 3.74531839e-03, 0., 3.74531839e-03, 0., 0.,
          0., 0., 0., 0., 0., 0., 0., 0., 0., 0., 0., 0., 0., 0., 0., 0.,
          0., 0., 0., 0., 0., 0., 0., 0., 0., 0., 0., 0., 0., 0., 0., 0.,
          0., 0., 0., 0., 0., 0., 0., 0., 0., 0., 0., 0., 0., 0., 0., 0.,
          0., 0., 0., 0., 0., 0., 0., 0., 0., 0., 0., 0., 0., 0., 0.,
          9.63172764e-02, 1.07648723e-01, 5.38243614e-02, 8.49858373e-02,
          1.35977328e-01, 5.66572249e-02, 3.96600552e-02, 7.08215311e-02,
          4.53257784e-02, 1.98300276e-02, 1.69971660e-02, 3.96600552e-02,
          3.68271954e-02, 1.98300276e-02, 1.41643062e-02, 2.83286115e-03,
          2.83286115e-03, 1.69971660e-02, 2.54957508e-02, 1.69971660e-02,
          3.11614722e-02, 1.13314446e-02, 2.83286115e-03, 8.49858299e-03,
          2.83286115e-03, 0., 5.66572230e-03, 5.66572230e-03, 0.,
          8.49858299e-03, 1.13314446e-02, 2.83286115e-03, 0.,
          2.83286115e-03, 0., 0., 0., 0., 0., 0., 2.83286115e-03, 0., 0.,
          0., 0., 0., 0., 0., 0., 0., 0., 0., 0., 0., 0., 0., 0., 0., 0.,
          0., 0., 0., 0., 0., 0., 0., 0., 0., 0., 0., 0., 0., 0., 0., 0.,
          0., 0., 0., 0., 0., 0., 0., 0., 0., 0., 0., 0., 0., 0., 0., 0.,
          0., 0., 0., 0., 0., 0., 0., 0., 0., 7.22656250e-02,
          1.30859375e-01, 1.07421875e-01, 4.10156250e-02, 7.03125000e-02,
          1.07421875e-01, 1.36718750e-02, 6.05468750e-02, 7.81250000e-02,
          2.34375000e-02, 2.73437500e-02, 3.71093750e-02, 3.32031250e-02,
          1.75781250e-02, 3.12500000e-02, 3.90625000e-03, 7.81250000e-03,
          9.76562500e-03, 9.76562500e-03, 2.34375000e-02, 1.17187500e-02,
          1.56250000e-02, 5.85937500e-03, 1.56250000e-02, 7.81250000e-03,
          0., 0., 3.90625000e-03, 3.90625000e-03, 3.90625000e-03,
          9.76562500e-03, 9.76562500e-03, 0., 1.95312500e-03,
          3.90625000e-03, 0., 0., 0., 0., 0., 0., 0., 0., 0., 0., 0., 0.,
          0., 0., 0., 0., 0., 0., 0., 0., 0., 0., 0., 0., 0., 0., 0., 0.,
          0., 0., 0., 0., 0., 0., 0., 0., 0., 0., 0., 0., 0., 0., 0., 0.,
          0., 0., 0., 0., 0., 0., 0., 0., 0., 0., 0., 0., 0., 0., 0., 0.,
          0., 0., 0., 0., 0., 7.93319419e-02, 1.29436329e-01,
          7.72442594e-02, 3.54906060e-02, 1.79540709e-01, 5.21920696e-02,
          2.50521936e-02, 8.35073069e-02, 3.54906060e-02, 2.29645092e-02,
          8.35073087e-03, 4.59290184e-02, 1.04384134e-02, 1.67014617e-02,
          3.13152410e-02, 2.08768272e-03, 1.87891442e-02, 1.67014617e-02,
          2.50521936e-02, 1.04384134e-02, 3.34029235e-02, 1.04384134e-02,
          6.26304839e-03, 1.46137793e-02, 4.17536544e-03, 2.08768272e-03,
          0., 8.35073087e-03, 2.08768272e-03, 0., 8.35073087e-03,
          2.08768272e-03, 0., 2.08768272e-03, 0., 0., 0., 0., 0., 0., 0.,
          0., 0., 0., 0., 0., 0., 0., 0., 0., 0., 0., 0., 0., 0., 0., 0.,
          0., 0., 0., 0., 0., 0., 0., 0., 0., 0., 0., 0., 0., 0., 0., 0.,
          0., 0., 0., 0., 0., 0., 0., 0., 0., 0., 0., 0., 0., 0., 0., 0.,
          0., 0., 0., 0., 0., 0., 0., 0., 0., 0., 0., 7.26141110e-02,
          9.54356864e-02, 1.22406647e-01, 3.52697112e-02, 8.09128657e-02,
          9.75103751e-02, 4.14937772e-02, 9.12863091e-02, 7.05394223e-02,
          2.48962678e-02, 2.48962678e-02, 3.52697112e-02, 2.07468886e-02,
          2.07468886e-02, 2.28215773e-02, 4.14937781e-03, 1.03734443e-02,
          1.45228226e-02, 1.03734443e-02, 2.69709565e-02, 1.03734443e-02,
          2.48962678e-02, 6.22406695e-03, 2.07468891e-03, 1.45228226e-02,
          0., 0., 4.14937781e-03, 2.07468891e-03, 0., 6.22406695e-03,
          2.07468891e-03, 0., 2.07468891e-03, 2.07468891e-03, 0., 0., 0.,
          0., 0., 0., 0., 0., 0., 0., 0., 0., 0., 0., 0., 0., 0., 0., 0.,
          0., 0., 0., 0., 0., 0., 0., 0., 0., 0., 0., 0., 0., 0., 0., 0.,
          0., 0., 0., 0., 0., 0., 0., 0., 0., 0., 0., 0., 0., 0., 0., 0.,
          0., 0., 0., 0., 0., 0., 0., 0., 0., 0., 0., 0., 0., 0.,
          6.58436194e-02, 1.19341560e-01, 7.40740746e-02, 8.23045224e-02,
          1.02880657e-01, 5.76131679e-02, 3.90946493e-02, 9.67078134e-02,
          3.90946493e-02, 2.46913582e-02, 1.23456791e-02, 4.93827164e-02,
          2.46913582e-02, 1.64609049e-02, 2.88065840e-02, 1.02880653e-02,
          6.17283955e-03, 1.85185187e-02, 1.23456791e-02, 3.29218097e-02,
          3.08641959e-02, 1.44032920e-02, 0., 8.23045243e-03,
          4.11522621e-03, 0., 0., 1.02880653e-02, 2.05761311e-03,
          4.11522621e-03, 2.05761311e-03, 4.11522621e-03, 0.,
          6.17283955e-03, 0., 0., 0., 0., 0., 0., 0., 0., 0., 0., 0., 0.,
          0., 0., 0., 0., 0., 0., 0., 0., 0., 0., 0., 0., 0., 0., 0., 0.,
          0., 0., 0., 0., 0., 0., 0., 0., 0., 0., 0., 0., 0., 0., 0., 0.,
          0., 0., 0., 0., 0., 0., 0., 0., 0., 0., 0., 0., 0., 0., 0., 0.,
          0., 0., 0., 0., 0., 0., 5.11363670e-02, 1.00378789e-01,
          9.09090936e-02, 6.06060624e-02, 1.25000000e-01, 5.87121248e-02,
          3.78787890e-02, 5.68181835e-02, 9.46969688e-02, 2.84090918e-02,
          2.27272734e-02, 3.78787890e-02, 2.08333340e-02, 2.46212129e-02,
          2.08333340e-02, 1.13636367e-02, 2.08333340e-02, 1.89393945e-02,
          3.78787890e-03, 2.08333340e-02, 1.70454551e-02, 1.70454551e-02,
          1.89393945e-02, 9.46969725e-03, 1.13636367e-02, 0.,
          1.89393945e-03, 3.78787890e-03, 7.57575780e-03, 1.89393945e-03,
          1.89393945e-03, 0., 1.89393945e-03, 0., 0., 0., 0., 0., 0., 0.,
          0., 0., 0., 0., 0., 0., 0., 0., 0., 0., 0., 0., 0., 0., 0., 0.,
          0., 0., 0., 0., 0., 0., 0., 0., 0., 0., 0., 0., 0., 0., 0., 0.,
          0., 0., 0., 0., 0., 0., 0., 0., 0., 0., 0., 0., 0., 0., 0., 0.,
          0., 0., 0., 0., 0., 0., 0., 0., 0., 0., 0., 0., 8.64661708e-02,
          1.05263159e-01, 1.09022558e-01, 1.01503760e-01, 1.35338351e-01,
          3.38345878e-02, 6.39097765e-02, 7.14285746e-02, 3.00751887e-02,
          7.51879718e-03, 3.75939859e-03, 1.50375944e-02, 2.25563906e-02,
          1.50375944e-02, 4.13533859e-02, 7.51879718e-03, 7.51879718e-03,
          1.50375944e-02, 2.25563906e-02, 2.63157897e-02, 3.00751887e-02,
          3.75939859e-03, 0., 3.75939859e-03, 3.75939859e-03, 0., 0.,
          1.50375944e-02, 0., 7.51879718e-03, 3.75939859e-03,
          3.75939859e-03, 0., 0., 3.75939859e-03, 0., 0., 0., 0., 0., 0.,
          0., 3.75939859e-03, 0., 0., 0., 0., 0., 0., 0., 0., 0., 0., 0.,
          0., 0., 0., 0., 0., 0., 0., 0., 0., 0., 0., 0., 0., 0., 0., 0.,
          0., 0., 0., 0., 0., 0., 0., 0., 0., 0., 0., 0., 0., 0., 0., 0.,
          0., 0., 0., 0., 0., 0., 0., 0., 0., 0., 0., 0., 0., 0.,
          3.38164233e-02, 6.76328465e-02, 1.64251208e-01, 1.44927539e-02,
          1.69082120e-01, 2.41545886e-02, 6.76328465e-02, 6.28019348e-02,
          3.86473425e-02, 0., 0., 4.83091772e-02, 3.38164233e-02,
          1.44927539e-02, 4.83091772e-02, 9.66183562e-03, 1.93236712e-02,
          1.44927539e-02, 9.66183562e-03, 5.31400964e-02, 4.34782617e-02,
          0., 2.41545886e-02, 0., 0., 0., 0., 1.93236712e-02, 0.,
          4.83091781e-03, 9.66183562e-03, 0., 0., 0., 4.83091781e-03, 0.,
          0., 0., 0., 0., 0., 0., 0., 0., 0., 0., 0., 0., 0., 0., 0., 0.,
          0., 0., 0., 0., 0., 0., 0., 0., 0., 0., 0., 0., 0., 0., 0., 0.,
          0., 0., 0., 0., 0., 0., 0., 0., 0., 0., 0., 0., 0., 0., 0., 0.,
          0., 0., 0., 0., 0., 0., 0., 0., 0., 0., 0., 0., 0., 0., 0., 0.,
          8.76288638e-02, 4.12371121e-02, 1.54639170e-01, 3.09278332e-02,
          9.79381427e-02, 5.15463911e-02, 4.12371121e-02, 1.18556701e-01,
          4.12371121e-02, 1.03092780e-02, 1.03092780e-02, 3.60824727e-02,
          3.60824727e-02, 5.15463902e-03, 2.57731955e-02, 1.03092780e-02,
          1.54639166e-02, 1.03092780e-02, 5.15463902e-03, 4.63917516e-02,
          4.63917516e-02, 5.15463902e-03, 0., 1.54639166e-02,
          5.15463902e-03, 0., 0., 1.54639166e-02, 1.03092780e-02,
          1.03092780e-02, 1.03092780e-02, 0., 0., 5.15463902e-03, 0., 0.,
          0., 0., 0., 0., 0., 0., 0., 0., 0., 0., 0., 0., 0., 0., 0., 0.,
          0., 0., 0., 0., 0., 0., 0., 0., 0., 0., 0., 0., 0., 0., 0., 0.,
          0., 0., 0., 0., 0., 0., 0., 0., 0., 0., 0., 0., 0., 0., 0., 0.,
          0., 0., 0., 0., 0., 0., 0., 0., 0., 0., 0., 0., 0., 0., 0., 0.,
          7.78032020e-02, 1.09839812e-01, 5.49199060e-02, 1.16704799e-01,
          9.38215032e-02, 6.63615540e-02, 3.20366099e-02, 8.00915286e-02,
          6.17848933e-02, 1.83066353e-02, 2.97482833e-02, 5.72082363e-02,
          1.60183050e-02, 1.37299765e-02, 2.51716226e-02, 4.57665883e-03,
          1.37299765e-02, 2.28832942e-02, 9.15331766e-03, 3.20366099e-02,
          1.14416471e-02, 9.15331766e-03, 4.57665883e-03, 6.86498825e-03,
          6.86498825e-03, 2.28832942e-03, 0., 6.86498825e-03, 0.,
          2.28832942e-03, 2.28832942e-03, 2.28832942e-03, 4.57665883e-03,
          0., 0., 0., 0., 0., 0., 0., 0., 2.28832942e-03, 0., 0., 0., 0.,
          2.28832942e-03, 0., 0., 0., 0., 0., 0., 0., 0., 0., 0., 0., 0.,
          0., 0., 0., 0., 0., 0., 0., 0., 0., 0., 0., 0., 0., 0., 0., 0.,
          0., 0., 0., 0., 0., 0., 0., 0., 0., 0., 0., 0., 0., 0., 0., 0.,
          0., 0., 0., 0., 0., 0., 0., 0., 0., 1.66304335e-01,
          8.47826079e-02, 6.95652142e-02, 6.19565174e-02, 8.47826079e-02,
          1.06521733e-01, 2.06521731e-02, 1.13043472e-01, 3.47826071e-02,
          2.93478239e-02, 4.56521735e-02, 2.39130426e-02, 2.39130426e-02,
          1.52173908e-02, 1.95652172e-02, 1.08695647e-03, 1.19565213e-02,
          8.69565178e-03, 6.52173907e-03, 7.60869542e-03, 1.63043477e-02,
          5.43478224e-03, 3.26086953e-03, 9.78260860e-03, 7.60869542e-03,
          1.08695647e-03, 1.08695647e-03, 3.26086953e-03, 5.43478224e-03,
          3.26086953e-03, 2.17391294e-03, 1.08695647e-03, 1.08695647e-03,
          2.17391294e-03, 1.08695647e-03, 0., 0., 0., 0., 0., 0., 0., 0.,
          0., 0., 0., 0., 0., 0., 0., 0., 0., 0., 0., 0., 0., 0., 0., 0.,
          0., 0., 0., 0., 0., 0., 0., 0., 0., 0., 0., 0., 0., 0., 0., 0.,
          0., 0., 0., 0., 0., 0., 0., 0., 0., 0., 0., 0., 0., 0., 0., 0.,
          0., 0., 0., 0., 0., 0., 0., 0., 0., 3.25301200e-01,
          4.21686731e-02, 7.22891539e-02, 8.43373463e-02, 1.20481923e-02,
          4.21686731e-02, 1.20481923e-02, 1.50602400e-01, 3.01204808e-02,
          1.80722885e-02, 6.02409616e-02, 4.21686731e-02, 1.80722885e-02,
          1.20481923e-02, 6.02409616e-03, 6.02409616e-03, 0., 0., 0.,
          1.20481923e-02, 6.02409616e-03, 1.80722885e-02, 0.,
          1.80722885e-02, 0., 0., 0., 0., 0., 0., 0., 0., 0.,
          1.20481923e-02, 0., 0., 0., 0., 0., 0., 0., 0., 0., 0., 0., 0.,
          0., 0., 0., 0., 0., 0., 0., 0., 0., 0., 0., 0., 0., 0., 0., 0.,
          0., 0., 0., 0., 0., 0., 0., 0., 0., 0., 0., 0., 0., 0., 0., 0.,
          0., 0., 0., 0., 0., 0., 0., 0., 0., 0., 0., 0., 0., 0., 0., 0.,
          0., 0., 0., 0., 0., 0., 1.41566262e-01, 1.00903608e-01,
          3.31325307e-02, 5.42168655e-02, 7.98192769e-02, 1.26506016e-01,
          3.01204808e-02, 8.43373463e-02, 4.96987924e-02, 1.65662654e-02,
          2.25903615e-02, 1.95783116e-02, 2.10843366e-02, 2.40963846e-02,
          2.86144577e-02, 3.01204808e-03, 2.10843366e-02, 1.65662654e-02,
          1.05421683e-02, 3.61445770e-02, 2.25903615e-02, 1.35542164e-02,
          6.02409616e-03, 1.50602404e-02, 3.01204808e-03, 0., 0.,
          1.50602404e-03, 4.51807212e-03, 3.01204808e-03, 1.50602404e-03,
          1.50602404e-03, 0., 3.01204808e-03, 1.50602404e-03, 0., 0., 0.,
          0., 0., 0., 1.50602404e-03, 0., 0., 0., 0., 0., 1.50602404e-03,
          0., 0., 0., 0., 0., 0., 0., 0., 0., 0., 0., 0., 0., 0., 0., 0.,
          0., 0., 0., 0., 0., 0., 0., 0., 0., 0., 0., 0., 0., 0., 0., 0.,
          0., 0., 0., 0., 0., 0., 0., 0., 0., 0., 0., 0., 0., 0., 0., 0.,
          0., 0., 0., 0., 5.95637597e-02, 1.66946307e-01, 2.09731553e-02,
          2.14765102e-01, 1.14932887e-01, 4.69798669e-02, 1.59395970e-02,
          7.71812052e-02, 3.85906026e-02, 2.09731553e-02, 2.85234898e-02,
          5.62080555e-02, 1.00671146e-02, 5.03355730e-03, 1.34228189e-02,
          1.67785236e-03, 9.22818761e-03, 1.00671146e-02, 3.35570471e-03,
          2.51677865e-03, 5.03355730e-03, 2.76845638e-02, 8.38926178e-04,
          2.26510074e-02, 1.00671146e-02, 0., 3.35570471e-03,
          8.38926178e-04, 3.35570471e-03, 8.38926178e-04, 1.67785236e-03,
          4.19463078e-03, 0., 8.38926178e-04, 0., 0., 0., 0., 0., 0.,
          8.38926178e-04, 8.38926178e-04, 0., 0., 0., 0., 0., 0., 0., 0.,
          0., 0., 0., 0., 0., 0., 0., 0., 0., 0., 0., 0., 0., 0., 0., 0.,
          0., 0., 0., 0., 0., 0., 0., 0., 0., 0., 0., 0., 0., 0., 0., 0.,
          0., 0., 0., 0., 0., 0., 0., 0., 0., 0., 0., 0., 0., 0., 0., 0.,
          0., 0., 2.97619049e-02, 7.44047612e-02, 1.10119052e-01,
          4.31547612e-02, 8.48214328e-02, 9.52380970e-02, 4.16666679e-02,
          9.82142910e-02, 8.03571418e-02, 2.97619049e-02, 3.72023806e-02,
          4.91071455e-02, 5.35714291e-02, 1.04166670e-02, 1.63690485e-02,
          1.19047621e-02, 1.48809527e-03, 1.33928573e-02, 2.08333340e-02,
          1.48809527e-03, 8.92857183e-03, 2.23214291e-02, 4.46428591e-03,
          5.95238106e-03, 4.46428591e-03, 4.46428591e-03, 2.97619053e-03,
          4.46428591e-03, 4.46428591e-03, 7.44047621e-03, 1.48809524e-02,
          4.46428591e-03, 1.48809527e-03, 0., 0., 1.48809527e-03, 0., 0.,
          0., 1.48809527e-03, 0., 2.97619053e-03, 0., 0., 0., 0., 0., 0.,
          0., 0., 0., 0., 0., 0., 0., 0., 0., 0., 0., 0., 0., 0., 0., 0.,
          0., 0., 0., 0., 0., 0., 0., 0., 0., 0., 0., 0., 0., 0., 0., 0.,
          0., 0., 0., 0., 0., 0., 0., 0., 0., 0., 0., 0., 0., 0., 0., 0.,
          0., 0., 0., 0., 8.11688304e-02, 7.95454532e-02, 7.46753216e-02,
          6.33116886e-02, 7.62986988e-02, 8.60389620e-02, 8.76623392e-02,
          1.72077924e-01, 3.89610380e-02, 2.43506487e-02, 2.92207785e-02,
          2.59740259e-02, 1.13636367e-02, 4.87012975e-03, 4.87012975e-03,
          8.11688323e-03, 8.11688323e-03, 1.94805190e-02, 2.11038962e-02,
          1.94805190e-02, 1.29870130e-02, 1.29870130e-02, 6.49350649e-03,
          6.49350649e-03, 1.62337662e-03, 1.62337662e-03, 0.,
          3.24675324e-03, 3.24675324e-03, 0., 8.11688323e-03, 0.,
          3.24675324e-03, 3.24675324e-03, 0., 0., 0., 0., 0., 0., 0., 0.,
          0., 0., 0., 0., 0., 0., 0., 0., 0., 0., 0., 0., 0., 0., 0., 0.,
          0., 0., 0., 0., 0., 0., 0., 0., 0., 0., 0., 0., 0., 0., 0., 0.,
          0., 0., 0., 0., 0., 0., 0., 0., 0., 0., 0., 0., 0., 0., 0., 0.,
          0., 0., 0., 0., 0., 0., 0., 0., 0., 0., 4.77707013e-02,
          1.41719744e-01, 2.54777074e-02, 1.56050950e-01, 9.55414027e-02,
          8.28025490e-02, 2.54777074e-02, 1.19426757e-01, 4.29936312e-02,
          2.54777074e-02, 2.86624208e-02, 5.41401282e-02, 7.96178356e-03,
          2.86624208e-02, 1.43312104e-02, 1.59235671e-03, 1.59235671e-02,
          1.59235671e-02, 3.18471342e-03, 4.77707013e-03, 4.77707013e-03,
          1.59235671e-02, 1.59235671e-03, 1.11464970e-02, 1.75159238e-02,
          0., 0., 3.18471342e-03, 3.18471342e-03, 3.18471342e-03, 0.,
          1.59235671e-03, 0., 0., 0., 0., 0., 0., 0., 0., 0., 0., 0., 0.,
          0., 0., 0., 0., 0., 0., 0., 0., 0., 0., 0., 0., 0., 0., 0., 0.,
          0., 0., 0., 0., 0., 0., 0., 0., 0., 0., 0., 0., 0., 0., 0., 0.,
          0., 0., 0., 0., 0., 0., 0., 0., 0., 0., 0., 0., 0., 0., 0., 0.,
          0., 0., 0., 0., 0., 0., 0., 0., 1.87898099e-01, 4.45859879e-02,
          1.36942685e-01, 5.09554148e-02, 2.86624208e-02, 8.59872624e-02,
          1.59235671e-02, 1.30573243e-01, 6.05095550e-02, 3.82165611e-02,
          6.05095550e-02, 2.22929940e-02, 3.18471342e-02, 1.59235671e-02,
          0., 3.18471342e-03, 9.55414027e-03, 1.27388537e-02, 0., 0., 0.,
          2.22929940e-02, 1.27388537e-02, 3.18471342e-03, 3.18471342e-03,
          0., 0., 3.18471342e-03, 1.27388537e-02, 0., 6.36942685e-03, 0.,
          0., 0., 0., 0., 0., 0., 0., 0., 0., 0., 0., 0., 0., 0., 0., 0.,
          0., 0., 0., 0., 0., 0., 0., 0., 0., 0., 0., 0., 0., 0., 0., 0.,
          0., 0., 0., 0., 0., 0., 0., 0., 0., 0., 0., 0., 0., 0., 0., 0.,
          0., 0., 0., 0., 0., 0., 0., 0., 0., 0., 0., 0., 0., 0., 0., 0.,
          0., 0., 0., 0., 1.06870227e-01, 1.37404576e-01, 5.72519079e-02,
          1.04961835e-01, 1.10687025e-01, 4.77099232e-02, 1.90839693e-02,
          8.39694664e-02, 4.19847332e-02, 1.52671756e-02, 2.67175566e-02,
          3.81679386e-02, 1.33587783e-02, 2.09923666e-02, 1.14503819e-02,
          0., 2.67175566e-02, 9.54198465e-03, 1.90839695e-03,
          2.86259539e-02, 2.86259539e-02, 1.33587783e-02, 1.90839695e-03,
          2.86259539e-02, 3.81679391e-03, 1.90839695e-03, 3.81679391e-03,
          0., 1.90839695e-03, 1.90839695e-03, 3.81679391e-03,
          1.90839695e-03, 0., 5.72519097e-03, 0., 0., 0., 0., 0., 0., 0.,
          0., 0., 0., 0., 0., 0., 0., 0., 0., 0., 0., 0., 0., 0., 0., 0.,
          0., 0., 0., 0., 0., 0., 0., 0., 0., 0., 0., 0., 0., 0., 0., 0.,
          0., 0., 0., 0., 0., 0., 0., 0., 0., 0., 0., 0., 0., 0., 0., 0.,
          0., 0., 0., 0., 0., 0., 0., 0., 0., 0., 0., 9.21052620e-02,
          1.09649122e-01, 5.99415228e-02, 8.77192989e-02, 1.06725149e-01,
          8.04093555e-02, 2.63157897e-02, 1.15497075e-01, 4.82456163e-02,
          2.77777780e-02, 4.38596494e-02, 3.36257294e-02, 1.16959065e-02,
          1.31578948e-02, 1.31578948e-02, 2.92397663e-03, 1.31578948e-02,
          7.30994157e-03, 4.38596494e-03, 1.31578948e-02, 1.60818715e-02,
          1.90058481e-02, 5.84795326e-03, 1.60818715e-02, 8.77192989e-03,
          1.46198831e-03, 0., 4.38596494e-03, 7.30994157e-03,
          1.46198831e-03, 4.38596494e-03, 0., 0., 1.46198831e-03,
          2.92397663e-03, 0., 0., 0., 0., 0., 0., 0., 0., 0., 0., 0., 0.,
          0., 0., 0., 0., 0., 0., 0., 0., 0., 0., 0., 0., 0., 0., 0., 0.,
          0., 0., 0., 0., 0., 0., 0., 0., 0., 0., 0., 0., 0., 0., 0., 0.,
          0., 0., 0., 0., 0., 0., 0., 0., 0., 0., 0., 0., 0., 0., 0., 0.,
          0., 0., 0., 0., 0., 2.44532794e-01, 8.74751434e-02,
          5.96421435e-02, 6.16302155e-02, 3.37972157e-02, 7.75347874e-02,
          4.77137156e-02, 1.98807150e-01, 1.78926438e-02, 2.58449297e-02,
          3.97614315e-02, 1.78926438e-02, 5.96421445e-03, 1.39164999e-02,
          7.95228593e-03, 7.95228593e-03, 0., 5.96421445e-03,
          1.98807148e-03, 1.98807148e-03, 1.59045719e-02, 1.19284289e-02,
          0., 1.98807148e-03, 0., 0., 1.98807148e-03, 0., 1.98807148e-03,
          0., 0., 0., 0., 5.96421445e-03, 0., 0., 0., 0., 0.,
          1.98807148e-03, 0., 0., 0., 0., 0., 0., 0., 0., 0., 0., 0., 0.,
          0., 0., 0., 0., 0., 0., 0., 0., 0., 0., 0., 0., 0., 0., 0., 0.,
          0., 0., 0., 0., 0., 0., 0., 0., 0., 0., 0., 0., 0., 0., 0., 0.,
          0., 0., 0., 0., 0., 0., 0., 0., 0., 0., 0., 0., 0., 0., 0., 0.,
          2.02140305e-02, 6.89655170e-02, 2.17598096e-01, 2.14030910e-02,
          1.05826393e-01, 2.25921515e-02, 2.25921515e-02, 3.68608795e-02,
          5.23186661e-02, 1.30796665e-02, 4.04280610e-02, 7.01545775e-02,
          4.51843031e-02, 1.66468490e-02, 1.18906060e-02, 1.66468490e-02,
          9.51248500e-03, 1.78359095e-02, 3.56718199e-03, 6.30202144e-02,
          7.01545775e-02, 1.18906060e-02, 0., 4.75624250e-03,
          3.56718199e-03, 0., 2.37812125e-03, 0., 1.07015455e-02,
          7.13436399e-03, 5.94530301e-03, 1.18906063e-03, 2.37812125e-03,
          0., 0., 0., 0., 0., 0., 0., 0., 2.37812125e-03, 0., 0., 0.,
          1.18906063e-03, 0., 0., 0., 0., 0., 0., 0., 0., 0., 0., 0., 0.,
          0., 0., 0., 0., 0., 0., 0., 0., 0., 0., 0., 0., 0., 0., 0., 0.,
          0., 0., 0., 0., 0., 0., 0., 0., 0., 0., 0., 0., 0., 0., 0., 0.,
          0., 0., 0., 0., 0., 0., 0., 0., 0., 0., 7.75193796e-02,
          8.33333358e-02, 8.91472846e-02, 2.90697664e-02, 1.13372095e-01,
          7.07364306e-02, 3.58527116e-02, 1.03682168e-01, 6.58914745e-02,
          2.51937993e-02, 2.61627901e-02, 4.16666679e-02, 4.65116277e-02,
          1.16279069e-02, 2.61627901e-02, 8.72093067e-03, 2.90697673e-03,
          1.16279069e-02, 6.78294571e-03, 3.00387591e-02, 2.81007756e-02,
          1.35658914e-02, 5.81395347e-03, 4.84496122e-03, 6.78294571e-03,
          9.68992244e-04, 0., 4.84496122e-03, 5.81395347e-03,
          4.84496122e-03, 8.72093067e-03, 2.90697673e-03, 9.68992244e-04,
          2.90697673e-03, 0., 0., 0., 0., 9.68992244e-04, 0., 0.,
          9.68992244e-04, 0., 0., 0., 0., 0., 0., 0., 0., 0., 0., 0., 0.,
          0., 0., 0., 0., 0., 9.68992244e-04, 0., 0., 0., 0., 0., 0., 0.,
          0., 0., 0., 0., 0., 0., 0., 0., 0., 0., 0., 0., 0., 0., 0., 0.,
          0., 0., 0., 0., 0., 0., 0., 0., 0., 0., 0., 0., 0., 0., 0., 0.,
          0., 4.90018167e-02, 5.26315793e-02, 1.86932847e-01,
          4.90018167e-02, 1.03448279e-01, 4.71869335e-02, 4.53720503e-02,
          7.25952834e-02, 5.62613420e-02, 3.08529940e-02, 1.27041740e-02,
          5.80762252e-02, 3.62976417e-02, 1.45190563e-02, 3.44827585e-02,
          1.99637022e-02, 5.44464588e-03, 1.81488208e-02, 2.72232313e-02,
          5.44464588e-03, 1.27041740e-02, 1.08892918e-02, 7.25952815e-03,
          7.25952815e-03, 7.25952815e-03, 0., 1.81488204e-03,
          5.44464588e-03, 0., 7.25952815e-03, 1.45190563e-02, 0., 0., 0.,
          0., 0., 0., 0., 0., 0., 0., 0., 0., 0., 0., 0., 0., 0., 0., 0.,
          0., 0., 0., 0., 0., 0., 0., 0., 0., 0., 0., 0., 0., 0., 0., 0.,
          0., 0., 0., 0., 0., 0., 0., 0., 0., 0., 0., 0., 0., 0., 0., 0.,
          0., 0., 0., 0., 0., 0., 0., 0., 0., 0., 0., 0., 0., 0., 0., 0.,
          0., 0., 4.03726697e-02, 1.27329201e-01, 9.93788838e-02,
          4.03726697e-02, 1.49068326e-01, 5.90062141e-02, 3.41614932e-02,
          5.59006222e-02, 8.38509351e-02, 2.79503111e-02, 4.03726697e-02,
          5.90062141e-02, 1.86335407e-02, 2.48447210e-02, 4.34782617e-02,
          9.31677036e-03, 6.21118024e-03, 6.21118024e-03, 1.55279506e-02,
          0., 1.24223605e-02, 1.55279506e-02, 3.10559012e-03,
          3.10559012e-03, 3.10559012e-03, 3.10559012e-03, 0.,
          9.31677036e-03, 0., 3.10559012e-03, 6.21118024e-03, 0., 0., 0.,
          0., 0., 0., 0., 0., 0., 0., 0., 0., 0., 0., 0., 0., 0., 0., 0.,
          0., 0., 0., 0., 0., 0., 0., 0., 0., 0., 0., 0., 0., 0., 0., 0.,
          0., 0., 0., 0., 0., 0., 0., 0., 0., 0., 0., 0., 0., 0., 0., 0.,
          0., 0., 0., 0., 0., 0., 0., 0., 0., 0., 0., 0., 0., 0., 0., 0.,
          0., 0. ]
   responses: !!opencv-matrix
      rows: 75
      cols: 1
      dt: f
      data: [ 0., 0., 0., 0., 0., 0., 0., 0., 0., 0., 0., 0., 0., 0., 0.,
          1., 1., 1., 1., 1., 1., 1., 1., 1., 1., 1., 1., 1., 1., 1., 2.,
          2., 2., 2., 2., 2., 2., 2., 2., 2., 2., 2., 2., 2., 2., 3., 3.,
          3., 3., 3., 3., 3., 3., 3., 3., 3., 3., 3., 3., 3., 4., 4., 4.,
          4., 4., 4., 4., 4., 4., 4., 4., 4., 4., 4., 4. ]
