%YAML:1.0
---
opencv_ml_knn:
   format: 3
   is_classifier: 1
   default_k: 10
   samples: !!opencv-matrix
      rows: 30
      cols: 100
      dt: f
      data: [ 9.30232555e-02, 1.62790701e-01, 4.65116277e-02,
          4.65116277e-02, 1.04651161e-01, 6.97674453e-02, 1.16279066e-01,
          4.65116277e-02, 3.48837227e-02, 5.81395328e-02, 4.65116277e-02,
          0., 6.97674453e-02, 0., 1.16279069e-02, 1.16279069e-02, 0.,
          2.32558139e-02, 1.16279069e-02, 1.16279069e-02, 0., 0., 0., 0.,
          0., 2.32558139e-02, 0., 0., 0., 0., 0., 1.16279069e-02, 0., 0.,
          0., 0., 0., 0., 0., 0., 0., 0., 0., 0., 0., 0., 0., 0., 0., 0.,
          0., 0., 0., 0., 0., 0., 0., 0., 0., 0., 0., 0., 0., 0., 0., 0.,
          0., 0., 0., 0., 0., 0., 0., 0., 0., 0., 0., 0., 0., 0., 0., 0.,
          0., 0., 0., 0., 0., 0., 0., 0., 0., 0., 0., 0., 0., 0., 0., 0.,
          0., 0., 5.42168655e-02, 1.80722892e-01, 4.21686731e-02,
          7.22891539e-02, 6.62650615e-02, 3.61445770e-02, 1.02409631e-01,
          9.63855386e-02, 5.42168655e-02, 3.01204808e-02, 6.62650615e-02,
          1.80722885e-02, 5.42168655e-02, 1.20481923e-02, 0.,
          3.01204808e-02, 6.02409616e-03, 1.20481923e-02, 6.02409616e-03,
          0., 0., 2.40963846e-02, 0., 0., 0., 1.20481923e-02, 0., 0., 0.,
          0., 0., 6.02409616e-03, 6.02409616e-03, 6.02409616e-03, 0.,
          6.02409616e-03, 0., 0., 0., 0., 0., 0., 0., 0., 0., 0., 0., 0.,
          0., 0., 0., 0., 0., 0., 0., 0., 0., 0., 0., 0., 0., 0., 0., 0.,
          0., 0., 0., 0., 0., 0., 0., 0., 0., 0., 0., 0., 0., 0., 0., 0.,
          0., 0., 0., 0., 0., 0., 0., 0., 0., 0., 0., 0., 0., 0., 0., 0.,
          0., 0., 0., 0., 1.27753302e-01, 2.20264316e-01, 5.72687201e-02,
          9.69162956e-02, 5.72687201e-02, 3.52422893e-02, 3.08370031e-02,
          4.84581478e-02, 4.40528616e-02, 3.08370031e-02, 2.64317170e-02,
          1.32158585e-02, 3.96475755e-02, 2.20264308e-02, 2.64317170e-02,
          4.40528616e-03, 1.76211447e-02, 2.64317170e-02, 4.84581478e-02,
          0., 0., 1.32158585e-02, 0., 0., 0., 4.40528616e-03,
          4.40528616e-03, 0., 0., 0., 0., 0., 0., 0., 4.40528616e-03, 0.,
          0., 0., 0., 0., 0., 0., 0., 0., 0., 0., 0., 0., 0., 0., 0., 0.,
          0., 0., 0., 0., 0., 0., 0., 0., 0., 0., 0., 0., 0., 0., 0., 0.,
          0., 0., 0., 0., 0., 0., 0., 0., 0., 0., 0., 0., 0., 0., 0., 0.,
          0., 0., 0., 0., 0., 0., 0., 0., 0., 0., 0., 0., 0., 0., 0., 0.,
          5.10204062e-02, 1.32653058e-01, 6.12244904e-02, 1.22448981e-01,
          9.18367356e-02, 3.06122452e-02, 1.63265303e-01, 5.10204062e-02,
          0., 3.06122452e-02, 5.10204062e-02, 1.02040814e-02,
          7.14285672e-02, 0., 0., 1.02040814e-02, 1.02040814e-02,
          3.06122452e-02, 4.08163257e-02, 3.06122452e-02, 0., 0., 0., 0.,
          0., 0., 0., 0., 0., 0., 1.02040814e-02, 0., 0., 0., 0., 0., 0.,
          0., 0., 0., 0., 0., 0., 0., 0., 0., 0., 0., 0., 0., 0., 0., 0.,
          0., 0., 0., 0., 0., 0., 0., 0., 0., 0., 0., 0., 0., 0., 0., 0.,
          0., 0., 0., 0., 0., 0., 0., 0., 0., 0., 0., 0., 0., 0., 0., 0.,
          0., 0., 0., 0., 0., 0., 0., 0., 0., 0., 0., 0., 0., 0., 0.,
          9.57446769e-02, 8.51063803e-02, 5.31914867e-02, 6.38297871e-02,
          5.31914867e-02, 1.17021270e-01, 1.06382973e-01, 5.31914867e-02,
          3.19148935e-02, 6.38297871e-02, 4.25531901e-02, 0.,
          5.31914867e-02, 2.12765951e-02, 3.19148935e-02, 0.,
          2.12765951e-02, 5.31914867e-02, 2.12765951e-02, 0., 0., 0., 0.,
          0., 0., 1.06382975e-02, 0., 0., 0., 0., 2.12765951e-02, 0., 0.,
          0., 0., 0., 0., 0., 0., 0., 0., 0., 0., 0., 0., 0., 0., 0., 0.,
          0., 0., 0., 0., 0., 0., 0., 0., 0., 0., 0., 0., 0., 0., 0., 0.,
          0., 0., 0., 0., 0., 0., 0., 0., 0., 0., 0., 0., 0., 0., 0., 0.,
          0., 0., 0., 0., 0., 0., 0., 0., 0., 0., 0., 0., 0., 0., 0., 0.,
          0., 0., 0., 1.00529097e-01, 1.00529097e-01, 7.93650746e-02,
          1.00529097e-01, 7.93650746e-02, 7.93650746e-02, 6.34920597e-02,
          5.29100522e-02, 9.52380896e-02, 4.76190448e-02, 3.70370373e-02,
          5.29100513e-03, 2.11640205e-02, 5.29100513e-03, 1.58730149e-02,
          5.29100513e-03, 5.29100513e-03, 4.23280410e-02, 2.11640205e-02,
          1.05820103e-02, 1.58730149e-02, 0., 0., 0., 0., 5.29100513e-03,
          0., 0., 0., 0., 5.29100513e-03, 0., 0., 5.29100513e-03, 0., 0.,
          0., 0., 0., 0., 0., 0., 0., 0., 0., 0., 0., 0., 0., 0., 0., 0.,
          0., 0., 0., 0., 0., 0., 0., 0., 0., 0., 0., 0., 0., 0., 0., 0.,
          0., 0., 0., 0., 0., 0., 0., 0., 0., 0., 0., 0., 0., 0., 0., 0.,
          0., 0., 0., 0., 0., 0., 0., 0., 0., 0., 0., 0., 0., 0., 0., 0.,
          1.56716421e-01, 6.71641752e-02, 5.22388034e-02, 1.71641782e-01,
          1.19402982e-01, 4.47761193e-02, 5.22388034e-02, 7.46268630e-02,
          2.98507456e-02, 1.49253728e-02, 8.95522386e-02, 0.,
          2.23880596e-02, 0., 0., 1.49253728e-02, 7.46268639e-03,
          2.98507456e-02, 1.49253728e-02, 0., 1.49253728e-02,
          7.46268639e-03, 0., 7.46268639e-03, 0., 0., 0., 0., 0., 0., 0.,
          0., 0., 0., 0., 0., 0., 0., 0., 0., 0., 7.46268639e-03, 0., 0.,
          0., 0., 0., 0., 0., 0., 0., 0., 0., 0., 0., 0., 0., 0., 0., 0.,
          0., 0., 0., 0., 0., 0., 0., 0., 0., 0., 0., 0., 0., 0., 0., 0.,
          0., 0., 0., 0., 0., 0., 0., 0., 0., 0., 0., 0., 0., 0., 0., 0.,
          0., 0., 0., 0., 0., 0., 0., 0., 1.13702625e-01, 1.57434404e-01,
          4.37317789e-02, 2.33236160e-02, 1.04956269e-01, 5.24781346e-02,
          3.79008763e-02, 8.74635577e-02, 6.70553967e-02, 3.49854231e-02,
          5.53935878e-02, 1.74927115e-02, 4.66472320e-02, 1.74927115e-02,
          1.16618080e-02, 2.91545200e-03, 1.16618080e-02, 2.91545205e-02,
          1.74927115e-02, 8.74635577e-03, 1.74927115e-02, 8.74635577e-03,
          0., 0., 0., 1.16618080e-02, 5.83090400e-03, 0., 0., 0.,
          8.74635577e-03, 2.91545200e-03, 2.91545200e-03, 0., 0., 0., 0.,
          0., 0., 0., 0., 0., 0., 0., 0., 0., 0., 0., 0., 0., 0., 0., 0.,
          0., 0., 0., 0., 0., 0., 0., 0., 0., 0., 0., 0., 0., 0., 0., 0.,
          0., 0., 0., 0., 0., 0., 0., 0., 0., 0., 0., 0., 0., 0., 0., 0.,
          0., 0., 0., 0., 0., 0., 0., 0., 0., 0., 0., 0., 0., 0., 0.,
          9.37500000e-02, 8.33333358e-02, 6.25000000e-02, 1.14583336e-01,
          1.04166670e-02, 9.37500000e-02, 9.37500000e-02, 5.20833358e-02,
          8.33333358e-02, 7.29166716e-02, 6.25000000e-02, 0.,
          5.20833358e-02, 3.12500000e-02, 1.04166670e-02, 1.04166670e-02,
          0., 3.12500000e-02, 1.04166670e-02, 1.04166670e-02, 0.,
          2.08333340e-02, 0., 0., 0., 0., 0., 0., 0., 0., 0., 0., 0., 0.,
          0., 0., 0., 0., 0., 0., 0., 0., 0., 0., 0., 0., 0., 0., 0., 0.,
          0., 0., 0., 0., 0., 0., 0., 0., 0., 0., 0., 0., 0., 0., 0., 0.,
          0., 0., 0., 0., 0., 0., 0., 0., 0., 0., 0., 0., 0., 0., 0., 0.,
          0., 0., 0., 0., 0., 0., 0., 0., 0., 0., 0., 0., 0., 0., 0., 0.,
          0., 0., 4.04040404e-02, 6.06060624e-02, 3.03030312e-02,
          1.01010099e-01, 1.11111112e-01, 1.11111112e-01, 1.41414136e-01,
          8.08080807e-02, 5.05050495e-02, 7.07070678e-02, 2.02020202e-02,
          1.01010101e-02, 2.02020202e-02, 1.01010101e-02, 1.01010101e-02,
          0., 0., 4.04040404e-02, 6.06060624e-02, 0., 0., 0., 0., 0., 0.,
          0., 1.01010101e-02, 0., 0., 0., 0., 1.01010101e-02, 0.,
          1.01010101e-02, 0., 0., 0., 0., 0., 0., 0., 0., 0., 0., 0., 0.,
          0., 0., 0., 0., 0., 0., 0., 0., 0., 0., 0., 0., 0., 0., 0., 0.,
          0., 0., 0., 0., 0., 0., 0., 0., 0., 0., 0., 0., 0., 0., 0., 0.,
          0., 0., 0., 0., 0., 0., 0., 0., 0., 0., 0., 0., 0., 0., 0., 0.,
          0., 0., 0., 0., 0., 0., 1.06060609e-01, 1.51515156e-02,
          1.06060609e-01, 1.06060609e-01, 1.06060609e-01, 9.09090936e-02,
          1.96969703e-01, 0., 6.06060624e-02, 1.51515156e-02,
          7.57575780e-02, 0., 0., 0., 1.51515156e-02, 0., 3.03030312e-02,
          3.03030312e-02, 1.51515156e-02, 0., 1.51515156e-02, 0., 0., 0.,
          0., 0., 1.51515156e-02, 0., 0., 0., 0., 0., 0., 0., 0., 0., 0.,
          0., 0., 0., 0., 0., 0., 0., 0., 0., 0., 0., 0., 0., 0., 0., 0.,
          0., 0., 0., 0., 0., 0., 0., 0., 0., 0., 0., 0., 0., 0., 0., 0.,
          0., 0., 0., 0., 0., 0., 0., 0., 0., 0., 0., 0., 0., 0., 0., 0.,
          0., 0., 0., 0., 0., 0., 0., 0., 0., 0., 0., 0., 0., 0., 0.,
          7.26495758e-02, 2.00854704e-01, 7.26495758e-02, 3.84615399e-02,
          7.26495758e-02, 2.13675220e-02, 8.54700878e-02, 7.26495758e-02,
          6.41025677e-02, 1.28205139e-02, 5.12820557e-02, 8.54700897e-03,
          4.70085479e-02, 2.56410278e-02, 1.70940179e-02, 8.54700897e-03,
          8.54700897e-03, 4.27350439e-02, 1.70940179e-02, 8.54700897e-03,
          2.13675220e-02, 0., 0., 0., 0., 8.54700897e-03, 0.,
          4.27350448e-03, 0., 4.27350448e-03, 0., 0., 4.27350448e-03, 0.,
          4.27350448e-03, 0., 0., 0., 0., 0., 0., 0., 0., 0., 0., 0.,
          4.27350448e-03, 0., 0., 0., 0., 0., 0., 0., 0., 0., 0., 0., 0.,
          0., 0., 0., 0., 0., 0., 0., 0., 0., 0., 0., 0., 0., 0., 0., 0.,
          0., 0., 0., 0., 0., 0., 0., 0., 0., 0., 0., 0., 0., 0., 0., 0.,
          0., 0., 0., 0., 0., 0., 0., 0., 0., 4.89130430e-02,
          2.71739125e-01, 7.06521720e-02, 4.89130430e-02, 2.71739140e-02,
          5.43478280e-02, 5.97826093e-02, 7.06521720e-02, 5.43478280e-02,
          4.34782617e-02, 2.71739140e-02, 5.43478271e-03, 8.69565234e-02,
          1.08695654e-02, 2.71739140e-02, 5.43478271e-03, 5.43478271e-03,
          1.08695654e-02, 1.63043477e-02, 1.63043477e-02, 0.,
          5.43478271e-03, 0., 1.08695654e-02, 0., 0., 0., 0., 0., 0.,
          5.43478271e-03, 5.43478271e-03, 5.43478271e-03, 5.43478271e-03,
          0., 0., 0., 0., 0., 0., 0., 0., 0., 0., 0., 0., 0., 0., 0., 0.,
          0., 0., 0., 0., 0., 0., 0., 0., 0., 0., 0., 0., 0., 0., 0., 0.,
          0., 0., 0., 0., 0., 0., 0., 0., 0., 0., 0., 0., 0., 0., 0., 0.,
          0., 0., 0., 0., 0., 0., 0., 0., 0., 0., 0., 0., 0., 0., 0., 0.,
          0., 0., 9.09090862e-02, 2.77511954e-01, 6.22009560e-02,
          9.09090862e-02, 6.69856444e-02, 5.74162677e-02, 3.82775106e-02,
          3.82775106e-02, 1.91387553e-02, 1.43540669e-02, 5.26315756e-02,
          9.56937764e-03, 6.69856444e-02, 4.78468882e-03, 1.43540669e-02,
          4.78468882e-03, 4.78468882e-03, 2.39234436e-02, 2.39234436e-02,
          4.78468882e-03, 2.39234436e-02, 0., 0., 0., 0., 0., 0., 0., 0.,
          4.78468882e-03, 0., 0., 0., 0., 0., 0., 0., 0., 0., 0., 0., 0.,
          0., 0., 0., 0., 4.78468882e-03, 0., 0., 0., 0., 0., 0., 0., 0.,
          0., 0., 0., 0., 0., 0., 0., 0., 0., 0., 0., 0., 0., 0., 0., 0.,
          0., 0., 0., 0., 0., 0., 0., 0., 0., 0., 0., 0., 0., 0., 0., 0.,
          0., 0., 0., 0., 0., 0., 0., 0., 0., 0., 0., 0., 0.,
          7.69230798e-02, 4.61538471e-02, 4.61538471e-02, 1.23076923e-01,
          1.53846154e-02, 7.69230798e-02, 1.53846160e-01, 0.,
          7.69230798e-02, 4.61538471e-02, 7.69230798e-02, 1.53846154e-02,
          0., 3.07692308e-02, 0., 3.07692308e-02, 0., 1.23076923e-01,
          6.15384616e-02, 0., 0., 0., 0., 0., 0., 0., 0., 0., 0., 0., 0.,
          0., 0., 0., 0., 0., 0., 0., 0., 0., 0., 0., 0., 0., 0., 0., 0.,
          0., 0., 0., 0., 0., 0., 0., 0., 0., 0., 0., 0., 0., 0., 0., 0.,
          0., 0., 0., 0., 0., 0., 0., 0., 0., 0., 0., 0., 0., 0., 0., 0.,
          0., 0., 0., 0., 0., 0., 0., 0., 0., 0., 0., 0., 0., 0., 0., 0.,
          0., 0., 0., 0., 0., 5.92592619e-02, 1.40740752e-01,
          3.95061746e-02, 1.72839519e-02, 1.13580249e-01, 4.19753119e-02,
          1.08641982e-01, 8.88888910e-02, 4.69135828e-02, 4.93827164e-02,
          5.92592619e-02, 9.87654366e-03, 4.44444455e-02, 1.23456791e-02,
          7.40740774e-03, 1.23456791e-02, 4.93827183e-03, 7.65432119e-02,
          3.45679037e-02, 7.40740774e-03, 4.93827183e-03, 4.93827183e-03,
          0., 0., 2.46913591e-03, 4.93827183e-03, 0., 0., 0., 0., 0.,
          2.46913591e-03, 2.46913591e-03, 0., 0., 0., 0., 0., 0., 0., 0.,
          0., 0., 0., 0., 0., 2.46913591e-03, 0., 0., 0., 0., 0., 0., 0.,
          0., 0., 0., 0., 0., 0., 0., 0., 0., 0., 0., 0., 0., 0., 0., 0.,
          0., 0., 0., 0., 0., 0., 0., 0., 0., 0., 0., 0., 0., 0., 0., 0.,
          0., 0., 0., 0., 0., 0., 0., 0., 0., 0., 0., 0., 0., 0.,
          1.17302053e-01, 8.50439891e-02, 5.27859256e-02, 6.74486831e-02,
          8.21114331e-02, 8.21114331e-02, 6.45161271e-02, 1.02639295e-01,
          9.09090936e-02, 4.98533733e-02, 4.39882688e-02, 0.,
          3.81231681e-02, 1.17302053e-02, 1.46627566e-02, 1.17302053e-02,
          5.86510263e-03, 3.81231681e-02, 0., 2.93255132e-03,
          5.86510263e-03, 5.86510263e-03, 0., 5.86510263e-03, 0.,
          2.93255132e-03, 2.93255132e-03, 0., 0., 0., 0., 2.93255132e-03,
          0., 0., 2.93255132e-03, 0., 0., 0., 5.86510263e-03, 0., 0., 0.,
          0., 0., 0., 0., 0., 2.93255132e-03, 0., 0., 0., 0., 0., 0., 0.,
          0., 0., 0., 0., 0., 0., 0., 0., 0., 0., 0., 0., 0., 0., 0., 0.,
          0., 0., 0., 0., 0., 0., 0., 0., 0., 0., 0., 0., 0., 0., 0., 0.,
          0., 0., 0., 0., 0., 0., 0., 0., 0., 0., 0., 0., 0.,
          1.26294002e-01, 1.32505178e-01, 9.31677073e-02, 2.89855078e-02,
          8.69565234e-02, 3.51966880e-02, 6.21118024e-02, 7.45341629e-02,
          6.83229864e-02, 7.24637657e-02, 4.96894419e-02, 1.44927539e-02,
          2.07039341e-02, 1.03519671e-02, 1.65631473e-02, 1.24223605e-02,
          1.44927539e-02, 2.27743275e-02, 1.24223605e-02, 2.07039341e-03,
          8.28157365e-03, 4.14078683e-03, 0., 0., 0., 6.21118024e-03, 0.,
          4.14078683e-03, 0., 0., 0., 6.21118024e-03, 6.21118024e-03, 0.,
          4.14078683e-03, 0., 0., 0., 0., 0., 0., 0., 0., 0., 0., 0.,
          2.07039341e-03, 0., 0., 2.07039341e-03, 0., 0., 0., 0., 0., 0.,
          0., 0., 0., 0., 0., 0., 0., 0., 0., 0., 0., 0., 0., 0., 0., 0.,
          0., 0., 0., 0., 0., 0., 0., 0., 0., 0., 0., 0., 0., 0., 0., 0.,
          0., 0., 0., 0., 0., 0., 0., 0., 0., 0., 0., 0., 8.70370343e-02,
          7.22222179e-02, 5.74074052e-02, 4.25925925e-02, 7.96296299e-02,
          6.66666627e-02, 1.18518516e-01, 6.11111112e-02, 1.14814810e-01,
          5.74074052e-02, 6.85185194e-02, 1.29629625e-02, 2.77777780e-02,
          1.66666657e-02, 7.40740728e-03, 5.55555522e-03, 7.40740728e-03,
          4.07407396e-02, 2.40740739e-02, 9.25925933e-03, 7.40740728e-03,
          1.85185182e-03, 0., 0., 0., 5.55555522e-03, 3.70370364e-03, 0.,
          0., 0., 0., 0., 1.85185182e-03, 1.85185182e-03, 0., 0., 0., 0.,
          0., 0., 0., 0., 0., 0., 0., 0., 0., 0., 0., 0., 0., 0., 0., 0.,
          0., 0., 0., 0., 0., 0., 0., 0., 0., 0., 0., 0., 0., 0., 0., 0.,
          0., 0., 0., 0., 0., 0., 0., 0., 0., 0., 0., 0., 0., 0., 0., 0.,
          0., 0., 0., 0., 0., 0., 0., 0., 0., 0., 0., 0., 0., 0.,
          1.48809522e-01, 1.93452388e-01, 3.57142873e-02, 3.27380970e-02,
          5.65476194e-02, 8.03571418e-02, 4.46428582e-02, 6.54761940e-02,
          5.05952388e-02, 2.08333340e-02, 5.65476194e-02, 1.48809524e-02,
          5.65476194e-02, 1.48809524e-02, 5.95238106e-03, 2.97619053e-03,
          5.95238106e-03, 2.67857146e-02, 2.67857146e-02, 2.97619053e-03,
          1.78571437e-02, 2.97619053e-03, 0., 2.97619053e-03, 0., 0.,
          8.92857183e-03, 2.97619053e-03, 0., 0., 8.92857183e-03,
          5.95238106e-03, 2.97619053e-03, 0., 0., 0., 0., 0., 0., 0., 0.,
          0., 0., 0., 0., 0., 0., 0., 0., 2.97619053e-03, 0., 0., 0., 0.,
          0., 0., 0., 0., 0., 0., 0., 0., 0., 0., 0., 0., 0., 0., 0., 0.,
          0., 0., 0., 0., 0., 0., 0., 0., 0., 0., 0., 0., 0., 0., 0., 0.,
          0., 0., 0., 0., 0., 0., 0., 0., 0., 0., 0., 0., 0., 0.,
          2.43161097e-01, 1.51975691e-01, 1.21580549e-01, 3.03951371e-02,
          5.77507615e-02, 4.25531939e-02, 2.73556225e-02, 6.68693036e-02,
          4.86322194e-02, 2.43161097e-02, 4.25531939e-02, 1.82370823e-02,
          4.25531939e-02, 1.21580549e-02, 3.03951371e-03, 9.11854114e-03,
          9.11854114e-03, 1.51975686e-02, 3.03951371e-03, 1.21580549e-02,
          6.07902743e-03, 3.03951371e-03, 0., 0., 0., 0., 6.07902743e-03,
          0., 0., 0., 0., 0., 0., 0., 0., 0., 0., 0., 0., 0., 0., 0., 0.,
          0., 0., 0., 3.03951371e-03, 0., 0., 0., 0., 0., 0., 0., 0., 0.,
          0., 0., 0., 0., 0., 0., 0., 0., 0., 0., 0., 0., 0., 0., 0., 0.,
          0., 0., 0., 0., 0., 0., 0., 0., 0., 0., 0., 0., 0., 0., 0., 0.,
          0., 0., 0., 0., 0., 0., 0., 0., 0., 0., 0., 0., 4.01891246e-02,
          9.92907807e-02, 5.43735214e-02, 2.60047279e-02, 1.15839243e-01,
          2.60047279e-02, 1.11111112e-01, 6.38297871e-02, 1.39479905e-01,
          4.49172594e-02, 4.25531901e-02, 4.72813239e-03, 4.25531901e-02,
          1.65484641e-02, 0., 2.60047279e-02, 1.65484641e-02,
          4.72813249e-02, 2.83687934e-02, 2.12765951e-02, 7.09219836e-03,
          9.45626479e-03, 0., 0., 0., 4.72813239e-03, 0., 0., 0., 0., 0.,
          0., 0., 2.36406620e-03, 2.36406620e-03, 0., 0., 0., 0., 0., 0.,
          0., 0., 0., 0., 0., 7.09219836e-03, 0., 0., 0., 0., 0., 0., 0.,
          0., 0., 0., 0., 0., 0., 0., 0., 0., 0., 0., 0., 0., 0., 0., 0.,
          0., 0., 0., 0., 0., 0., 0., 0., 0., 0., 0., 0., 0., 0., 0., 0.,
          0., 0., 0., 0., 0., 0., 0., 0., 0., 0., 0., 0., 0., 0.,
          1.49425283e-01, 2.12643683e-01, 5.74712642e-02, 3.16091962e-02,
          8.33333358e-02, 2.58620679e-02, 4.02298868e-02, 6.89655170e-02,
          8.62068981e-02, 2.87356321e-02, 3.73563208e-02, 2.87356321e-03,
          3.16091962e-02, 5.74712642e-03, 1.14942528e-02, 1.43678160e-02,
          5.74712642e-03, 3.73563208e-02, 1.43678160e-02, 5.74712642e-03,
          1.43678160e-02, 2.87356321e-03, 2.87356321e-03, 0., 0.,
          5.74712642e-03, 2.87356321e-03, 2.87356321e-03, 0.,
          2.87356321e-03, 2.87356321e-03, 2.87356321e-03, 2.87356321e-03,
          0., 2.87356321e-03, 0., 0., 0., 0., 0., 0., 0., 0., 0., 0., 0.,
          2.87356321e-03, 0., 0., 0., 0., 0., 0., 0., 0., 0., 0., 0., 0.,
          0., 0., 0., 0., 0., 0., 0., 0., 0., 0., 0., 0., 0., 0., 0., 0.,
          0., 0., 0., 0., 0., 0., 0., 0., 0., 0., 0., 0., 0., 0., 0., 0.,
          0., 0., 0., 0., 0., 0., 0., 0., 0., 7.17703328e-02,
          2.03349277e-01, 7.89473653e-02, 5.74162677e-02, 1.02870807e-01,
          3.11004780e-02, 5.50239198e-02, 5.50239198e-02, 8.37320536e-02,
          3.82775106e-02, 5.26315756e-02, 9.56937764e-03, 3.58851664e-02,
          1.43540669e-02, 4.78468882e-03, 9.56937764e-03, 7.17703346e-03,
          3.34928222e-02, 1.43540669e-02, 7.17703346e-03, 1.19617218e-02,
          7.17703346e-03, 0., 0., 2.39234441e-03, 4.78468882e-03, 0., 0.,
          0., 2.39234441e-03, 0., 0., 0., 0., 2.39234441e-03,
          2.39234441e-03, 0., 0., 0., 0., 0., 0., 0., 0., 0., 0., 0., 0.,
          0., 0., 0., 0., 0., 0., 0., 0., 0., 0., 0., 0., 0., 0., 0., 0.,
          0., 0., 0., 0., 0., 0., 0., 0., 0., 0., 0., 0., 0., 0., 0., 0.,
          0., 0., 0., 0., 0., 0., 0., 0., 0., 0., 0., 0., 0., 0., 0., 0.,
          0., 0., 0., 0., 1.75384611e-01, 1.53846160e-01, 8.30769241e-02,
          6.15384616e-02, 5.84615394e-02, 7.38461539e-02, 3.07692308e-02,
          5.53846136e-02, 7.38461539e-02, 3.07692308e-02, 2.46153846e-02,
          9.23076924e-03, 4.92307693e-02, 6.15384616e-03, 6.15384616e-03,
          9.23076924e-03, 1.23076923e-02, 3.07692308e-02, 2.15384625e-02,
          6.15384616e-03, 9.23076924e-03, 3.07692308e-03, 0.,
          3.07692308e-03, 0., 3.07692308e-03, 0., 0., 0., 0., 0., 0., 0.,
          3.07692308e-03, 0., 0., 0., 0., 0., 3.07692308e-03, 0., 0., 0.,
          0., 0., 0., 3.07692308e-03, 0., 0., 0., 0., 0., 0., 0., 0., 0.,
          0., 0., 0., 0., 0., 0., 0., 0., 0., 0., 0., 0., 0., 0., 0., 0.,
          0., 0., 0., 0., 0., 0., 0., 0., 0., 0., 0., 0., 0., 0., 0., 0.,
          0., 0., 0., 0., 0., 0., 0., 0., 0., 0., 0., 0., 1.07981220e-01,
          1.07981220e-01, 6.33802861e-02, 4.69483584e-02, 1.00938968e-01,
          4.69483584e-02, 6.10328652e-02, 5.63380271e-02, 9.38967168e-02,
          3.52112688e-02, 5.86854480e-02, 9.38967150e-03, 3.75586860e-02,
          2.58215964e-02, 4.69483575e-03, 1.64319258e-02, 9.38967150e-03,
          2.58215964e-02, 1.40845068e-02, 7.04225339e-03, 2.58215964e-02,
          1.40845068e-02, 0., 4.69483575e-03, 0., 2.34741787e-03,
          2.34741787e-03, 2.34741787e-03, 0., 0., 2.34741787e-03,
          2.34741787e-03, 0., 2.34741787e-03, 2.34741787e-03, 0., 0., 0.,
          0., 2.34741787e-03, 0., 0., 0., 0., 0., 0., 7.04225339e-03, 0.,
          0., 0., 0., 0., 0., 0., 0., 0., 0., 0., 0., 0., 0., 0., 0., 0.,
          0., 0., 0., 0., 0., 0., 0., 0., 0., 0., 0., 0., 0., 0., 0., 0.,
          0., 0., 0., 0., 0., 0., 0., 0., 0., 0., 0., 0., 0., 0., 0., 0.,
          0., 0., 0., 0., 1.67247385e-01, 1.70731708e-01, 8.36236924e-02,
          2.43902449e-02, 1.04529619e-01, 2.09059231e-02, 2.43902449e-02,
          9.75609794e-02, 5.92334494e-02, 3.48432064e-02, 5.57491295e-02,
          1.74216032e-02, 4.52961661e-02, 1.39372824e-02, 1.74216032e-02,
          3.48432059e-03, 1.04529615e-02, 1.04529615e-02, 1.04529615e-02,
          0., 1.39372824e-02, 3.48432059e-03, 0., 0., 0., 6.96864119e-03,
          0., 0., 0., 0., 0., 0., 0., 3.48432059e-03, 0., 0., 0., 0., 0.,
          0., 0., 0., 0., 0., 0., 0., 0., 0., 0., 0., 0., 0., 0., 0., 0.,
          0., 0., 0., 0., 0., 0., 0., 0., 0., 0., 0., 0., 0., 0., 0., 0.,
          0., 0., 0., 0., 0., 0., 0., 0., 0., 0., 0., 0., 0., 0., 0., 0.,
          0., 0., 0., 0., 0., 0., 0., 0., 0., 0., 0., 0., 0.,
          1.53846160e-01, 9.89011005e-02, 8.79120901e-02, 6.95970729e-02,
          8.79120901e-02, 3.66300382e-02, 6.22710623e-02, 6.59340695e-02,
          8.42490867e-02, 3.29670347e-02, 3.66300382e-02, 2.19780225e-02,
          3.29670347e-02, 2.56410260e-02, 3.66300368e-03, 7.32600736e-03,
          2.19780225e-02, 2.56410260e-02, 0., 3.66300368e-03,
          7.32600736e-03, 1.46520147e-02, 0., 0., 0., 3.66300368e-03,
          3.66300368e-03, 0., 0., 0., 0., 3.66300368e-03, 0., 0.,
          3.66300368e-03, 0., 0., 0., 0., 0., 0., 0., 0., 0., 0., 0.,
          3.66300368e-03, 0., 0., 0., 0., 0., 0., 0., 0., 0., 0., 0., 0.,
          0., 0., 0., 0., 0., 0., 0., 0., 0., 0., 0., 0., 0., 0., 0., 0.,
          0., 0., 0., 0., 0., 0., 0., 0., 0., 0., 0., 0., 0., 0., 0., 0.,
          0., 0., 0., 0., 0., 0., 0., 0., 0., 9.53206271e-02,
          1.16117850e-01, 6.75909892e-02, 8.66551101e-02, 6.93240911e-02,
          5.19930683e-02, 5.71923740e-02, 9.70537290e-02, 6.75909892e-02,
          2.77296361e-02, 5.02599664e-02, 8.66551138e-03, 5.54592721e-02,
          1.21317161e-02, 8.66551138e-03, 1.55979199e-02, 1.03986133e-02,
          3.98613513e-02, 2.07972266e-02, 6.93240901e-03, 1.73310228e-02,
          3.46620451e-03, 0., 0., 0., 3.46620451e-03, 1.73310225e-03, 0.,
          0., 0., 0., 1.73310225e-03, 1.73310225e-03, 0., 0., 0., 0.,
          1.73310225e-03, 0., 1.73310225e-03, 0., 0., 0., 0., 0., 0.,
          1.73310225e-03, 0., 0., 0., 0., 0., 0., 0., 0., 0., 0., 0., 0.,
          0., 0., 0., 0., 0., 0., 0., 0., 0., 0., 0., 0., 0., 0., 0., 0.,
          0., 0., 0., 0., 0., 0., 0., 0., 0., 0., 0., 0., 0., 0., 0., 0.,
          0., 0., 0., 0., 0., 0., 0., 0., 0., 1.51724145e-01,
          1.15862072e-01, 6.89655170e-02, 6.48275912e-02, 8.13793093e-02,
          4.13793102e-02, 6.75862059e-02, 8.68965536e-02, 7.31034502e-02,
          4.41379324e-02, 5.37931062e-02, 5.51724155e-03, 1.51724145e-02,
          1.51724145e-02, 6.89655170e-03, 1.10344831e-02, 1.24137932e-02,
          2.89655179e-02, 1.93103459e-02, 4.13793139e-03, 6.89655170e-03,
          2.75862077e-03, 0., 1.37931039e-03, 0., 4.13793139e-03,
          2.75862077e-03, 0., 0., 0., 2.75862077e-03, 1.37931039e-03,
          1.37931039e-03, 0., 2.75862077e-03, 1.37931039e-03, 0., 0., 0.,
          0., 0., 1.37931039e-03, 0., 0., 0., 0., 1.37931039e-03,
          1.37931039e-03, 0., 0., 0., 0., 0., 0., 0., 0., 0., 0., 0., 0.,
          0., 0., 0., 0., 0., 0., 0., 0., 0., 0., 0., 0., 0., 0., 0., 0.,
          0., 0., 0., 0., 0., 0., 0., 0., 0., 0., 0., 0., 0., 0., 0., 0.,
          0., 0., 0., 0., 0., 0., 0., 0. ]
   responses: !!opencv-matrix
      rows: 30
      cols: 1
      dt: f
      data: [ 0., 0., 0., 0., 0., 0., 0., 0., 0., 0., 0., 0., 0., 0., 0.,
          1., 1., 1., 1., 1., 1., 1., 1., 1., 1., 1., 1., 1., 1., 1. ]
