%YAML:1.0
---
opencv_ml_knn:
   format: 3
   is_classifier: 1
   default_k: 10
   samples: !!opencv-matrix
      rows: 50
      cols: 100
      dt: f
      data: [ 0., 0., 0., 5., 0., 6., 0., 2., 1., 0., 1., 1., 7., 5., 0.,
          0., 0., 2., 1., 0., 0., 0., 1., 2., 1., 1., 0., 1., 1., 0., 4.,
          2., 3., 1., 8., 1., 1., 4., 0., 0., 3., 0., 0., 2., 1., 3., 2.,
          1., 1., 1., 5., 1., 8., 1., 2., 1., 0., 4., 1., 0., 3., 19.,
          4., 2., 0., 4., 0., 0., 2., 3., 6., 0., 5., 2., 8., 1., 0., 1.,
          1., 2., 3., 3., 0., 2., 1., 5., 1., 4., 8., 1., 1., 2., 4., 0.,
          3., 7., 11., 1., 0., 1., 0., 0., 1., 3., 0., 4., 2., 0., 2.,
          1., 4., 9., 0., 5., 1., 2., 2., 1., 2., 2., 1., 2., 1., 3., 1.,
          1., 1., 0., 0., 0., 2., 2., 4., 1., 4., 2., 1., 3., 0., 0., 2.,
          0., 0., 3., 0., 1., 3., 0., 4., 0., 16., 2., 4., 1., 3., 1.,
          1., 2., 1., 0., 2., 14., 3., 1., 3., 2., 4., 2., 0., 2., 0.,
          1., 2., 7., 4., 0., 1., 1., 1., 0., 1., 0., 0., 1., 0., 5., 3.,
          0., 9., 0., 0., 10., 2., 0., 0., 3., 16., 1., 4., 0., 0., 1.,
          0., 0., 4., 1., 0., 0., 0., 0., 0., 0., 0., 1., 0., 0., 0., 0.,
          0., 2., 1., 1., 1., 0., 0., 1., 0., 0., 0., 1., 0., 1., 0., 1.,
          3., 0., 1., 0., 0., 0., 1., 0., 0., 0., 0., 1., 0., 0., 0., 0.,
          0., 1., 0., 2., 0., 3., 0., 4., 5., 0., 2., 6., 0., 0., 0., 1.,
          0., 3., 1., 0., 0., 0., 1., 1., 1., 0., 0., 0., 0., 0., 0., 0.,
          0., 0., 1., 0., 1., 0., 1., 0., 0., 1., 5., 1., 0., 1., 3., 1.,
          4., 1., 0., 0., 0., 1., 2., 0., 1., 0., 1., 1., 0., 2., 0., 0.,
          1., 1., 0., 1., 1., 3., 2., 1., 0., 0., 0., 0., 1., 0., 1., 0.,
          0., 2., 0., 1., 0., 0., 0., 1., 0., 0., 0., 0., 0., 1., 1., 0.,
          1., 0., 1., 0., 1., 0., 2., 0., 0., 0., 0., 3., 6., 0., 2., 6.,
          3., 2., 0., 0., 1., 2., 0., 0., 0., 1., 1., 0., 2., 1., 0., 0.,
          0., 0., 0., 1., 0., 0., 2., 0., 1., 1., 2., 0., 0., 2., 3., 0.,
          0., 2., 2., 0., 0., 0., 0., 2., 0., 14., 4., 1., 1., 1., 2.,
          1., 3., 8., 2., 1., 2., 5., 1., 0., 2., 1., 2., 0., 1., 1., 0.,
          2., 0., 1., 0., 0., 1., 6., 1., 3., 6., 3., 1., 5., 2., 1., 1.,
          0., 1., 1., 2., 1., 0., 1., 5., 3., 8., 0., 2., 0., 0., 1., 3.,
          6., 7., 0., 1., 3., 12., 2., 1., 1., 1., 4., 0., 0., 7., 1.,
          0., 1., 3., 0., 1., 0., 0., 1., 3., 0., 3., 3., 1., 2., 1., 2.,
          6., 1., 2., 3., 1., 1., 2., 11., 5., 0., 1., 1., 5., 5., 2.,
          4., 0., 5., 41., 8., 1., 5., 3., 1., 8., 3., 7., 2., 3., 4.,
          4., 2., 0., 7., 10., 4., 7., 10., 4., 2., 6., 2., 2., 3., 3.,
          16., 5., 9., 4., 3., 18., 9., 0., 4., 2., 2., 8., 4., 4., 4.,
          3., 2., 5., 4., 6., 0., 8., 5., 10., 11., 5., 11., 6., 34., 5.,
          0., 3., 7., 7., 0., 6., 3., 2., 5., 4., 4., 4., 5., 2., 3., 0.,
          1., 0., 9., 3., 12., 9., 4., 42., 1., 4., 8., 2., 5., 3., 7.,
          6., 8., 10., 6., 9., 0., 14., 8., 6., 3., 13., 7., 1., 6., 12.,
          15., 14., 11., 11., 7., 14., 12., 9., 7., 10., 7., 6., 7., 16.,
          8., 2., 10., 11., 13., 27., 17., 11., 17., 10., 20., 11., 15.,
          16., 4., 3., 11., 6., 0., 10., 24., 14., 19., 13., 5., 17.,
          29., 0., 10., 4., 2., 5., 16., 11., 20., 19., 25., 20., 2., 5.,
          3., 14., 15., 16., 8., 6., 11., 0., 5., 18., 11., 16., 12.,
          24., 16., 10., 17., 7., 23., 8., 17., 20., 2., 0., 4., 6., 27.,
          20., 11., 6., 6., 16., 4., 18., 17., 11., 5., 7., 12., 3., 6.,
          5., 12., 0., 15., 4., 16., 18., 1., 14., 4., 9., 2., 9., 11.,
          13., 1., 12., 1., 7., 2., 17., 12., 7., 9., 8., 3., 20., 5.,
          6., 9., 9., 9., 10., 0., 2., 3., 16., 0., 8., 9., 5., 10., 7.,
          8., 4., 4., 11., 8., 8., 6., 1., 2., 13., 19., 14., 4., 5., 6.,
          9., 5., 14., 19., 6., 1., 10., 7., 5., 5., 5., 3., 10., 5., 7.,
          9., 9., 11., 7., 12., 9., 4., 13., 3., 0., 1., 0., 6., 5., 6.,
          1., 7., 4., 12., 11., 7., 3., 5., 21., 4., 4., 5., 4., 11., 1.,
          14., 6., 16., 7., 14., 22., 15., 11., 16., 2., 8., 8., 7., 14.,
          2., 14., 9., 3., 8., 8., 5., 2., 2., 13., 11., 12., 33., 18.,
          19., 34., 12., 7., 9., 5., 0., 5., 9., 20., 9., 10., 5., 19.,
          10., 21., 7., 24., 2., 8., 11., 14., 3., 9., 10., 15., 31.,
          31., 3., 6., 23., 13., 5., 0., 9., 13., 8., 7., 12., 15., 9.,
          12., 11., 5., 20., 7., 15., 12., 38., 10., 10., 2., 12., 11.,
          16., 24., 18., 17., 18., 10., 29., 10., 11., 8., 15., 5., 1.,
          2., 6., 4., 2., 66., 5., 2., 4., 8., 3., 13., 1., 0., 2., 3.,
          6., 8., 0., 1., 19., 16., 3., 2., 5., 7., 2., 2., 0., 3., 4.,
          2., 4., 3., 2., 6., 4., 20., 0., 4., 0., 1., 2., 6., 4., 2.,
          1., 3., 3., 8., 7., 2., 0., 2., 9., 8., 0., 0., 2., 2., 7., 4.,
          2., 4., 5., 5., 0., 1., 5., 4., 1., 3., 1., 7., 14., 0., 1.,
          2., 5., 0., 5., 1., 13., 2., 0., 64., 1., 6., 1., 11., 8., 5.,
          6., 1., 8., 10., 2., 5., 1., 5., 1., 5., 0., 0., 4., 1., 5.,
          3., 6., 2., 2., 3., 4., 5., 4., 4., 0., 3., 2., 5., 2., 1., 5.,
          5., 5., 5., 3., 0., 3., 9., 4., 1., 10., 2., 3., 1., 0., 0.,
          2., 2., 0., 1., 4., 6., 2., 2., 1., 3., 4., 0., 1., 18., 7.,
          1., 0., 5., 0., 1., 1., 0., 2., 0., 0., 3., 4., 2., 2., 1., 9.,
          0., 8., 4., 6., 29., 2., 3., 2., 1., 8., 5., 2., 1., 7., 1.,
          1., 2., 1., 3., 1., 3., 3., 1., 8., 2., 0., 20., 1., 4., 1.,
          5., 7., 6., 10., 12., 10., 1., 8., 3., 16., 14., 14., 14., 10.,
          9., 14., 5., 3., 5., 3., 7., 2., 8., 7., 3., 4., 11., 5., 3.,
          1., 16., 13., 5., 7., 4., 5., 11., 1., 1., 2., 20., 0., 5., 6.,
          9., 5., 3., 12., 23., 4., 5., 11., 18., 7., 7., 4., 7., 11.,
          11., 5., 9., 7., 9., 5., 4., 14., 13., 6., 3., 9., 7., 5., 10.,
          21., 21., 7., 5., 2., 8., 22., 3., 6., 4., 9., 8., 5., 1., 2.,
          5., 8., 11., 15., 7., 4., 7., 9., 11., 3., 8., 9., 2., 3., 1.,
          6., 0., 3., 1., 5., 5., 15., 3., 4., 4., 3., 9., 12., 0., 3.,
          2., 0., 4., 0., 0., 7., 1., 3., 4., 2., 5., 0., 14., 9., 4.,
          11., 10., 3., 11., 0., 1., 1., 1., 0., 1., 2., 5., 4., 3., 4.,
          10., 1., 5., 1., 1., 0., 3., 3., 3., 1., 2., 0., 4., 3., 7.,
          2., 0., 0., 7., 2., 2., 3., 10., 3., 3., 2., 16., 4., 0., 3.,
          2., 17., 4., 0., 5., 6., 4., 10., 1., 6., 4., 8., 17., 6., 9.,
          11., 2., 30., 17., 1., 6., 2., 15., 5., 10., 31., 3., 27., 1.,
          12., 20., 43., 9., 2., 10., 4., 7., 17., 4., 27., 3., 4., 23.,
          3., 2., 7., 9., 7., 3., 6., 10., 6., 9., 14., 10., 14., 3.,
          15., 15., 2., 0., 2., 9., 0., 16., 2., 16., 15., 6., 29., 10.,
          6., 6., 10., 6., 14., 4., 1., 6., 87., 63., 10., 9., 2., 20.,
          34., 6., 5., 17., 1., 0., 8., 31., 15., 6., 4., 9., 3., 3.,
          16., 2., 44., 15., 10., 27., 15., 12., 5., 2., 6., 13., 3.,
          11., 12., 11., 11., 9., 21., 11., 10., 13., 32., 15., 15., 12.,
          5., 0., 9., 1., 11., 2., 17., 19., 6., 16., 4., 3., 7., 13.,
          8., 15., 0., 11., 2., 8., 2., 17., 18., 8., 14., 10., 22., 9.,
          15., 7., 28., 3., 23., 19., 2., 2., 7., 27., 0., 9., 5., 12.,
          11., 7., 11., 8., 12., 1., 13., 3., 11., 4., 6., 25., 6., 9.,
          19., 2., 4., 9., 1., 17., 18., 12., 0., 14., 11., 5., 6., 4.,
          2., 5., 10., 72., 22., 1., 23., 11., 29., 12., 12., 30., 2.,
          0., 10., 7., 8., 22., 6., 4., 16., 13., 3., 14., 25., 5., 18.,
          5., 5., 3., 3., 0., 6., 2., 4., 1., 10., 7., 4., 4., 4., 4.,
          5., 3., 0., 10., 8., 4., 1., 2., 2., 2., 4., 6., 4., 4., 0.,
          3., 6., 3., 3., 5., 11., 6., 6., 0., 6., 4., 0., 0., 5., 7.,
          1., 1., 4., 3., 0., 5., 4., 4., 6., 7., 5., 10., 4., 16., 1.,
          6., 8., 14., 3., 8., 9., 2., 7., 2., 2., 0., 1., 2., 6., 3.,
          3., 3., 1., 1., 5., 4., 4., 5., 5., 4., 5., 4., 1., 7., 4., 6.,
          5., 3., 3., 4., 6., 4., 1., 6., 3., 3., 3., 1., 3., 2., 2., 1.,
          4., 2., 4., 6., 2., 2., 3., 1., 1., 2., 2., 3., 1., 1., 1., 0.,
          4., 2., 5., 4., 3., 0., 4., 8., 2., 0., 5., 7., 3., 4., 5., 1.,
          1., 1., 0., 4., 2., 2., 0., 1., 6., 3., 1., 2., 4., 4., 4., 2.,
          0., 7., 4., 1., 1., 3., 7., 6., 5., 1., 4., 4., 0., 3., 5., 3.,
          4., 1., 4., 15., 5., 7., 2., 0., 7., 0., 4., 3., 3., 4., 7.,
          4., 12., 5., 2., 1., 4., 4., 2., 2., 3., 21., 1., 4., 2., 2.,
          6., 2., 2., 1., 3., 0., 1., 4., 2., 3., 3., 7., 0., 2., 6., 7.,
          1., 4., 2., 2., 1., 1., 1., 3., 4., 2., 1., 2., 3., 3., 3., 5.,
          5., 4., 6., 6., 3., 1., 2., 2., 0., 1., 1., 6., 2., 1., 7., 1.,
          6., 2., 6., 2., 2., 3., 4., 9., 7., 26., 3., 7., 9., 7., 1.,
          4., 5., 4., 0., 11., 3., 4., 2., 2., 0., 2., 1., 14., 1., 3.,
          6., 2., 8., 6., 9., 10., 0., 1., 10., 10., 0., 1., 6., 2., 6.,
          2., 8., 4., 2., 5., 4., 5., 0., 3., 8., 0., 2., 2., 4., 2., 4.,
          3., 3., 10., 2., 1., 7., 2., 4., 7., 2., 3., 3., 1., 2., 11.,
          6., 7., 1., 2., 0., 6., 1., 5., 2., 4., 5., 4., 5., 0., 0., 8.,
          0., 0., 1., 5., 2., 4., 2., 2., 2., 7., 3., 3., 4., 5., 4., 7.,
          9., 11., 1., 2., 9., 11., 3., 2., 7., 2., 4., 4., 2., 4., 3.,
          2., 3., 11., 6., 3., 0., 1., 2., 3., 6., 4., 6., 5., 0., 2.,
          7., 4., 1., 1., 2., 3., 8., 6., 9., 4., 1., 7., 2., 3., 3., 3.,
          2., 1., 3., 3., 2., 4., 4., 6., 6., 4., 7., 2., 8., 4., 4.,
          11., 5., 5., 0., 3., 3., 9., 5., 5., 4., 6., 2., 7., 6., 5.,
          6., 4., 6., 7., 1., 0., 6., 5., 0., 2., 6., 12., 2., 2., 9.,
          7., 3., 2., 5., 4., 5., 4., 2., 12., 4., 15., 1., 4., 8., 3.,
          2., 2., 4., 4., 1., 8., 5., 1., 2., 3., 5., 12., 3., 8., 4.,
          0., 7., 3., 5., 3., 5., 6., 5., 2., 8., 9., 1., 3., 7., 3., 6.,
          4., 6., 20., 5., 2., 4., 2., 2., 1., 1., 9., 2., 4., 1., 5.,
          3., 0., 7., 3., 2., 4., 12., 3., 1., 3., 1., 1., 8., 6., 10.,
          0., 3., 4., 1., 4., 0., 0., 9., 8., 6., 4., 2., 9., 3., 3., 2.,
          1., 0., 5., 4., 6., 1., 5., 2., 8., 2., 11., 2., 1., 1., 4.,
          6., 2., 0., 0., 4., 0., 17., 2., 0., 2., 8., 4., 5., 0., 4.,
          0., 3., 2., 9., 1., 8., 4., 1., 9., 2., 1., 4., 0., 13., 3.,
          4., 5., 0., 3., 9., 16., 15., 10., 5., 4., 4., 0., 0., 4., 1.,
          25., 8., 7., 4., 6., 6., 0., 6., 5., 13., 2., 2., 11., 5., 7.,
          16., 5., 6., 21., 1., 7., 5., 3., 2., 32., 19., 3., 13., 5.,
          75., 4., 13., 7., 19., 4., 12., 14., 0., 2., 21., 18., 0., 7.,
          8., 20., 5., 8., 8., 10., 24., 2., 3., 3., 28., 2., 1., 17.,
          30., 14., 25., 5., 1., 2., 6., 9., 6., 18., 1., 67., 17., 1.,
          8., 2., 0., 2., 6., 110., 30., 7., 17., 10., 37., 9., 11., 30.,
          2., 0., 1., 0., 11., 37., 9., 5., 10., 7., 0., 4., 18., 8.,
          19., 1., 2., 2., 6., 4., 5., 5., 1., 10., 1., 6., 15., 12.,
          17., 5., 5., 4., 1., 3., 3., 0., 6., 1., 10., 3., 2., 4., 1.,
          2., 0., 3., 0., 0., 10., 9., 0., 4., 4., 0., 1., 5., 0., 0.,
          2., 2., 2., 2., 3., 2., 2., 39., 1., 9., 5., 11., 16., 15.,
          10., 7., 1., 5., 86., 2., 0., 3., 4., 5., 11., 3., 4., 0., 8.,
          10., 19., 16., 6., 0., 2., 0., 3., 6., 2., 3., 6., 1., 6., 7.,
          1., 5., 1., 0., 11., 7., 12., 2., 10., 11., 0., 6., 0., 9.,
          11., 7., 4., 23., 7., 11., 16., 21., 14., 11., 37., 20., 28.,
          3., 21., 9., 3., 10., 10., 4., 7., 10., 13., 14., 9., 9., 7.,
          5., 3., 8., 17., 8., 8., 16., 11., 10., 5., 0., 5., 6., 0., 0.,
          7., 16., 6., 13., 3., 26., 6., 21., 8., 15., 9., 5., 19., 20.,
          3., 3., 4., 6., 48., 6., 6., 9., 20., 15., 16., 8., 4., 7., 8.,
          25., 22., 9., 8., 6., 10., 2., 13., 12., 12., 10., 20., 5., 9.,
          4., 4., 12., 9., 6., 27., 14., 9., 13., 12., 7., 8., 13., 4.,
          18., 7., 7., 6., 3., 4., 13., 11., 14., 6., 12., 25., 23., 18.,
          11., 14., 3., 4., 21., 5., 1., 14., 12., 21., 4., 11., 18., 2.,
          10., 5., 12., 6., 8., 16., 17., 17., 17., 8., 1., 15., 8., 0.,
          3., 14., 12., 6., 14., 6., 16., 9., 10., 6., 28., 10., 13.,
          12., 21., 3., 7., 13., 6., 40., 10., 0., 8., 17., 31., 10.,
          15., 11., 9., 5., 8., 19., 12., 20., 5., 5., 4., 5., 4., 5.,
          5., 24., 6., 12., 13., 1., 18., 8., 12., 20., 9., 23., 11.,
          14., 4., 7., 21., 3., 6., 0., 2., 9., 9., 4., 3., 13., 1., 5.,
          2., 8., 18., 9., 0., 6., 1., 3., 9., 13., 1., 3., 1., 0., 7.,
          1., 2., 1., 2., 0., 12., 0., 0., 18., 19., 1., 8., 3., 0., 3.,
          13., 0., 3., 4., 7., 1., 7., 0., 0., 1., 2., 2., 14., 8., 1.,
          1., 20., 19., 21., 5., 2., 1., 6., 6., 2., 9., 5., 12., 8., 4.,
          7., 5., 2., 13., 27., 4., 5., 2., 1., 5., 2., 5., 3., 5., 9.,
          14., 2., 2., 5., 5., 3., 2., 1., 8., 0., 5., 26., 1., 1., 2.,
          1., 1., 2., 5., 1., 3., 0., 1., 2., 5., 5., 1., 6., 6., 2., 1.,
          1., 4., 6., 4., 5., 1., 1., 1., 2., 0., 0., 1., 0., 2., 15.,
          1., 0., 8., 10., 23., 2., 3., 0., 6., 12., 0., 0., 3., 10., 2.,
          0., 5., 2., 1., 3., 2., 19., 10., 2., 0., 9., 11., 18., 0.,
          12., 1., 7., 2., 6., 2., 2., 0., 7., 1., 2., 1., 1., 3., 55.,
          2., 3., 2., 2., 2., 2., 6., 1., 3., 5., 6., 1., 7., 5., 1., 1.,
          1., 0., 8., 1., 5., 53., 0., 1., 9., 2., 0., 0., 18., 1., 6.,
          0., 6., 2., 4., 1., 2., 2., 0., 1., 0., 0., 3., 2., 1., 2., 0.,
          1., 4., 1., 2., 1., 1., 3., 2., 1., 3., 1., 10., 1., 2., 2.,
          5., 0., 0., 0., 0., 72., 0., 2., 1., 0., 1., 2., 2., 2., 0.,
          0., 0., 0., 2., 6., 37., 19., 5., 6., 6., 15., 2., 0., 1., 3.,
          0., 1., 2., 75., 4., 1., 1., 11., 0., 6., 1., 73., 2., 0., 3.,
          1., 6., 9., 0., 0., 6., 0., 0., 48., 1., 4., 5., 0., 55., 11.,
          2., 0., 4., 2., 1., 1., 2., 0., 0., 1., 7., 6., 3., 3., 2., 7.,
          5., 1., 3., 2., 1., 8., 1., 1., 0., 0., 1., 3., 2., 0., 0., 0.,
          1., 3., 2., 1., 4., 5., 1., 0., 0., 0., 0., 1., 0., 0., 2., 5.,
          2., 0., 0., 0., 0., 3., 0., 5., 1., 1., 1., 4., 0., 0., 0., 4.,
          9., 0., 2., 0., 2., 3., 5., 2., 1., 3., 0., 5., 2., 11., 1.,
          0., 2., 0., 1., 4., 2., 0., 0., 3., 1., 0., 1., 4., 0., 0., 2.,
          0., 2., 1., 1., 21., 1., 1., 0., 4., 3., 2., 1., 0., 0., 1.,
          6., 4., 0., 5., 2., 6., 9., 0., 0., 0., 0., 5., 4., 3., 2., 1.,
          1., 10., 0., 0., 0., 0., 3., 7., 1., 0., 3., 7., 0., 3., 0.,
          0., 3., 12., 0., 0., 1., 0., 0., 4., 1., 1., 1., 4., 1., 6.,
          4., 2., 1., 9., 6., 9., 0., 0., 11., 1., 2., 2., 4., 2., 4.,
          5., 0., 2., 0., 9., 6., 12., 5., 0., 0., 0., 1., 4., 0., 2.,
          2., 3., 8., 1., 4., 5., 0., 1., 0., 2., 6., 1., 3., 26., 1.,
          3., 1., 1., 3., 0., 7., 7., 4., 3., 1., 3., 2., 4., 3., 2., 6.,
          2., 3., 1., 1., 0., 2., 3., 1., 1., 1., 1., 1., 1., 2., 0., 0.,
          3., 0., 1., 0., 0., 2., 1., 2., 1., 1., 1., 0., 0., 1., 0., 0.,
          0., 0., 0., 0., 6., 0., 4., 1., 5., 2., 2., 9., 21., 0., 6.,
          4., 2., 1., 0., 1., 1., 3., 0., 1., 1., 0., 2., 2., 6., 0., 1.,
          1., 1., 2., 0., 0., 1., 0., 4., 3., 1., 5., 9., 0., 1., 2., 5.,
          0., 1., 6., 12., 0., 3., 0., 1., 0., 0., 6., 0., 4., 1., 6.,
          1., 3., 2., 1., 4., 0., 2., 2., 0., 1., 1., 1., 1., 0., 2., 4.,
          2., 0., 1., 0., 1., 3., 5., 1., 1., 5., 2., 3., 6., 3., 0., 1.,
          2., 0., 0., 1., 1., 2., 2., 1., 0., 3., 1., 2., 8., 1., 4., 1.,
          3., 10., 6., 0., 2., 4., 8., 5., 0., 1., 1., 2., 0., 2., 10.,
          4., 0., 0., 9., 0., 0., 0., 1., 3., 4., 0., 1., 3., 1., 0., 2.,
          6., 4., 0., 2., 5., 6., 1., 1., 6., 5., 0., 1., 0., 6., 1., 2.,
          13., 4., 11., 0., 7., 5., 18., 18., 1., 7., 2., 4., 7., 1., 9.,
          5., 2., 6., 0., 5., 1., 6., 1., 4., 2., 2., 0., 6., 4., 5.,
          14., 3., 7., 6., 8., 2., 2., 5., 0., 9., 5., 4., 5., 3., 12.,
          7., 0., 5., 8., 3., 1., 2., 0., 6., 22., 14., 2., 15., 4., 10.,
          6., 5., 10., 6., 5., 2., 9., 7., 7., 5., 1., 15., 3., 6., 2.,
          7., 14., 6., 10., 5., 7., 11., 0., 1., 3., 9., 1., 5., 1., 6.,
          6., 9., 13., 10., 3., 2., 6., 7., 10., 5., 6., 11., 8., 2.,
          13., 9., 16., 16., 13., 10., 9., 2., 12., 7., 12., 8., 7., 6.,
          1., 10., 3., 3., 12., 3., 9., 10., 4., 7., 12., 10., 9., 10.,
          24., 12., 2., 1., 1., 2., 0., 5., 16., 6., 3., 8., 8., 11., 3.,
          15., 9., 14., 0., 3., 7., 8., 6., 9., 6., 4., 21., 14., 2., 9.,
          21., 8., 7., 2., 1., 5., 10., 10., 20., 9., 8., 5., 10., 3.,
          10., 4., 14., 8., 4., 9., 8., 1., 7., 10., 3., 9., 9., 6., 7.,
          12., 11., 4., 7., 6., 7., 13., 4., 7., 5., 26., 23., 3., 6.,
          9., 11., 22., 31., 10., 4., 2., 5., 7., 6., 2., 9., 1., 4., 4.,
          11., 4., 2., 8., 9., 2., 2., 12., 17., 3., 8., 12., 8., 9.,
          10., 2., 6., 7., 0., 7., 2., 6., 6., 7., 13., 10., 0., 7., 28.,
          16., 2., 11., 10., 7., 4., 4., 3., 11., 35., 16., 9., 1., 10.,
          12., 11., 4., 8., 11., 10., 8., 23., 17., 4., 2., 6., 1., 14.,
          2., 6., 9., 15., 3., 12., 1., 11., 17., 6., 6., 30., 16., 5.,
          6., 9., 11., 4., 9., 7., 6., 2., 4., 0., 9., 0., 0., 2., 4.,
          10., 3., 3., 4., 1., 6., 3., 2., 5., 5., 2., 5., 2., 6., 3.,
          0., 4., 1., 4., 4., 7., 0., 6., 4., 9., 3., 8., 11., 4., 1.,
          3., 1., 0., 7., 12., 7., 3., 8., 4., 7., 3., 0., 2., 1., 2.,
          1., 2., 6., 3., 7., 2., 2., 0., 1., 3., 5., 7., 2., 5., 0., 5.,
          3., 5., 5., 1., 47., 5., 13., 6., 6., 12., 1., 18., 1., 11.,
          8., 1., 0., 2., 1., 6., 13., 5., 5., 3., 3., 3., 0., 0., 5.,
          2., 9., 2., 4., 6., 6., 6., 0., 4., 0., 25., 23., 3., 7., 2.,
          4., 12., 12., 9., 17., 1., 8., 3., 1., 1., 5., 10., 5., 10.,
          8., 11., 6., 8., 5., 17., 2., 14., 15., 6., 0., 3., 3., 0.,
          11., 4., 14., 6., 10., 5., 4., 4., 1., 7., 1., 5., 5., 6., 13.,
          8., 8., 1., 7., 1., 7., 5., 8., 18., 16., 1., 6., 8., 2., 15.,
          3., 4., 22., 3., 11., 8., 6., 14., 8., 26., 6., 9., 19., 4.,
          2., 3., 2., 8., 40., 7., 5., 5., 6., 4., 6., 6., 2., 7., 6.,
          2., 4., 1., 23., 8., 0., 2., 1., 20., 9., 2., 4., 3., 5., 12.,
          5., 2., 6., 4., 4., 0., 7., 4., 4., 11., 0., 12., 5., 4., 3.,
          16., 4., 11., 3., 7., 7., 2., 3., 3., 5., 0., 11., 7., 10., 3.,
          2., 10., 10., 5., 0., 4., 5., 4., 0., 1., 14., 5., 11., 3., 6.,
          2., 2., 4., 2., 9., 5., 2., 4., 3., 3., 9., 4., 7., 75., 1.,
          18., 11., 13., 20., 5., 13., 6., 16., 11., 1., 0., 2., 1., 6.,
          32., 6., 3., 1., 11., 1., 8., 4., 4., 10., 9., 1., 2., 5., 3.,
          7., 1., 4., 0., 9., 13., 1., 8., 4., 1., 9., 5., 3., 5., 0.,
          1., 4., 6., 2., 0., 2., 5., 4., 5., 1., 1., 13., 3., 3., 4.,
          2., 8., 3., 0., 10., 4., 0., 15., 6., 7., 6., 1., 6., 8., 4.,
          3., 2., 5., 5., 9., 1., 7., 13., 6., 4., 9., 2., 11., 4., 4.,
          7., 6., 0., 0., 5., 3., 7., 4., 4., 36., 0., 6., 0., 21., 9.,
          2., 6., 5., 10., 2., 1., 3., 5., 2., 8., 26., 8., 4., 2., 6.,
          6., 13., 2., 5., 3., 11., 3., 4., 3., 4., 13., 0., 4., 5., 13.,
          5., 8., 5., 2., 2., 12., 9., 2., 7., 1., 11., 1., 3., 2., 10.,
          3., 6., 3., 4., 12., 5., 11., 2., 20., 2., 21., 10., 4., 2.,
          7., 9., 0., 6., 1., 10., 5., 3., 8., 12., 4., 0., 7., 1., 19.,
          5., 3., 16., 10., 14., 9., 9., 1., 10., 9., 12., 11., 11., 3.,
          12., 6., 9., 7., 0., 11., 4., 1., 8., 5., 5., 13., 2., 13.,
          11., 10., 7., 5., 2., 7., 0., 7., 5., 7., 4., 16., 6., 10., 4.,
          8., 4., 6., 2., 3., 3., 3., 3., 0., 0., 3., 5., 0., 3., 0., 4.,
          2., 1., 1., 1., 0., 1., 1., 1., 4., 2., 2., 0., 0., 1., 0., 1.,
          1., 3., 0., 3., 5., 4., 4., 1., 0., 0., 2., 0., 0., 1., 1., 3.,
          2., 1., 1., 4., 1., 0., 3., 10., 1., 2., 0., 3., 0., 7., 0.,
          4., 3., 10., 5., 2., 0., 2., 2., 0., 0., 3., 2., 5., 1., 4.,
          2., 1., 2., 0., 2., 0., 1., 2., 1., 1., 0., 0., 0., 4., 1., 2.,
          6., 1., 2., 1., 7., 3., 1., 0., 5., 3., 3., 5., 2., 0., 9., 6.,
          3., 4., 2., 3., 7., 7., 5., 2., 3., 5., 4., 4., 4., 0., 1., 3.,
          4., 1., 1., 4., 4., 2., 0., 2., 8., 2., 2., 5., 2., 7., 1., 1.,
          1., 2., 0., 1., 3., 6., 1., 2., 8., 5., 2., 2., 3., 8., 4., 7.,
          1., 3., 1., 3., 3., 3., 11., 4., 4., 6., 3., 2., 3., 1., 3.,
          2., 2., 4., 4., 8., 3., 1., 0., 0., 2., 3., 5., 1., 4., 2., 5.,
          4., 1., 4., 1., 2., 10., 8., 1., 2., 2., 2., 0., 10., 5., 9.,
          3., 4., 2., 0., 3., 2., 6., 3., 7., 9., 3., 6., 3., 3., 5., 1.,
          3., 3., 6., 7., 3., 2., 4., 4., 7., 2., 1., 0., 8., 7., 4., 4.,
          8., 7., 11., 6., 3., 0., 7., 6., 0., 4., 6., 5., 3., 3., 7.,
          5., 5., 2., 0., 10., 5., 6., 1., 6., 4., 2., 2., 6., 8., 5.,
          4., 4., 4., 11., 4., 2., 5., 1., 1., 6., 8., 4., 1., 2., 3.,
          4., 4., 4., 5., 3., 12., 8., 8., 2., 3., 1., 3., 2., 5., 3.,
          3., 3., 6., 15., 4., 5., 4., 2., 1., 1., 0., 7., 2., 1., 9.,
          3., 0., 3., 8., 3., 2., 1., 3., 1., 1., 3., 2., 2., 0., 2., 0.,
          3., 2., 2., 1., 3., 1., 9., 0., 1., 1., 7., 2., 3., 1., 0., 0.,
          1., 0., 1., 0., 2., 1., 0., 1., 2., 0., 1., 3., 22., 1., 5.,
          1., 3., 3., 1., 1., 4., 8., 0., 3., 1., 1., 7., 0., 4., 3., 0.,
          2., 4., 6., 23., 2., 0., 0., 1., 0., 1., 1., 0., 8., 1., 5.,
          3., 4., 6., 1., 1., 9., 2., 1., 3., 1., 4., 1., 2., 0., 4., 1.,
          4., 1., 0., 5., 1., 5., 3., 6., 0., 4., 5., 4., 3., 8., 2., 1.,
          5., 0., 4., 2., 1., 2., 6., 0., 2., 2., 0., 2., 8., 6., 4.,
          10., 3., 5., 7., 1., 0., 2., 5., 0., 3., 5., 6., 4., 2., 3.,
          4., 3., 0., 0., 13., 7., 3., 3., 4., 3., 13., 3., 5., 0., 5.,
          4., 3., 1., 7., 2., 8., 6., 0., 4., 3., 4., 6., 3., 1., 7., 0.,
          4., 3., 3., 6., 5., 5., 6., 0., 5., 1., 2., 3., 4., 1., 6., 7.,
          2., 6., 4., 3., 4., 1., 4., 3., 7., 0., 5., 1., 3., 0., 1., 2.,
          2., 3., 1., 0., 3., 4., 1., 2., 1., 1., 1., 0., 0., 0., 3., 0.,
          2., 0., 6., 1., 1., 2., 13., 1., 7., 3., 8., 0., 1., 8., 0.,
          1., 2., 4., 4., 0., 4., 0., 0., 0., 2., 4., 7., 0., 0., 4.,
          15., 13., 1., 2., 1., 12., 2., 4., 4., 2., 0., 3., 4., 1., 8.,
          0., 0., 7., 1., 2., 1., 0., 4., 2., 6., 1., 2., 6., 2., 0., 2.,
          5., 0., 1., 2., 1., 6., 2., 11., 24., 0., 0., 2., 4., 1., 1.,
          11., 0., 3., 1., 0., 1., 2., 0., 3., 4., 8., 2., 8., 0., 2.,
          3., 13., 1., 2., 2., 2., 1., 1., 1., 2., 4., 1., 4., 8., 2.,
          5., 8., 1., 3., 5., 0., 1., 0., 0., 0., 7., 6., 1., 0., 0., 6.,
          0., 14., 0., 1., 1., 1., 0., 2., 6., 2., 2., 11., 8., 20., 6.,
          0., 2., 0., 10., 0., 1., 3., 2., 0., 4., 2., 0., 1., 0., 1.,
          3., 1., 0., 0., 1., 0., 7., 1., 4., 5., 2., 6., 3., 3., 2., 1.,
          33., 2., 2., 1., 0., 5., 1., 3., 1., 0., 4., 1., 1., 0., 4.,
          10., 3., 5., 7., 7., 9., 1., 4., 1., 8., 0., 2., 1., 0., 3.,
          1., 8., 2., 8., 0., 8., 3., 6., 6., 6., 3., 8., 0., 0., 0., 3.,
          0., 4., 2., 6., 2., 1., 3., 3., 0., 2., 7., 15., 1., 6., 1.,
          2., 13., 9., 1., 14., 5., 3., 8., 1., 1., 8., 6., 1., 2., 1.,
          7., 2., 2., 15., 2., 14., 5., 2., 4., 4., 3., 1., 3., 4., 8.,
          4., 14., 4., 1., 6., 2., 0., 0., 7., 4., 3., 0., 2., 4., 1.,
          0., 3., 3., 2., 10., 2., 4., 1., 3., 24., 1., 10., 8., 6., 3.,
          4., 2., 0., 5., 2., 2., 0., 3., 1., 2., 6., 5., 3., 7., 18.,
          4., 3., 15., 2., 3., 10., 3., 0., 3., 1., 0., 3., 6., 7., 2.,
          0., 6., 2., 3., 6., 7., 11., 2., 7., 2., 2., 4., 16., 8., 15.,
          10., 4., 0., 2., 7., 7., 4., 2., 5., 3., 9., 1., 3., 11., 3.,
          24., 7., 0., 4., 6., 4., 2., 7., 19., 4., 1., 15., 8., 4., 2.,
          2., 2., 3., 5., 12., 7., 8., 4., 6., 2., 1., 3., 11., 9., 14.,
          3., 1., 1., 3., 10., 13., 9., 3., 3., 4., 2., 2., 3., 7., 0.,
          3., 2., 6., 2., 1., 1., 0., 3., 0., 0., 13., 8., 6., 2., 0.,
          5., 13., 3., 0., 1., 0., 2., 2., 5., 2., 5., 3., 9., 1., 11.,
          4., 0., 1., 3., 6., 4., 3., 6., 1., 2., 8., 19., 3., 0., 9.,
          2., 7., 1., 1., 10., 5., 0., 7., 4., 0., 2., 2., 1., 5., 2.,
          10., 2., 11., 10., 0., 8., 2., 10., 8., 9., 13., 7., 3., 5.,
          24., 4., 0., 5., 2. ]
   responses: !!opencv-matrix
      rows: 1
      cols: 50
      dt: f
      data: [ 0., 0., 0., 0., 0., 1., 1., 1., 1., 1., 2., 2., 2., 2., 2.,
          3., 3., 3., 3., 3., 4., 4., 4., 4., 4., 5., 5., 5., 5., 5., 6.,
          6., 6., 6., 6., 7., 7., 7., 7., 7., 8., 8., 8., 8., 8., 9., 9.,
          9., 9., 9. ]
