%YAML:1.0
---
opencv_ml_knn:
   format: 3
   is_classifier: 1
   default_k: 10
   samples: !!opencv-matrix
      rows: 25
      cols: 100
      dt: f
      data: [ 0., 0., 1., 6., 2., 1., 0., 0., 0., 1., 0., 3., 0., 0., 0.,
          1., 0., 2., 1., 1., 0., 1., 0., 0., 4., 1., 1., 2., 0., 1., 1.,
          0., 1., 5., 2., 0., 0., 3., 3., 0., 0., 0., 2., 1., 1., 0., 1.,
          1., 0., 0., 6., 1., 4., 2., 8., 12., 1., 10., 3., 8., 4., 1.,
          2., 2., 2., 1., 1., 4., 1., 0., 1., 6., 2., 0., 12., 1., 1.,
          2., 0., 1., 4., 1., 0., 3., 19., 4., 0., 1., 9., 0., 0., 5.,
          1., 3., 5., 1., 9., 3., 3., 0., 2., 0., 2., 4., 1., 1., 2., 0.,
          0., 0., 0., 6., 0., 0., 0., 2., 0., 2., 0., 4., 0., 0., 0., 0.,
          2., 1., 2., 0., 0., 0., 1., 0., 0., 3., 6., 0., 0., 2., 1., 1.,
          0., 1., 0., 1., 0., 1., 2., 2., 1., 4., 3., 0., 6., 0., 3.,
          18., 2., 4., 0., 3., 4., 1., 3., 2., 4., 0., 1., 0., 0., 3.,
          4., 1., 1., 1., 7., 12., 0., 2., 0., 2., 1., 1., 0., 4., 16.,
          14., 1., 5., 7., 2., 3., 6., 1., 4., 0., 2., 0., 5., 2., 1.,
          1., 0., 0., 1., 0., 1., 0., 0., 0., 1., 0., 0., 0., 0., 0., 0.,
          1., 0., 0., 1., 1., 0., 0., 0., 0., 0., 3., 0., 0., 2., 1., 2.,
          0., 1., 4., 0., 1., 2., 0., 0., 0., 0., 0., 1., 1., 0., 0., 2.,
          0., 1., 0., 0., 1., 0., 1., 2., 1., 4., 6., 0., 2., 1., 1., 0.,
          0., 1., 0., 0., 0., 1., 0., 1., 0., 1., 0., 0., 0., 1., 0., 1.,
          0., 0., 0., 1., 7., 0., 1., 4., 1., 1., 0., 1., 0., 1., 1., 0.,
          0., 1., 1., 0., 0., 0., 1., 1., 0., 1., 1., 0., 0., 0., 0., 2.,
          1., 0., 0., 1., 0., 0., 1., 1., 0., 0., 0., 0., 0., 0., 1., 0.,
          2., 0., 1., 1., 0., 1., 1., 0., 0., 0., 2., 0., 0., 0., 0., 3.,
          0., 0., 0., 0., 0., 2., 2., 0., 0., 1., 2., 1., 0., 5., 7., 2.,
          0., 1., 0., 0., 0., 1., 0., 0., 0., 0., 0., 0., 0., 1., 1., 1.,
          1., 2., 0., 0., 1., 0., 0., 1., 5., 2., 1., 3., 2., 0., 2., 2.,
          0., 1., 1., 2., 0., 1., 0., 1., 0., 0., 4., 4., 2., 0., 1., 0.,
          0., 4., 0., 8., 2., 0., 0., 3., 0., 1., 6., 2., 0., 2., 0., 0.,
          2., 0., 0., 0., 2., 3., 2., 0., 1., 7., 0., 0., 1., 3., 5., 0.,
          0., 2., 0., 0., 0., 0., 0., 0., 3., 3., 16., 0., 0., 3., 5.,
          5., 4., 6., 9., 17., 1., 1., 7., 0., 1., 2., 0., 4., 0., 3.,
          0., 1., 0., 0., 4., 3., 1., 3., 1., 1., 2., 1., 0., 1., 3., 4.,
          1., 0., 9., 0., 1., 6., 0., 1., 6., 0., 0., 9., 1., 1., 5., 2.,
          10., 4., 3., 1., 42., 9., 5., 6., 3., 7., 3., 5., 3., 4., 3.,
          4., 16., 4., 5., 4., 0., 4., 3., 3., 0., 1., 8., 3., 7., 0.,
          5., 16., 5., 4., 7., 5., 2., 6., 1., 0., 16., 0., 2., 4., 2.,
          3., 6., 2., 5., 2., 4., 1., 8., 9., 10., 16., 6., 4., 7., 8.,
          3., 3., 6., 11., 4., 0., 10., 10., 6., 7., 11., 3., 12., 4.,
          2., 0., 5., 5., 0., 1., 0., 4., 31., 5., 45., 1., 3., 7., 6.,
          1., 9., 3., 4., 2., 8., 7., 0., 2., 19., 20., 15., 11., 16.,
          16., 2., 0., 0., 19., 0., 12., 19., 3., 0., 11., 14., 20., 25.,
          17., 20., 7., 0., 3., 6., 5., 2., 11., 15., 15., 13., 14., 14.,
          11., 20., 11., 21., 11., 19., 14., 0., 9., 22., 7., 5., 13.,
          14., 4., 20., 6., 2., 10., 11., 7., 13., 26., 18., 23., 19.,
          3., 8., 2., 3., 13., 13., 21., 10., 2., 24., 21., 15., 7., 18.,
          27., 25., 9., 31., 7., 8., 10., 5., 17., 1., 11., 2., 1., 0.,
          8., 1., 7., 16., 8., 2., 10., 3., 11., 15., 20., 6., 7., 6.,
          8., 7., 6., 12., 4., 0., 0., 0., 7., 0., 3., 4., 1., 0., 17.,
          10., 7., 18., 9., 1., 4., 0., 3., 26., 11., 11., 6., 11., 5.,
          10., 4., 2., 15., 10., 7., 18., 10., 5., 16., 0., 9., 8., 12.,
          11., 6., 3., 2., 6., 6., 7., 6., 2., 5., 0., 16., 19., 29.,
          15., 3., 3., 0., 0., 7., 8., 11., 13., 12., 0., 6., 17., 18.,
          9., 9., 18., 7., 8., 1., 12., 8., 6., 5., 0., 2., 7., 9., 0.,
          1., 0., 1., 5., 7., 14., 3., 4., 5., 16., 3., 16., 7., 18., 8.,
          20., 12., 8., 9., 1., 0., 0., 32., 0., 19., 5., 2., 0., 12.,
          10., 12., 37., 11., 0., 7., 0., 5., 12., 7., 12., 3., 9., 7.,
          29., 6., 9., 36., 7., 6., 14., 7., 18., 11., 0., 5., 14., 3.,
          0., 8., 5., 6., 9., 12., 5., 6., 17., 9., 13., 19., 22., 16.,
          7., 31., 15., 4., 7., 18., 7., 27., 5., 9., 6., 12., 15., 18.,
          7., 34., 24., 19., 15., 6., 11., 21., 6., 5., 0., 18., 36.,
          14., 2., 9., 8., 3., 18., 28., 5., 17., 19., 21., 22., 23., 3.,
          8., 7., 5., 8., 2., 1., 0., 68., 0., 1., 5., 0., 3., 1., 15.,
          0., 7., 1., 1., 7., 2., 0., 20., 0., 1., 4., 4., 1., 4., 1.,
          3., 5., 0., 0., 10., 5., 1., 5., 4., 4., 0., 0., 2., 2., 2.,
          2., 1., 2., 4., 0., 2., 5., 8., 2., 2., 3., 10., 11., 0., 0.,
          7., 4., 16., 3., 5., 5., 11., 8., 4., 5., 0., 2., 4., 6., 10.,
          9., 6., 2., 1., 0., 4., 1., 1., 0., 1., 7., 4., 66., 2., 8.,
          16., 6., 3., 1., 7., 3., 6., 14., 3., 7., 1., 5., 4., 8., 3.,
          3., 0., 0., 0., 0., 2., 0., 3., 1., 0., 0., 4., 1., 1., 12.,
          9., 4., 0., 0., 9., 4., 4., 7., 1., 5., 1., 10., 1., 2., 2.,
          1., 2., 3., 5., 2., 3., 0., 8., 0., 0., 1., 0., 9., 0., 8., 2.,
          0., 2., 7., 2., 2., 25., 6., 4., 0., 0., 0., 2., 0., 0., 3.,
          8., 0., 3., 1., 2., 2., 2., 4., 3., 36., 3., 4., 3., 4., 2.,
          2., 5., 0., 4., 1., 0., 1., 4., 2., 1., 3., 11., 5., 0., 0.,
          1., 4., 6., 2., 5., 7., 3., 13., 3., 6., 4., 1., 0., 0., 12.,
          0., 15., 9., 1., 0., 6., 4., 7., 16., 10., 0., 3., 0., 1., 22.,
          3., 7., 3., 9., 8., 8., 7., 3., 15., 9., 2., 10., 2., 22., 7.,
          0., 5., 6., 6., 4., 2., 7., 2., 5., 8., 4., 9., 15., 19., 7.,
          20., 17., 19., 10., 7., 6., 4., 3., 1., 2., 12., 8., 10., 4.,
          4., 31., 8., 12., 9., 30., 13., 7., 12., 6., 11., 6., 8., 0.,
          5., 8., 4., 1., 4., 5., 1., 12., 21., 5., 4., 3., 5., 16., 19.,
          20., 10., 3., 1., 8., 9., 5., 2., 0., 0., 0., 11., 0., 4., 2.,
          0., 0., 3., 4., 5., 12., 12., 0., 0., 0., 3., 8., 2., 1., 2.,
          8., 1., 14., 2., 0., 13., 1., 2., 2., 5., 7., 3., 0., 2., 3.,
          2., 2., 1., 1., 0., 3., 4., 7., 2., 2., 2., 3., 25., 3., 7.,
          2., 30., 3., 4., 6., 1., 4., 9., 2., 4., 2., 2., 24., 8., 1.,
          9., 20., 5., 0., 6., 8., 6., 5., 2., 0., 8., 5., 3., 0., 8.,
          4., 1., 8., 2., 2., 0., 10., 2., 4., 9., 2., 5., 12., 4., 19.,
          4., 14., 17., 1., 0., 0., 19., 0., 4., 6., 1., 0., 4., 15., 5.,
          46., 22., 1., 1., 0., 5., 8., 11., 32., 4., 9., 8., 20., 5.,
          4., 18., 4., 8., 8., 0., 16., 18., 0., 27., 3., 11., 1., 0.,
          5., 3., 9., 42., 28., 2., 5., 19., 11., 22., 7., 120., 48.,
          14., 9., 3., 3., 4., 5., 39., 29., 44., 2., 2., 31., 9., 11.,
          10., 11., 6., 3., 3., 32., 16., 36., 7., 0., 5., 2., 2., 2.,
          7., 17., 4., 15., 5., 10., 5., 10., 5., 12., 16., 9., 23., 19.,
          24., 16., 1., 6., 2., 0., 0., 0., 23., 0., 10., 10., 1., 0.,
          18., 21., 6., 42., 6., 19., 6., 1., 0., 22., 13., 8., 10., 4.,
          9., 23., 6., 12., 8., 17., 12., 31., 13., 5., 16., 0., 6., 6.,
          4., 11., 5., 15., 1., 12., 16., 5., 7., 5., 10., 9., 15., 21.,
          13., 6., 8., 4., 5., 1., 8., 6., 39., 13., 5., 12., 11., 15.,
          13., 24., 28., 12., 6., 69., 3., 17., 14., 3., 7., 0., 2., 4.,
          1., 0., 2., 6., 0., 17., 4., 20., 4., 12., 3., 15., 16., 37.,
          16., 7., 5., 9., 1., 2., 7., 2., 0., 0., 4., 0., 4., 1., 1.,
          0., 11., 2., 5., 9., 8., 1., 0., 0., 2., 3., 3., 8., 2., 5.,
          2., 5., 1., 1., 8., 8., 1., 13., 1., 2., 0., 0., 3., 2., 2.,
          5., 0., 1., 1., 1., 4., 3., 0., 6., 3., 9., 8., 12., 11., 13.,
          15., 4., 4., 2., 5., 5., 8., 1., 1., 1., 8., 8., 5., 6., 3.,
          8., 6., 4., 7., 6., 6., 4., 4., 0., 4., 9., 7., 2., 7., 5., 1.,
          4., 5., 1., 4., 0., 3., 4., 8., 4., 6., 4., 1., 2., 5., 2., 0.,
          1., 0., 0., 1., 0., 3., 1., 0., 0., 5., 3., 0., 5., 3., 4., 0.,
          0., 0., 4., 3., 2., 2., 1., 0., 5., 2., 4., 8., 4., 3., 6., 2.,
          3., 5., 0., 2., 2., 1., 2., 2., 3., 0., 2., 4., 3., 3., 4., 3.,
          6., 24., 7., 11., 1., 4., 5., 4., 4., 1., 1., 3., 3., 3., 0.,
          4., 3., 7., 4., 6., 22., 2., 9., 1., 2., 3., 4., 2., 0., 5.,
          7., 3., 4., 2., 6., 1., 6., 1., 2., 4., 10., 1., 5., 1., 1.,
          1., 4., 6., 6., 3., 1., 2., 0., 0., 0., 4., 0., 4., 2., 0., 0.,
          5., 2., 5., 8., 7., 2., 2., 0., 1., 4., 2., 8., 1., 4., 0., 3.,
          0., 3., 5., 8., 1., 9., 4., 2., 3., 0., 3., 4., 3., 9., 7., 5.,
          0., 5., 4., 3., 0., 1., 3., 4., 4., 7., 14., 23., 13., 3., 1.,
          1., 4., 4., 9., 2., 4., 2., 3., 2., 3., 9., 4., 4., 7., 17.,
          0., 3., 7., 2., 4., 0., 1., 7., 1., 0., 0., 7., 1., 6., 2., 4.,
          3., 10., 1., 5., 5., 4., 4., 5., 2., 5., 5., 2., 2., 2., 0.,
          0., 3., 0., 5., 1., 0., 0., 8., 2., 6., 4., 9., 0., 0., 0., 3.,
          2., 5., 5., 1., 1., 1., 9., 3., 0., 8., 5., 0., 9., 3., 1., 1.,
          0., 4., 3., 1., 4., 0., 2., 1., 3., 4., 7., 5., 5., 2., 8., 5.,
          10., 16., 9., 11., 6., 4., 7., 2., 6., 4., 5., 1., 1., 2., 3.,
          2., 4., 2., 15., 1., 3., 2., 4., 4., 3., 1., 0., 0., 9., 6.,
          2., 0., 3., 4., 3., 2., 12., 1., 7., 3., 11., 5., 10., 3., 1.,
          4., 15., 2., 0., 3., 3., 0., 0., 7., 0., 6., 2., 0., 0., 12.,
          3., 4., 8., 10., 2., 2., 0., 5., 9., 8., 11., 5., 4., 2., 12.,
          2., 7., 7., 5., 2., 11., 5., 6., 2., 0., 1., 2., 3., 7., 2.,
          8., 0., 3., 1., 2., 5., 8., 3., 3., 20., 11., 5., 11., 7., 2.,
          1., 0., 3., 3., 6., 3., 3., 2., 5., 5., 7., 9., 3., 16., 3.,
          7., 2., 6., 8., 3., 3., 0., 8., 7., 2., 0., 1., 6., 1., 4., 8.,
          10., 8., 6., 1., 5., 6., 4., 4., 4., 3., 12., 4., 1., 5., 3.,
          0., 0., 12., 0., 9., 7., 1., 0., 2., 2., 7., 6., 9., 1., 4.,
          0., 11., 0., 1., 1., 1., 4., 5., 3., 5., 0., 17., 2., 4., 4.,
          2., 10., 2., 0., 0., 2., 3., 0., 3., 3., 1., 7., 0., 0., 4.,
          14., 6., 2., 0., 4., 1., 0., 2., 4., 6., 11., 3., 7., 5., 2.,
          0., 2., 1., 5., 2., 2., 12., 1., 13., 2., 7., 2., 3., 1., 4.,
          0., 4., 16., 3., 2., 6., 5., 9., 6., 0., 1., 10., 0., 3., 6.,
          13., 1., 0., 32., 18., 17., 3., 7., 10., 0., 0., 0., 34., 0.,
          4., 11., 2., 0., 23., 21., 7., 33., 21., 70., 2., 0., 3., 7.,
          24., 22., 8., 5., 5., 18., 5., 34., 7., 4., 15., 24., 3., 15.,
          28., 0., 9., 8., 7., 61., 3., 20., 1., 18., 14., 4., 5., 0.,
          7., 4., 5., 11., 39., 10., 0., 2., 0., 1., 11., 6., 27., 11.,
          1., 14., 11., 15., 10., 10., 29., 3., 7., 107., 0., 10., 14.,
          4., 3., 0., 3., 1., 0., 0., 2., 0., 4., 11., 5., 30., 5., 3.,
          6., 9., 14., 15., 20., 0., 0., 2., 11., 0., 0., 5., 0., 0., 0.,
          0., 16., 4., 0., 0., 2., 0., 0., 5., 7., 0., 3., 0., 9., 2.,
          5., 4., 1., 6., 1., 7., 1., 0., 16., 2., 0., 4., 1., 4., 2.,
          0., 3., 2., 3., 4., 7., 2., 13., 6., 3., 8., 3., 19., 1., 6.,
          12., 9., 15., 6., 2., 1., 10., 12., 5., 7., 6., 1., 3., 1., 5.,
          1., 1., 6., 1., 21., 14., 2., 17., 1., 5., 2., 4., 0., 7., 87.,
          29., 4., 6., 3., 3., 9., 19., 3., 5., 1., 7., 17., 7., 6., 3.,
          8., 7., 19., 18., 11., 5., 10., 0., 0., 6., 0., 34., 13., 1.,
          0., 13., 5., 10., 14., 22., 4., 0., 1., 11., 15., 10., 6., 15.,
          6., 11., 24., 9., 7., 30., 16., 8., 12., 17., 21., 10., 0., 7.,
          6., 7., 8., 13., 4., 8., 6., 6., 4., 9., 28., 6., 17., 10.,
          22., 3., 3., 6., 10., 1., 8., 4., 17., 16., 1., 5., 2., 12.,
          17., 8., 11., 6., 23., 32., 5., 23., 8., 10., 6., 5., 0., 15.,
          43., 13., 2., 17., 15., 8., 14., 31., 12., 10., 4., 4., 26.,
          28., 3., 15., 22., 10., 17., 7., 5., 6., 15., 0., 0., 15., 0.,
          25., 8., 1., 0., 21., 5., 7., 24., 10., 6., 6., 0., 19., 18.,
          17., 6., 11., 14., 9., 26., 5., 7., 18., 8., 5., 8., 11., 16.,
          7., 0., 4., 11., 7., 16., 13., 9., 7., 9., 4., 6., 13., 26.,
          5., 11., 7., 23., 5., 6., 20., 8., 12., 8., 7., 14., 14., 7.,
          1., 11., 9., 6., 13., 11., 16., 24., 26., 5., 10., 3., 15., 1.,
          12., 1., 14., 37., 9., 10., 9., 18., 12., 29., 27., 8., 3.,
          11., 15., 22., 28., 7., 1. ]
   responses: !!opencv-matrix
      rows: 1
      cols: 25
      dt: f
      data: [ 0., 0., 0., 0., 0., 1., 1., 1., 1., 1., 2., 2., 2., 2., 2.,
          3., 3., 3., 3., 3., 4., 4., 4., 4., 4. ]
