%YAML:1.0
---
opencv_ml_knn:
   format: 3
   is_classifier: 1
   default_k: 10
   samples: !!opencv-matrix
      rows: 10
      cols: 100
      dt: f
      data: [ 0., 2., 0., 0., 2., 0., 3., 0., 0., 1., 0., 4., 2., 2., 0.,
          2., 0., 1., 0., 0., 3., 4., 0., 23., 4., 1., 0., 2., 0., 0.,
          4., 1., 0., 11., 4., 0., 0., 0., 2., 1., 0., 0., 5., 0., 1.,
          0., 0., 5., 0., 3., 7., 1., 1., 1., 0., 0., 3., 6., 3., 7., 0.,
          0., 4., 1., 2., 2., 1., 1., 0., 0., 4., 1., 0., 0., 15., 0.,
          2., 3., 1., 1., 4., 7., 0., 0., 15., 4., 2., 0., 4., 1., 0.,
          0., 2., 1., 4., 6., 7., 1., 1., 1., 1., 0., 0., 0., 5., 1., 4.,
          0., 0., 0., 0., 1., 5., 2., 0., 3., 4., 0., 0., 0., 0., 8., 3.,
          13., 1., 1., 3., 3., 0., 0., 17., 1., 0., 4., 3., 4., 0., 2.,
          3., 1., 0., 0., 3., 0., 0., 0., 0., 5., 0., 1., 1., 1., 3., 1.,
          0., 0., 2., 3., 1., 19., 0., 1., 3., 1., 1., 2., 0., 1., 0.,
          0., 6., 3., 0., 0., 20., 5., 1., 3., 1., 0., 2., 1., 0., 0.,
          10., 4., 7., 0., 2., 0., 0., 0., 1., 2., 2., 5., 1., 0., 0.,
          1., 0., 0., 0., 0., 0., 0., 2., 0., 0., 0., 0., 0., 0., 1., 0.,
          1., 3., 0., 0., 0., 0., 1., 0., 5., 1., 0., 0., 0., 0., 0., 0.,
          0., 0., 2., 3., 1., 0., 2., 0., 2., 0., 0., 3., 0., 1., 3., 0.,
          0., 1., 1., 0., 0., 3., 1., 0., 0., 2., 4., 5., 2., 0., 0., 0.,
          0., 0., 1., 2., 1., 0., 0., 0., 0., 0., 0., 4., 0., 0., 2., 0.,
          1., 0., 0., 0., 0., 0., 2., 1., 0., 1., 2., 0., 0., 2., 2., 0.,
          1., 0., 0., 1., 0., 0., 0., 0., 0., 0., 1., 2., 0., 0., 2., 0.,
          1., 0., 2., 0., 2., 4., 0., 1., 0., 1., 0., 0., 7., 0., 0., 0.,
          2., 0., 0., 3., 0., 0., 1., 2., 0., 0., 1., 0., 0., 0., 0., 0.,
          1., 0., 2., 0., 0., 0., 1., 1., 0., 0., 0., 1., 0., 0., 4., 6.,
          2., 0., 0., 4., 0., 0., 2., 0., 1., 0., 0., 0., 0., 0., 1., 1.,
          1., 1., 0., 0., 0., 0., 0., 0., 0., 3., 3., 2., 0., 3., 1., 0.,
          0., 2., 0., 0., 0., 1., 0., 0., 1., 0., 4., 0., 0., 3., 1., 1.,
          0., 0., 0., 0., 1., 3., 3., 0., 15., 1., 0., 4., 0., 4., 5.,
          0., 3., 2., 1., 3., 9., 0., 0., 6., 0., 0., 12., 5., 2., 1.,
          2., 0., 0., 0., 0., 2., 0., 1., 5., 0., 0., 0., 1., 9., 2., 3.,
          1., 1., 3., 4., 6., 9., 3., 0., 0., 13., 3., 1., 3., 1., 1.,
          0., 2., 4., 0., 0., 2., 5., 0., 1., 1., 1., 1., 2., 0., 1., 0.,
          9., 2., 2., 0., 2., 0., 1., 0., 1., 1., 0., 9., 5., 0., 2., 0.,
          0., 0., 1., 0., 2., 1., 3., 0., 3., 1., 0., 3., 0., 5., 0., 1.,
          0., 0., 2., 0., 1., 2., 0., 8., 0., 1., 2., 0., 0., 0., 2., 2.,
          1., 7., 3., 0., 0., 0., 1., 1., 0., 0., 0., 0., 3., 0., 0., 0.,
          0., 0., 3., 0., 4., 0., 0., 0., 8., 8., 8., 2., 0., 0., 5., 3.,
          2., 6., 10., 0., 7., 0., 9., 2., 0., 3., 8., 2., 0., 0., 1.,
          1., 1., 4., 0., 1., 5., 1., 3., 0., 6., 0., 1., 0., 5., 2., 1.,
          0., 7., 1., 2., 1., 0., 5., 0., 0., 3., 5., 7., 1., 8., 1., 7.,
          3., 8., 6., 1., 3., 15., 0., 4., 0., 6., 5., 6., 22., 5., 16.,
          11., 5., 0., 0., 13., 5., 0., 8., 6., 10., 10., 9., 7., 7., 0.,
          0., 3., 1., 4., 17., 1., 10., 0., 5., 3., 4., 10., 5., 7., 7.,
          16., 16., 8., 17., 1., 0., 19., 14., 13., 12., 5., 2., 2., 8.,
          9., 3., 3., 6., 8., 11., 6., 4., 7., 19., 11., 0., 0., 3., 18.,
          9., 17., 1., 13., 6., 5., 0., 7., 1., 9., 11., 16., 6., 9., 6.,
          0., 2., 0., 0., 3., 3., 4., 0., 5., 3., 0., 2., 0., 7., 0., 0.,
          0., 0., 6., 0., 3., 2., 4., 1., 2., 3., 16., 0., 0., 1., 3.,
          5., 0., 6., 1., 0., 1., 0., 6., 0., 0., 0., 7., 0., 5., 1., 0.,
          0., 0., 0., 7., 0., 1., 0., 2., 1., 8., 23., 31., 1., 3., 0.,
          11., 2., 6., 7., 3., 2., 3., 2., 6., 1., 0., 11., 1., 6., 7.,
          0., 11., 4., 2., 0., 0., 2., 1., 5., 3., 0., 1., 1., 1., 0.,
          5., 12., 5., 1., 12., 7., 2., 6., 0., 2., 0., 1., 2., 3., 5.,
          0., 4., 0., 0., 2., 0., 9., 0., 0., 0., 0., 13., 0., 1., 4.,
          4., 5., 0., 1., 8., 0., 0., 0., 2., 3., 0., 5., 2., 0., 0., 0.,
          2., 0., 1., 0., 6., 0., 3., 5., 0., 0., 0., 1., 3., 2., 3., 0.,
          3., 0., 5., 23., 16., 1., 3., 0., 5., 6., 9., 15., 8., 3., 3.,
          0., 6., 3., 0., 8., 0., 8., 10., 0., 12., 4., 2., 1., 1., 2.,
          0., 3., 6., 0., 1., 0., 0., 1., 10., 11., 4., 0., 6., 7., 3.,
          16., 0., 1., 0., 0., 1., 2., 9., 0., 1., 0., 1., 3., 1., 5.,
          0., 2., 0., 0., 5., 1., 2., 5., 3., 2., 5., 2., 6., 0., 1., 0.,
          3., 0., 0., 11., 3., 3., 3., 3., 2., 0., 0., 1., 1., 0., 3.,
          0., 0., 1., 0., 5., 3., 0., 5., 1., 1., 0., 8., 8., 13., 0.,
          0., 0., 8., 0., 4., 5., 2., 2., 0., 0., 2., 1., 3., 3., 7., 1.,
          2., 4., 7., 4., 0., 4., 0., 1., 17., 0., 10., 0., 2., 1., 2.,
          0., 3., 3., 3., 1., 4., 0., 2., 1. ]
   responses: !!opencv-matrix
      rows: 1
      cols: 10
      dt: f
      data: [ 0., 0., 0., 0., 0., 1., 1., 1., 1., 1. ]
